/*!
 * The following copyright notice may not be removed under any circumstances.
 * 
 * Copyright:
 * Copyright (c) Mark Simonson, 2005. All rights reserved.
 * 
 * Description:
 * This is a protected webfont and is intended for CSS @font-face use ONLY.
 * Reverse engineering this font is strictly prohibited.
 */
Cufon.registerFont({"w":470,"face":{"font-family":"","font-weight":300,"font-stretch":"normal","units-per-em":"1000","panose-1":"2 0 5 6 3 0 0 2 0 4","ascent":"790","descent":"-210","x-height":"12","bbox":"-63 -872 793 199","underline-thickness":"20","underline-position":"-113","unicode-range":"U+0020-U+2122"},"glyphs":{" ":{"w":217},"!":{"d":"129,-173r-40,0r-13,-494r66,0xm152,-34v0,23,-20,43,-43,43v-22,0,-43,-20,-43,-43v0,-22,21,-42,43,-42v23,0,43,20,43,42","w":218},"\"":{"d":"93,-677v19,0,37,17,35,35r-20,213r-29,0v-14,-133,-21,-204,-21,-213v-1,-18,17,-35,35,-35xm222,-677v19,0,37,17,35,35r-21,213r-29,0v-13,-133,-20,-204,-20,-213v0,-18,16,-35,35,-35","w":315},"#":{"d":"246,0r-46,0r54,-186r-96,0r-53,186r-46,0r53,-186r-91,0r10,-41r93,0r60,-213r-92,0r9,-40r95,0r52,-187r46,0r-52,187r95,0r52,-187r46,0r-53,187r91,0r-9,40r-93,0r-61,213r95,0r-11,41r-95,0xm264,-227r61,-213r-95,0r-61,213r95,0","w":494},"$":{"d":"415,-166v0,97,-62,167,-157,176r0,90r-45,0r0,-88v-74,-3,-133,-30,-177,-83r34,-43v29,38,81,72,143,75r0,-284v-80,-40,-155,-75,-158,-188v-3,-93,71,-159,158,-166r0,-91r45,0r0,91v59,5,107,27,144,68r-32,42v-29,-34,-67,-54,-112,-59r0,259v48,26,68,38,106,72v33,30,51,70,51,129xm258,-42v61,-9,100,-56,100,-121v0,-76,-46,-104,-100,-137r0,258xm213,-625v-56,7,-102,51,-100,112v2,68,48,92,100,122r0,-234","w":454},"%":{"d":"307,-512v0,87,-53,162,-137,162v-84,0,-137,-75,-137,-162v0,-88,53,-165,137,-165v84,0,137,77,137,165xm168,0r-40,0r348,-667r42,0xm608,-151v0,88,-53,163,-137,163v-83,0,-136,-77,-136,-163v0,-88,53,-164,136,-164v84,0,137,76,137,164xm77,-512v0,62,35,124,93,124v60,0,92,-60,92,-124v0,-65,-32,-127,-92,-127v-59,0,-93,63,-93,127xm379,-151v0,64,32,125,92,125v60,0,93,-61,93,-125v0,-65,-33,-126,-93,-126v-60,0,-92,61,-92,126","w":641},"&":{"d":"243,-677v87,0,136,91,105,179v-14,39,-20,50,-50,78v-36,32,-34,31,-75,61v35,64,90,145,131,198v23,-47,42,-100,55,-158r46,19v-22,77,-45,137,-69,180r100,120r-68,0r-61,-75v-43,58,-95,87,-155,87v-97,0,-162,-73,-160,-176v2,-107,54,-153,119,-205v-30,-60,-45,-110,-45,-151v-2,-84,48,-157,127,-157xm97,-166v0,76,42,132,109,133v43,0,84,-27,121,-81v-62,-76,-111,-157,-144,-214v-57,47,-86,101,-86,162xm244,-634v-53,2,-76,53,-75,114v0,34,11,75,34,122v35,-25,60,-50,79,-71v41,-46,37,-166,-38,-165","w":510},"'":{"d":"93,-677v19,0,37,17,35,35r-20,213r-29,0v-14,-133,-21,-204,-21,-213v-1,-18,17,-35,35,-35","w":187},"(":{"d":"103,-243v0,178,34,287,87,423r-32,19v-149,-266,-149,-618,0,-884r32,18v-53,137,-87,244,-87,424","w":208},")":{"d":"104,-243v0,178,-34,289,-87,423r32,19v149,-266,149,-618,0,-884r-32,18v55,135,87,245,87,424","w":208},"*":{"d":"176,-400r-37,0r6,-117r-98,64r-19,-32r104,-53r-104,-54r19,-32r98,64r-6,-117r37,0r-6,117r99,-64r18,32r-104,54r104,53r-18,32r-99,-64","w":315},"+":{"d":"407,-317r-167,0r0,188r-44,0r0,-188r-167,0r0,-40r167,0r0,-182r44,0r0,182r167,0r0,40","w":436},",":{"d":"108,-76v30,1,50,29,49,63v-1,58,-34,111,-71,135r-29,-24v27,-17,55,-56,59,-92v-29,6,-50,-13,-50,-40v0,-22,19,-43,42,-42","w":218},"-":{"d":"236,-219r-206,0r0,-46r206,0r0,46","w":266},".":{"d":"152,-34v0,23,-20,43,-43,43v-22,0,-43,-20,-43,-43v0,-22,21,-42,43,-42v23,0,43,20,43,42","w":218},"\/":{"d":"43,20r-43,0r192,-707r43,0","w":235},"0":{"d":"346,-20v-51,42,-136,41,-188,0v-120,-95,-131,-382,-63,-543v26,-62,77,-114,157,-114v124,0,169,113,187,223v27,168,3,356,-93,434xm182,-66v36,35,102,36,138,0v71,-71,81,-234,65,-370v-10,-89,-37,-190,-133,-190v-98,0,-123,101,-134,190v-17,137,-8,300,64,370","w":502},"1":{"d":"212,0r-55,0r0,-592r-104,113r-35,-37r144,-151r50,0r0,667","w":288},"2":{"d":"235,-677v98,0,172,70,172,173v0,50,-17,101,-49,154v-31,51,-142,196,-225,300r276,0r0,50r-353,0r0,-47r154,-189r40,-51r30,-43v37,-53,66,-93,70,-173v3,-72,-49,-123,-116,-123v-63,0,-109,29,-140,87r-41,-32v42,-71,103,-106,182,-106","w":477},"3":{"d":"403,-179v0,113,-70,191,-185,191v-90,0,-154,-52,-186,-112r42,-31v33,61,80,92,142,92v85,1,130,-56,130,-143v0,-108,-78,-146,-185,-135r0,-53v6,1,22,1,48,1v75,0,129,-47,129,-126v0,-81,-46,-131,-122,-131v-53,0,-99,28,-136,84r-40,-31v34,-57,94,-103,178,-104v104,0,176,67,176,176v0,78,-55,142,-116,156v65,11,125,82,125,166","w":457},"4":{"d":"340,0r-55,0r0,-183r-261,0r0,-51r244,-433r72,0r0,434r76,0r0,50r-76,0r0,183xm285,-233r0,-369r-208,369r208,0","w":440},"5":{"d":"426,-202v0,114,-75,215,-184,214v-99,-1,-146,-45,-184,-111r41,-32v32,61,79,92,142,92v78,0,128,-80,128,-162v0,-94,-39,-164,-124,-164v-47,0,-89,22,-125,65r-43,-18r0,-349r315,0r0,50r-260,0r0,261v32,-39,74,-59,125,-59v108,2,169,92,169,213","w":477},"6":{"d":"430,-200v0,111,-67,214,-180,212v-125,-3,-169,-106,-187,-216v-27,-171,-5,-372,100,-444v28,-19,61,-29,98,-29v66,0,116,29,149,88r-35,37v-37,-73,-123,-101,-186,-48v-66,56,-79,171,-79,293v23,-50,80,-105,150,-105v110,2,170,89,170,212xm249,-362v-68,0,-113,61,-137,115v6,78,23,149,72,187v18,14,40,21,64,21v82,2,125,-79,125,-160v0,-99,-38,-163,-124,-163","w":478},"7":{"d":"160,0r-60,0r213,-617r-285,0r0,-50r348,0r0,38","w":404},"8":{"d":"420,-163v0,106,-77,175,-184,175v-108,0,-185,-68,-185,-174v0,-88,70,-157,135,-182v-62,-23,-126,-81,-126,-165v0,-103,78,-168,176,-168v97,0,175,66,175,168v0,83,-64,142,-125,165v64,25,134,93,134,181xm236,-626v-94,0,-146,98,-104,181v21,40,61,64,104,78v59,-18,116,-60,118,-137v1,-72,-47,-122,-118,-122xm108,-167v0,76,54,128,128,128v71,0,129,-53,127,-128v-2,-85,-62,-133,-127,-154v-23,3,-51,19,-82,47v-31,28,-46,64,-46,107","w":471},"9":{"d":"48,-466v0,-111,68,-215,181,-212v125,3,169,106,186,217v27,172,5,370,-100,443v-28,19,-61,29,-98,29v-65,0,-115,-29,-149,-88r35,-37v37,74,124,101,187,48v66,-56,78,-171,78,-293v-23,49,-80,106,-150,105v-110,-2,-170,-90,-170,-212xm105,-467v0,99,38,163,124,163v67,0,114,-61,137,-115v-6,-78,-24,-149,-72,-187v-18,-14,-39,-21,-63,-21v-83,-3,-126,79,-126,160","w":478},":":{"d":"152,-447v0,22,-20,43,-43,43v-22,0,-43,-21,-43,-43v0,-22,21,-43,43,-43v23,0,43,21,43,43xm152,-34v0,23,-20,43,-43,43v-22,0,-43,-20,-43,-43v0,-22,21,-42,43,-42v23,0,43,20,43,42","w":217},";":{"d":"152,-447v0,22,-20,43,-43,43v-22,0,-43,-21,-43,-43v0,-22,21,-43,43,-43v23,0,43,21,43,43xm108,-77v60,4,57,95,29,141v-14,24,-30,43,-51,57r-29,-24v27,-17,55,-56,59,-92v-29,6,-50,-13,-50,-40v0,-22,19,-43,42,-42","w":218},"<":{"d":"407,-127r-378,-189r0,-37r378,-190r0,48r-326,161r326,159r0,48","w":436},"=":{"d":"407,-412r-378,0r0,-40r378,0r0,40xm407,-216r-378,0r0,-40r378,0r0,40","w":436},">":{"d":"407,-316r-378,189r0,-48r327,-159r-327,-161r0,-48r378,190r0,37","w":436},"?":{"d":"193,-677v118,0,197,111,145,221v-30,64,-92,90,-128,147v-22,35,-23,84,9,108r-41,25v-40,-37,-45,-96,-19,-145v38,-74,135,-97,138,-203v2,-58,-47,-103,-109,-103v-50,0,-91,21,-124,62r-32,-37v41,-50,94,-75,161,-75xm233,-34v0,23,-20,43,-43,43v-22,0,-43,-20,-43,-43v0,-22,21,-42,43,-42v23,0,43,20,43,42","w":386},"@":{"d":"68,-231v0,151,97,271,242,270v55,0,109,-19,160,-57r16,25v-57,42,-117,63,-180,63v-161,2,-271,-133,-271,-300v0,-200,168,-408,360,-408v154,0,254,125,254,284v0,79,-15,144,-46,194v-31,50,-66,75,-105,75v-49,1,-79,-38,-80,-84v-28,41,-72,84,-135,84v-76,0,-121,-58,-121,-141v0,-126,92,-274,210,-274v53,0,87,37,100,79r13,-61r47,0r-60,285v-7,36,4,76,38,72v29,-4,49,-29,66,-54v25,-38,41,-108,41,-176v0,-144,-87,-253,-224,-251v-131,1,-233,96,-281,194v-29,58,-44,118,-44,181xm213,-229v0,59,25,104,81,104v47,0,92,-32,134,-95r34,-160v-10,-39,-37,-79,-85,-79v-95,0,-164,132,-164,230","w":684},"A":{"d":"481,0r-61,0r-48,-165r-251,0r-48,165r-61,0r201,-667r67,0xm360,-215r-113,-387r-114,387r227,0","w":493},"B":{"d":"444,-180v0,109,-58,181,-166,180r-203,0r0,-667r198,0v100,-1,160,68,160,170v0,79,-41,135,-100,153v63,8,111,90,111,164xm375,-492v0,-72,-37,-125,-110,-125r-134,0r0,250r134,0v74,1,110,-52,110,-125xm386,-184v0,-73,-42,-133,-117,-133r-138,0r0,267r138,0v78,0,118,-54,117,-134","w":498},"C":{"d":"302,12v-75,0,-134,-33,-181,-96v-89,-120,-89,-378,0,-498v47,-63,106,-96,181,-96v78,0,140,39,185,117r-47,24v-58,-118,-207,-116,-276,-7v-66,105,-69,319,0,422v36,54,81,83,138,83v61,0,107,-33,139,-100r47,24v-45,85,-107,127,-186,127","w":523},"D":{"d":"497,-333v0,181,-87,334,-260,333r-162,0r0,-667r162,0v172,-1,260,154,260,334xm438,-333v0,-150,-61,-283,-201,-284r-106,0r0,567r106,0v140,0,201,-133,201,-283","w":550},"E":{"d":"401,0r-326,0r0,-667r326,0r0,50r-270,0r0,250r263,0r0,50r-263,0r0,267r270,0r0,50","w":453},"F":{"d":"131,0r-56,0r0,-667r326,0r0,50r-270,0r0,250r263,0r0,50r-263,0r0,317","w":441},"G":{"d":"302,12v-75,0,-133,-34,-180,-96v-90,-118,-90,-382,0,-499v47,-62,105,-95,180,-95v79,0,142,38,189,115r-45,24v-34,-59,-82,-88,-144,-88v-57,0,-102,28,-138,82v-68,102,-69,323,0,425v36,54,81,82,138,82v58,0,104,-21,137,-64r0,-178r-175,0r0,-51r228,0r0,250v-46,62,-109,93,-190,93","w":553},"H":{"d":"485,0r-56,0r0,-318r-298,0r0,318r-56,0r0,-667r56,0r0,299r298,0r0,-299r56,0r0,667","w":560},"I":{"d":"131,0r-56,0r0,-667r56,0r0,667","w":206},"J":{"d":"315,-162v2,110,-63,173,-167,174v-57,0,-103,-22,-138,-66r31,-43v27,39,61,58,104,58v74,0,115,-48,114,-124r0,-504r56,0r0,505","w":390},"K":{"d":"472,0r-68,0r-213,-309r-60,85r0,224r-56,0r0,-667r56,0r0,364r253,-364r68,0r-228,318","w":491},"L":{"d":"373,0r-305,0r0,-667r56,0r0,617r249,0r0,50","w":402},"M":{"d":"587,0r-56,0r0,-580r-189,580r-22,0r-189,-580r0,580r-56,0r0,-667r81,0r175,534r175,-534r81,0r0,667","w":662},"N":{"d":"483,0r-54,0r-298,-551r0,551r-56,0r0,-667r56,0r296,543r0,-543r56,0r0,667","w":558},"O":{"d":"295,12v-76,0,-134,-34,-178,-98v-84,-123,-84,-371,0,-494v44,-64,102,-98,178,-98v76,0,135,34,179,98v85,123,85,371,0,494v-44,64,-103,98,-179,98xm295,-39v57,0,102,-27,135,-83v94,-156,55,-505,-135,-505v-57,0,-103,28,-135,83v-93,156,-55,505,135,505","w":590},"P":{"d":"434,-472v0,107,-66,194,-175,194r-128,0r0,278r-56,0r0,-667r184,0v110,-3,175,87,175,195xm376,-473v0,-80,-44,-145,-121,-144r-124,0r0,289r124,0v78,1,121,-64,121,-145","w":468},"Q":{"d":"295,12v-76,0,-134,-34,-178,-98v-84,-123,-84,-371,0,-494v44,-64,102,-98,178,-98v76,0,136,33,179,98v43,65,64,148,64,247v0,119,-29,210,-86,275r41,62r-41,27r-38,-56v-34,25,-74,37,-119,37xm160,-122v48,83,147,109,225,52r-85,-129r42,-26r78,118v106,-145,73,-520,-125,-520v-57,0,-102,28,-135,83v-63,104,-61,317,0,422","w":590},"R":{"d":"435,-473v0,103,-57,177,-141,188r148,285r-65,0r-139,-278r-107,0r0,278r-56,0r0,-667r185,0v106,0,175,81,175,194xm376,-473v0,-80,-44,-145,-121,-144r-124,0r0,289r124,0v78,1,121,-64,121,-145","w":491},"S":{"d":"414,-166v0,105,-75,178,-192,178v-78,0,-140,-28,-187,-83r34,-43v39,50,90,75,153,75v83,0,134,-50,135,-124v0,-60,-38,-102,-79,-124r-72,-39v-48,-29,-101,-48,-130,-99v-14,-25,-22,-53,-22,-86v-2,-98,81,-167,180,-167v69,0,125,23,167,69r-32,42v-33,-40,-79,-60,-136,-60v-66,-1,-123,47,-121,114v3,90,89,116,151,149v75,41,151,86,151,198","w":459},"T":{"d":"245,0r-56,0r0,-617r-162,0r0,-50r382,0r0,50r-164,0r0,617","w":435},"U":{"d":"477,-210v1,137,-69,222,-201,222v-132,0,-201,-85,-201,-222r0,-457r56,0r0,457v-1,106,45,172,145,172v99,0,146,-66,145,-172r0,-457r56,0r0,457","w":552},"V":{"d":"280,0r-67,0r-201,-667r61,0r174,598r173,-598r61,0","w":493},"W":{"d":"527,0r-62,0r-118,-561r-119,561r-61,0r-147,-667r60,0r120,577r122,-577r50,0r122,577r120,-577r60,0","w":694},"X":{"d":"480,0r-65,0r-169,-293r-168,293r-66,0r201,-340r-190,-327r67,0r156,278r157,-278r66,0r-190,326","w":493},"Y":{"d":"270,0r-56,0r0,-286r-206,-381r64,0r170,325r170,-325r63,0r-205,381r0,286","w":483},"Z":{"d":"411,0r-369,0r0,-49r297,-568r-297,0r0,-50r362,0r0,48r-298,569r305,0r0,50","w":453},"[":{"d":"183,190r-147,0r0,-868r147,0r0,42r-104,0r0,784r104,0r0,42","w":200},"\\":{"d":"192,20r-192,-707r44,0r192,707r-44,0","w":235},"]":{"d":"164,190r-147,0r0,-42r104,0r0,-784r-104,0r0,-42r147,0r0,868","w":200},"^":{"d":"358,-333r-45,0r-124,-291r-124,291r-46,0r150,-334r40,0","w":377},"_":{"d":"425,82r-428,0r0,-42r428,0r0,42","w":422},"`":{"d":"174,-556r-39,0r-135,-144r58,0","w":174},"\u02cb":{"d":"174,-556r-39,0r-135,-144r58,0","w":174},"a":{"d":"221,-495v96,0,150,53,149,151r0,344r-51,0r0,-55v-31,45,-74,67,-128,67v-84,1,-145,-72,-145,-161v0,-91,60,-160,145,-160v54,0,97,22,128,65r0,-95v1,-69,-36,-112,-103,-112v-47,0,-88,21,-123,63r-26,-36v43,-47,94,-71,154,-71xm99,-148v0,66,40,120,106,120v51,0,89,-22,114,-66r0,-108v-25,-45,-63,-67,-114,-67v-65,0,-106,56,-106,121","w":440},"b":{"d":"242,-450v-55,0,-104,48,-121,90r0,238v18,43,65,89,121,89v140,0,152,-250,94,-357v-22,-40,-53,-60,-94,-60xm251,12v-60,-1,-106,-41,-130,-84r0,72r-50,0r0,-667r50,0r0,258v24,-47,68,-86,130,-86v119,0,173,121,171,254v0,77,-16,138,-46,184v-30,46,-72,69,-125,69"},"c":{"d":"102,-242v0,105,44,208,141,209v39,0,71,-18,97,-53r30,35v-33,42,-77,63,-131,63v-124,1,-191,-122,-191,-254v0,-132,66,-254,191,-253v52,0,96,21,131,63r-30,35v-26,-35,-58,-53,-97,-53v-97,0,-141,104,-141,208","w":400},"d":{"d":"219,12v-119,0,-173,-119,-171,-253v0,-76,16,-137,46,-184v30,-47,72,-70,125,-70v56,0,99,29,129,86r0,-258r51,0r0,667r-51,0r0,-72v-23,42,-70,84,-129,84xm228,-450v-141,0,-151,252,-94,358v21,39,53,59,94,59v55,0,103,-47,120,-89r0,-238v-18,-41,-65,-90,-120,-90"},"e":{"d":"102,-225v1,102,51,193,148,194v48,0,88,-22,120,-66r30,30v-41,53,-91,79,-152,79v-131,1,-200,-116,-200,-254v0,-130,66,-253,187,-253v133,0,188,127,184,270r-317,0xm367,-265v0,-89,-43,-191,-133,-187v-91,4,-129,92,-132,187r265,0","w":464},"f":{"d":"86,-551v-1,-75,39,-126,111,-126v31,0,57,10,77,30r-23,39v-14,-16,-30,-24,-49,-24v-43,0,-65,27,-65,81r0,68r83,0r0,45r-83,0r0,438r-51,0r0,-438r-64,0r0,-45r64,0r0,-68","w":239},"g":{"d":"399,13v2,120,-65,182,-177,183v-63,0,-115,-20,-155,-61r27,-42v32,39,74,58,127,58v80,-1,127,-52,127,-138r0,-89v-23,43,-70,86,-129,86v-119,0,-173,-119,-171,-252v0,-76,16,-138,46,-184v30,-46,72,-69,125,-69v56,0,99,29,129,86r0,-74r51,0r0,496xm102,-242v0,104,33,206,126,206v54,0,103,-48,120,-89r0,-235v-18,-41,-65,-90,-120,-90v-93,0,-126,104,-126,208"},"h":{"d":"261,-495v83,0,119,43,119,129r0,366r-51,0r0,-356v0,-63,-28,-94,-83,-94v-54,1,-105,46,-125,85r0,365r-50,0r0,-667r50,0r0,255v26,-40,80,-83,140,-83","w":450},"i":{"d":"135,-598v0,21,-18,39,-39,39v-21,0,-39,-18,-39,-39v0,-21,18,-39,39,-39v21,0,39,18,39,39xm121,0r-50,0r0,-483r50,0r0,483","w":192},"j":{"d":"135,-598v0,21,-18,39,-39,39v-21,0,-39,-18,-39,-39v0,-21,18,-39,39,-39v21,0,39,18,39,39xm15,196v-32,0,-58,-12,-78,-36r25,-37v14,19,31,28,50,28v39,0,59,-26,59,-79r0,-555r50,0r0,555v0,83,-35,124,-106,124","w":192},"k":{"d":"405,0r-61,0r-147,-230r-76,94r0,136r-50,0r0,-667r50,0r0,465r225,-281r60,0r-175,218","w":425},"l":{"d":"121,0r-50,0r0,-667r50,0r0,667","w":192},"m":{"d":"357,-408v21,-42,75,-87,134,-87v72,0,108,42,108,125r0,370r-51,0r0,-360v0,-60,-24,-90,-73,-90v-49,1,-98,47,-115,85r0,365r-51,0r0,-360v0,-60,-24,-90,-73,-90v-52,0,-95,47,-115,85r0,365r-50,0r0,-483r50,0r0,71v21,-37,75,-83,131,-83v60,0,98,35,105,87","w":670},"n":{"d":"121,-412v26,-40,80,-82,140,-83v79,0,119,43,119,130r0,365r-51,0r0,-354v0,-64,-28,-96,-83,-96v-54,1,-105,46,-125,85r0,365r-50,0r0,-483r50,0r0,71","w":450},"o":{"d":"422,-242v0,131,-63,254,-187,254v-124,0,-187,-123,-187,-254v0,-132,61,-253,187,-253v125,0,187,122,187,253xm102,-242v0,101,39,209,133,209v95,0,133,-107,133,-209v0,-101,-38,-208,-133,-208v-94,0,-133,107,-133,208"},"p":{"d":"251,-495v119,0,173,119,171,253v0,76,-16,137,-46,184v-30,47,-72,70,-125,70v-62,0,-106,-40,-130,-86r0,258r-50,0r0,-667r50,0r0,72v25,-43,69,-84,130,-84xm121,-123v17,43,66,90,121,90v140,0,152,-251,94,-358v-22,-39,-53,-59,-94,-59v-55,0,-103,46,-121,88r0,239","w":468},"q":{"d":"226,-450v-140,2,-152,251,-94,358v22,40,53,59,94,59v54,0,104,-49,120,-90r0,-239v-16,-42,-66,-88,-120,-88xm217,-495v60,1,106,41,129,84r0,-72r51,0r0,667r-51,0r0,-258v-30,57,-73,86,-129,86v-119,-2,-173,-121,-171,-254v0,-77,16,-138,46,-184v30,-46,72,-69,125,-69","w":468},"r":{"d":"260,-438v-66,-10,-118,43,-139,86r0,352r-50,0r0,-483r50,0r0,82v37,-61,84,-92,139,-92r0,55","w":278},"s":{"d":"336,-121v0,82,-65,133,-151,133v-65,0,-116,-23,-153,-68r29,-36v31,41,72,61,123,61v58,1,104,-34,102,-89v-3,-83,-96,-97,-156,-128v-43,-22,-86,-61,-85,-124v0,-74,64,-123,144,-123v59,0,105,21,138,62r-27,35v-25,-36,-62,-54,-111,-54v-52,0,-95,31,-95,79v0,80,98,91,156,122v43,23,86,65,86,130","w":377},"t":{"d":"167,12v-56,0,-84,-34,-84,-101r0,-349r-66,0r0,-45r66,0r0,-132r50,0r0,132r83,0r0,45r-83,0r0,343v-6,68,56,78,86,40r20,38v-19,19,-43,29,-72,29","w":248},"u":{"d":"205,-33v55,-1,103,-43,124,-83r0,-367r51,0r0,483r-51,0r0,-69v-29,40,-78,81,-140,81v-83,0,-118,-43,-118,-129r0,-366r50,0r0,355v0,63,28,95,84,95","w":450},"v":{"d":"224,0r-57,0r-157,-483r56,0r130,423r131,-423r55,0","w":392},"w":{"d":"470,0r-50,0r-112,-413r-111,413r-50,0r-130,-483r54,0r103,411r110,-411r48,0r110,411r104,-411r54,0","w":617},"x":{"d":"377,0r-58,0r-122,-208r-123,208r-57,0r149,-246r-141,-237r58,0r114,198r113,-198r58,0r-141,237","w":393},"y":{"d":"40,189r9,-46v19,11,52,11,67,-4v26,-27,37,-89,53,-129r-159,-493r56,0r130,421r131,-421r55,0r-195,593v-23,72,-75,100,-147,79","w":392},"z":{"d":"333,0r-286,0r0,-42r221,-396r-221,0r0,-45r282,0r0,41r-222,397r226,0r0,45","w":379},"{":{"d":"102,79v-1,36,22,69,56,69r47,0r0,42r-47,0v-55,0,-100,-51,-100,-111r0,-233v0,-37,-17,-71,-52,-71r0,-38v35,0,52,-35,52,-71r0,-233v-2,-60,45,-111,100,-111r47,0r0,42r-47,0v-34,0,-56,33,-56,69r0,235v0,45,-15,75,-46,88v31,13,46,43,46,88r0,235","w":222},"|":{"d":"117,20r-42,0r0,-707r42,0r0,707","w":192},"}":{"d":"163,79v2,60,-45,111,-100,111r-46,0r0,-42r46,0v34,0,57,-33,57,-69r0,-235v0,-46,15,-75,45,-88v-30,-13,-45,-42,-45,-88r0,-235v1,-36,-23,-69,-57,-69r-46,0r0,-42r46,0v55,0,100,51,100,111r0,233v0,37,17,71,52,71r0,38v-35,0,-52,35,-52,71r0,233","w":222},"~":{"d":"373,-667r42,4v-8,87,-18,168,-65,214v-27,27,-76,26,-104,0v-39,-36,-38,-112,-68,-156v-25,-38,-68,-20,-82,27v-10,32,-19,82,-26,151r-42,-6v8,-87,17,-167,64,-212v32,-31,88,-25,114,11v29,39,30,91,52,135v24,49,71,36,88,-17v10,-32,20,-82,27,-151","w":443},"\u00a0":{"w":217},"\u00a1":{"d":"76,184r13,-494r40,0r13,494r-66,0xm109,-407v-23,0,-43,-20,-43,-42v0,-23,20,-43,43,-43v23,0,43,20,43,43v0,22,-20,42,-43,42","w":218},"\u00a2":{"d":"48,-242v0,-124,57,-232,158,-250r0,-73r44,0r0,70v47,3,87,24,120,63r-30,35v-25,-33,-55,-51,-90,-53r0,417v36,-2,66,-20,90,-53r30,35v-31,39,-71,60,-120,63r0,88r-44,0r0,-91v-102,-17,-158,-127,-158,-251xm206,-444v-139,39,-139,366,0,405r0,-405","w":400},"\u00a3":{"d":"46,-38v76,-38,147,-127,103,-230r-125,0r0,-41r100,0r-29,-41v-23,-37,-45,-77,-45,-138v0,-100,77,-191,179,-189v79,2,136,46,158,107r-45,25v-14,-43,-54,-85,-110,-84v-72,0,-123,63,-123,142v0,81,47,129,77,178r114,0r0,41r-95,0v25,83,-3,150,-66,201v15,-7,31,-10,46,-10v34,0,97,39,128,39v32,0,70,-19,82,-38r25,44v-20,24,-66,45,-110,45v-49,0,-103,-44,-145,-44v-26,0,-58,13,-97,38","w":433},"\u00a4":{"d":"486,-137r-29,29r-56,-57v-76,68,-204,68,-280,0r-57,57r-28,-29r56,-56v-67,-81,-67,-201,0,-280r-56,-57r28,-28r57,56v76,-67,203,-67,280,0r56,-56r29,28r-56,57v67,79,67,200,0,280xm261,-162v92,0,171,-79,171,-171v0,-92,-79,-171,-171,-171v-92,0,-171,79,-171,171v0,92,79,171,171,171","w":522},"\u00a5":{"d":"270,0r-56,0r0,-126r-193,0r0,-40r193,0r0,-120r-193,0r0,-40r171,0r-184,-341r64,0r170,325r170,-325r63,0r-184,341r171,0r0,40r-192,0r0,120r192,0r0,40r-192,0r0,126","w":483},"\u00a6":{"d":"117,20r-42,0r0,-316r42,0r0,316xm117,-371r-42,0r0,-316r42,0r0,316","w":192},"\u00a7":{"d":"188,-637v-51,0,-97,33,-94,82v4,81,97,93,156,124v43,23,87,64,86,129v0,57,-28,97,-85,120v57,34,85,77,85,130v1,81,-67,134,-151,133v-77,-1,-114,-27,-153,-69r29,-34v33,41,74,62,123,62v56,0,104,-37,102,-91v-4,-84,-95,-101,-156,-131v-43,-21,-86,-59,-85,-122v0,-63,47,-107,104,-118v-59,-33,-102,-59,-104,-133v-2,-73,63,-122,141,-122v59,0,106,21,141,62r-28,32v-29,-36,-66,-54,-111,-54xm211,-200v64,-30,93,-74,68,-137v-14,-35,-50,-50,-85,-66v-67,15,-101,47,-101,95v0,25,9,44,28,59v19,15,49,31,90,49","w":378},"\u00a8":{"d":"214,-637v19,0,37,17,37,36v0,19,-18,37,-37,37v-19,0,-37,-18,-37,-37v0,-19,18,-36,37,-36xm46,-637v19,0,36,17,36,36v0,19,-17,37,-36,37v-19,0,-37,-18,-37,-37v0,-19,18,-36,37,-36","w":260},"\u00a9":{"d":"389,-679v186,0,345,160,345,345v0,186,-160,345,-345,345v-185,0,-345,-161,-345,-345v0,-186,160,-345,345,-345xm389,-17v169,0,317,-148,317,-317v0,-169,-148,-317,-317,-317v-169,0,-317,148,-317,317v0,169,148,317,317,317xm391,-150v52,0,99,-27,122,-58r22,22v-38,44,-86,66,-144,66v-114,0,-209,-99,-209,-215v0,-118,93,-214,209,-214v59,0,107,22,144,65r-22,22v-22,-32,-71,-57,-122,-57v-97,-1,-176,82,-176,184v0,100,81,187,176,185","w":778},"\u00aa":{"d":"225,-544v1,-44,-28,-69,-70,-69v-33,0,-60,14,-83,43r-20,-30v30,-32,66,-48,109,-48v70,0,105,36,105,109r0,213r-41,0r0,-35v-22,29,-52,43,-89,43v-56,0,-98,-46,-98,-105v0,-59,42,-103,98,-103v37,0,67,14,89,42r0,-60xm80,-423v0,43,26,76,69,75v34,0,59,-14,76,-42r0,-65v-17,-28,-42,-42,-76,-42v-41,-1,-69,33,-69,74","w":323},"\u00ab":{"d":"320,-63r-51,0r-125,-180r125,-177r51,0r-125,177xm206,-63r-51,0r-125,-180r125,-177r51,0r-125,177","w":350},"\u00ac":{"d":"407,-452r0,236r-42,0r0,-196r-336,0r0,-40r378,0","w":437},"\u00ad":{"d":"236,-219r-206,0r0,-46r206,0r0,46","w":266},"\u00ae":{"d":"247,-677v116,0,212,96,212,212v0,114,-98,212,-212,212v-114,0,-212,-98,-212,-212v0,-114,98,-212,212,-212xm247,-280v98,0,185,-87,185,-185v0,-100,-85,-185,-185,-185v-100,0,-185,85,-185,185v0,98,87,185,185,185xm341,-512v0,39,-34,70,-62,72r65,97r-38,0r-63,-96r-46,0r0,96r-30,0r0,-243r99,0v42,-1,75,31,75,74xm266,-468v21,1,44,-22,44,-44v0,-24,-21,-46,-44,-46r-69,0r0,90r69,0","w":494},"\u00af":{"d":"304,-591r-304,0r0,-37r304,0r0,37","w":304},"\u203e":{"d":"304,-591r-304,0r0,-37r304,0r0,37","w":304},"\u00b0":{"d":"140,-677v62,0,116,54,116,116v0,62,-54,116,-116,116v-62,0,-115,-54,-115,-116v0,-62,53,-116,115,-116xm140,-484v41,0,78,-35,78,-77v0,-40,-37,-78,-78,-78v-40,0,-77,37,-77,78v0,42,35,77,77,77","w":281},"\u00b1":{"d":"407,-320r-167,0r0,188r-44,0r0,-188r-167,0r0,-40r167,0r0,-182r44,0r0,182r167,0r0,40xm407,-26r-378,0r0,-40r378,0r0,40","w":436},"\u00b2":{"d":"162,-827v81,0,137,70,107,153v-20,54,-70,110,-105,148r-63,68r179,0r0,37r-238,0r0,-34v85,-89,137,-146,156,-172v24,-33,36,-64,36,-91v1,-44,-32,-72,-74,-72v-41,0,-72,17,-91,52r-28,-26v27,-42,68,-63,121,-63","w":319},"\u00b3":{"d":"200,-628v41,5,82,48,82,99v0,70,-51,115,-124,115v-58,0,-102,-29,-124,-66r29,-26v22,37,53,55,94,55v51,1,81,-30,81,-80v0,-65,-55,-84,-119,-77r0,-37v58,7,113,-13,113,-72v0,-46,-31,-73,-76,-73v-37,0,-66,17,-89,50r-28,-25v28,-41,68,-62,119,-62v68,0,118,38,118,106v0,49,-37,84,-76,93","w":319},"\u00b4":{"d":"174,-700r-135,144r-39,0r116,-144r58,0","w":174},"\u00b5":{"d":"329,-69v-29,40,-78,80,-140,81v-27,0,-49,-5,-68,-14r0,186r-50,0r0,-667r50,0r0,355v0,64,28,96,84,96v55,0,103,-44,124,-84r0,-367r51,0r0,483r-51,0r0,-69","w":450},"\u03bc":{"d":"329,-69v-29,40,-78,80,-140,81v-27,0,-49,-5,-68,-14r0,186r-50,0r0,-667r50,0r0,355v0,64,28,96,84,96v55,0,103,-44,124,-84r0,-367r51,0r0,483r-51,0r0,-69","w":450},"\u00b6":{"d":"27,-495v0,-92,80,-172,172,-172r168,0r0,767r-37,0r0,-730r-94,0r0,730r-37,0r0,-423v-92,3,-172,-80,-172,-172","w":449},"\u00b7":{"d":"109,-287v23,0,43,20,43,42v0,23,-20,43,-43,43v-22,0,-43,-20,-43,-43v0,-22,21,-42,43,-42","w":218},"\u2219":{"d":"109,-287v23,0,43,20,43,42v0,23,-20,43,-43,43v-22,0,-43,-20,-43,-43v0,-22,21,-42,43,-42","w":218},"\u00b8":{"d":"178,111v0,47,-44,79,-93,78v-34,0,-62,-10,-85,-29r16,-32v21,19,44,28,69,28v28,1,57,-18,57,-45v0,-44,-50,-50,-71,-22r-27,-16r31,-84r37,0r-26,68v39,-30,92,4,92,54","w":178},"\u00b9":{"d":"150,-421r-44,0r0,-342r-63,67r-26,-28r94,-97r39,0r0,400","w":208},"\u00ba":{"d":"304,-483v0,87,-48,165,-133,165v-84,0,-132,-78,-132,-165v0,-87,48,-165,132,-165v86,0,133,77,133,165xm83,-483v0,66,26,129,88,129v62,0,90,-63,89,-129v0,-66,-27,-128,-89,-128v-62,0,-88,62,-88,128","w":343},"\u00bb":{"d":"206,-243r-125,180r-51,0r125,-180r-125,-177r51,0xm320,-243r-125,180r-51,0r125,-180r-125,-177r51,0","w":350},"\u00bc":{"d":"496,-667r-349,667r-41,0r349,-667r41,0xm615,-107r-49,0r0,107r-43,0r0,-107r-167,0r0,-36r154,-257r56,0r0,256r49,0r0,37xm523,-144r0,-210r-126,210r126,0xm150,-267r-44,0r0,-342r-63,67r-26,-28r94,-97r39,0r0,400","w":644},"\u00bd":{"d":"496,-667r-349,667r-41,0r349,-667r41,0xm522,-406v81,0,137,70,107,153v-20,54,-70,110,-105,148r-63,68r179,0r0,37r-238,0r0,-34v85,-89,137,-146,156,-172v24,-33,36,-64,36,-91v1,-44,-32,-72,-74,-72v-41,0,-72,17,-91,52r-28,-26v27,-42,68,-63,121,-63xm150,-267r-44,0r0,-342r-63,67r-26,-28r94,-97r39,0r0,400","w":679},"\u00be":{"d":"573,-667r-349,667r-41,0r349,-667r41,0xm692,-107r-49,0r0,107r-43,0r0,-107r-167,0r0,-36r154,-257r56,0r0,256r49,0r0,37xm600,-144r0,-210r-126,210r126,0xm200,-474v41,5,82,48,82,99v0,70,-51,115,-124,115v-58,0,-102,-29,-124,-66r29,-26v22,37,53,55,94,55v51,1,81,-30,81,-80v0,-65,-55,-84,-119,-77r0,-37v58,7,113,-13,113,-72v0,-46,-31,-73,-76,-73v-37,0,-66,17,-89,50r-28,-25v28,-41,68,-62,119,-62v68,0,118,38,118,106v0,49,-37,84,-76,93","w":721},"\u00bf":{"d":"193,197v-118,0,-197,-111,-145,-221v30,-64,93,-91,128,-147v23,-36,24,-84,-9,-109r41,-24v40,33,44,96,19,144v-39,74,-135,98,-138,204v-2,58,47,103,109,103v50,0,92,-21,125,-63r31,38v-41,50,-94,75,-161,75xm153,-449v0,-23,21,-43,43,-43v23,0,43,20,43,43v0,22,-20,42,-43,42v-22,0,-43,-20,-43,-42","w":328},"\u00c0":{"d":"299,-728r-39,0r-135,-144r58,0xm481,0r-61,0r-48,-165r-251,0r-48,165r-61,0r201,-667r67,0xm360,-215r-113,-387r-114,387r227,0","w":493},"\u00c1":{"d":"369,-872r-135,144r-39,0r116,-144r58,0xm481,0r-61,0r-48,-165r-251,0r-48,165r-61,0r201,-667r67,0xm360,-215r-113,-387r-114,387r227,0","w":493},"\u00c2":{"d":"357,-728r-36,0r-75,-112r-72,112r-36,0r82,-144r52,0xm481,0r-61,0r-48,-165r-251,0r-48,165r-61,0r201,-667r67,0xm360,-215r-113,-387r-114,387r227,0","w":493},"\u00c3":{"d":"378,-860v0,67,-22,134,-81,134v-50,0,-56,-56,-77,-87v-7,-11,-16,-16,-25,-16v-30,0,-45,32,-45,97r-33,0v0,-67,21,-134,80,-134v50,0,57,56,78,87v7,11,16,16,25,16v30,0,45,-32,45,-97r33,0xm481,0r-61,0r-48,-165r-251,0r-48,165r-61,0r201,-667r67,0xm360,-215r-113,-387r-114,387r227,0","w":493},"\u00c4":{"d":"331,-805v19,0,37,17,37,36v0,19,-18,37,-37,37v-19,0,-37,-18,-37,-37v0,-19,18,-36,37,-36xm163,-805v19,0,36,17,36,36v0,19,-17,37,-36,37v-19,0,-37,-18,-37,-37v0,-19,18,-36,37,-36xm481,0r-61,0r-48,-165r-251,0r-48,165r-61,0r201,-667r67,0xm360,-215r-113,-387r-114,387r227,0","w":493},"\u00c5":{"d":"334,-781v0,48,-39,89,-87,89v-47,0,-88,-41,-88,-89v0,-47,41,-88,88,-88v47,0,87,41,87,88xm190,-781v0,31,27,58,57,58v31,0,57,-27,57,-58v0,-30,-26,-57,-57,-57v-30,0,-57,27,-57,57xm481,0r-61,0r-48,-165r-251,0r-48,165r-61,0r201,-667r67,0xm360,-215r-113,-387r-114,387r227,0","w":493},"\u00c6":{"d":"682,0r-326,0r0,-165r-203,0r-76,165r-61,0r318,-667r348,0r0,50r-270,0r0,250r263,0r0,50r-263,0r0,267r270,0r0,50xm356,-215r0,-387r-182,387r182,0","w":736},"\u00c7":{"d":"390,107v0,47,-44,79,-93,78v-34,0,-62,-10,-85,-29r16,-32v21,19,44,28,69,28v28,1,57,-18,57,-45v0,-44,-50,-50,-71,-22r-27,-16r21,-59v-146,-15,-224,-171,-224,-343v0,-101,23,-185,68,-249v45,-64,106,-96,181,-96v78,0,140,39,185,117r-47,24v-58,-118,-207,-116,-276,-7v-66,105,-69,319,0,422v36,54,81,83,138,83v61,0,107,-33,139,-100r47,24v-43,81,-101,123,-174,126r-16,42v39,-30,92,4,92,54","w":523},"\u00c8":{"d":"292,-728r-39,0r-135,-144r58,0xm401,0r-326,0r0,-667r326,0r0,50r-270,0r0,250r263,0r0,50r-263,0r0,267r270,0r0,50","w":453},"\u00c9":{"d":"361,-872r-135,144r-39,0r116,-144r58,0xm401,0r-326,0r0,-667r326,0r0,50r-270,0r0,250r263,0r0,50r-263,0r0,267r270,0r0,50","w":453},"\u00ca":{"d":"349,-728r-36,0r-75,-112r-72,112r-36,0r82,-144r52,0xm401,0r-326,0r0,-667r326,0r0,50r-270,0r0,250r263,0r0,50r-263,0r0,267r270,0r0,50","w":453},"\u00cb":{"d":"322,-805v19,0,37,17,37,36v0,19,-18,37,-37,37v-19,0,-37,-18,-37,-37v0,-19,18,-36,37,-36xm154,-805v19,0,36,17,36,36v0,19,-17,37,-36,37v-19,0,-37,-18,-37,-37v0,-19,18,-36,37,-36xm401,0r-326,0r0,-667r326,0r0,50r-270,0r0,250r263,0r0,50r-263,0r0,267r270,0r0,50","w":453},"\u00cc":{"d":"156,-728r-39,0r-135,-144r58,0xm131,0r-56,0r0,-667r56,0r0,667","w":206},"\u00cd":{"d":"226,-872r-135,144r-39,0r116,-144r58,0xm131,0r-56,0r0,-667r56,0r0,667","w":206},"\u00ce":{"d":"214,-728r-36,0r-75,-112r-72,112r-36,0r82,-144r52,0xm131,0r-56,0r0,-667r56,0r0,667","w":206},"\u00cf":{"d":"188,-804v19,0,37,17,37,36v0,19,-18,37,-37,37v-19,0,-37,-18,-37,-37v0,-19,18,-36,37,-36xm20,-804v19,0,36,17,36,36v0,19,-17,37,-36,37v-19,0,-37,-18,-37,-37v0,-19,18,-36,37,-36xm131,0r-56,0r0,-667r56,0r0,667","w":206},"\u00d0":{"d":"521,-333v0,181,-87,334,-260,333r-162,0r0,-310r-82,0r0,-44r82,0r0,-313r162,0v172,-1,260,154,260,334xm462,-333v0,-150,-61,-283,-201,-284r-106,0r0,263r131,0r0,44r-131,0r0,260r106,0v140,0,201,-133,201,-283","w":574},"\u00d1":{"d":"407,-860v0,67,-22,134,-81,134v-50,0,-56,-56,-77,-87v-7,-11,-16,-16,-25,-16v-30,0,-45,32,-45,97r-33,0v0,-67,21,-134,80,-134v50,0,57,56,78,87v7,11,16,16,25,16v30,0,45,-32,45,-97r33,0xm483,0r-54,0r-298,-551r0,551r-56,0r0,-667r56,0r296,543r0,-543r56,0r0,667","w":558},"\u00d2":{"d":"349,-728r-39,0r-135,-144r58,0xm295,12v-76,0,-134,-34,-178,-98v-84,-123,-84,-371,0,-494v44,-64,102,-98,178,-98v76,0,135,34,179,98v85,123,85,371,0,494v-44,64,-103,98,-179,98xm295,-39v57,0,102,-27,135,-83v94,-156,55,-505,-135,-505v-57,0,-103,28,-135,83v-93,156,-55,505,135,505","w":590},"\u00d3":{"d":"418,-872r-135,144r-39,0r116,-144r58,0xm295,12v-76,0,-134,-34,-178,-98v-84,-123,-84,-371,0,-494v44,-64,102,-98,178,-98v76,0,135,34,179,98v85,123,85,371,0,494v-44,64,-103,98,-179,98xm295,-39v57,0,102,-27,135,-83v94,-156,55,-505,-135,-505v-57,0,-103,28,-135,83v-93,156,-55,505,135,505","w":590},"\u00d4":{"d":"406,-728r-36,0r-75,-112r-72,112r-36,0r82,-144r52,0xm295,12v-76,0,-134,-34,-178,-98v-84,-123,-84,-371,0,-494v44,-64,102,-98,178,-98v76,0,135,34,179,98v85,123,85,371,0,494v-44,64,-103,98,-179,98xm295,-39v57,0,102,-27,135,-83v94,-156,55,-505,-135,-505v-57,0,-103,28,-135,83v-93,156,-55,505,135,505","w":590},"\u00d5":{"d":"426,-860v0,67,-22,134,-81,134v-50,0,-56,-56,-77,-87v-7,-11,-16,-16,-25,-16v-30,0,-45,32,-45,97r-33,0v0,-67,21,-134,80,-134v50,0,57,56,78,87v7,11,16,16,25,16v30,0,45,-32,45,-97r33,0xm295,12v-76,0,-134,-34,-178,-98v-84,-123,-84,-371,0,-494v44,-64,102,-98,178,-98v76,0,135,34,179,98v85,123,85,371,0,494v-44,64,-103,98,-179,98xm295,-39v57,0,102,-27,135,-83v94,-156,55,-505,-135,-505v-57,0,-103,28,-135,83v-93,156,-55,505,135,505","w":590},"\u00d6":{"d":"378,-805v19,0,37,17,37,36v0,19,-18,37,-37,37v-19,0,-37,-18,-37,-37v0,-19,18,-36,37,-36xm210,-805v19,0,36,17,36,36v0,19,-17,37,-36,37v-19,0,-37,-18,-37,-37v0,-19,18,-36,37,-36xm295,12v-76,0,-134,-34,-178,-98v-84,-123,-84,-371,0,-494v44,-64,102,-98,178,-98v76,0,135,34,179,98v85,123,85,371,0,494v-44,64,-103,98,-179,98xm295,-39v57,0,102,-27,135,-83v94,-156,55,-505,-135,-505v-57,0,-103,28,-135,83v-93,156,-55,505,135,505","w":590},"\u00d7":{"d":"349,-175r-131,-131r-130,131r-29,-28r131,-131r-131,-131r29,-28r130,131r131,-131r29,28r-131,131r131,131","w":436},"\u00d8":{"d":"295,12v-51,0,-94,-15,-130,-45r-17,33r-47,0r32,-64v-101,-108,-102,-386,-16,-516v67,-102,207,-130,307,-53r17,-34r47,0r-33,64v104,109,109,386,19,517v-44,64,-103,98,-179,98xm295,-39v57,0,101,-28,135,-83v65,-105,65,-327,-3,-426r-237,465v29,29,64,44,105,44xm160,-544v-61,104,-64,326,2,424r237,-464v-74,-71,-187,-49,-239,40","w":590},"\u00d9":{"d":"329,-728r-39,0r-135,-144r58,0xm477,-210v1,137,-69,222,-201,222v-132,0,-201,-85,-201,-222r0,-457r56,0r0,457v-1,106,45,172,145,172v99,0,146,-66,145,-172r0,-457r56,0r0,457","w":552},"\u00da":{"d":"397,-872r-135,144r-39,0r116,-144r58,0xm477,-210v1,137,-69,222,-201,222v-132,0,-201,-85,-201,-222r0,-457r56,0r0,457v-1,106,45,172,145,172v99,0,146,-66,145,-172r0,-457r56,0r0,457","w":552},"\u00db":{"d":"387,-728r-36,0r-75,-112r-72,112r-36,0r82,-144r52,0xm477,-210v1,137,-69,222,-201,222v-132,0,-201,-85,-201,-222r0,-457r56,0r0,457v-1,106,45,172,145,172v99,0,146,-66,145,-172r0,-457r56,0r0,457","w":552},"\u00dc":{"d":"360,-805v19,0,37,17,37,36v0,19,-18,37,-37,37v-19,0,-37,-18,-37,-37v0,-19,18,-36,37,-36xm192,-805v19,0,36,17,36,36v0,19,-17,37,-36,37v-19,0,-37,-18,-37,-37v0,-19,18,-36,37,-36xm477,-210v1,137,-69,222,-201,222v-132,0,-201,-85,-201,-222r0,-457r56,0r0,457v-1,106,45,172,145,172v99,0,146,-66,145,-172r0,-457r56,0r0,457","w":552},"\u00dd":{"d":"368,-872r-135,144r-39,0r116,-144r58,0xm270,0r-56,0r0,-286r-206,-381r64,0r170,325r170,-325r63,0r-205,381r0,286","w":483},"\u00de":{"d":"434,-347v0,108,-65,193,-175,193r-128,0r0,154r-56,0r0,-667r56,0r0,124r128,0v110,-3,175,88,175,196xm376,-347v0,-80,-44,-146,-121,-145r-124,0r0,288r124,0v77,1,121,-63,121,-143","w":468},"\u00df":{"d":"230,-677v95,0,180,80,132,169v-24,44,-74,59,-102,98v-22,29,-16,71,10,94v54,47,146,55,188,116v15,22,25,48,25,79v0,77,-64,133,-149,133v-60,0,-110,-23,-150,-69r28,-37v32,42,72,63,119,63v56,0,103,-38,101,-90v-3,-81,-92,-98,-152,-127v-43,-21,-84,-59,-84,-121v0,-46,35,-85,64,-103v26,-17,63,-46,64,-85v1,-44,-48,-76,-94,-75v-62,1,-103,46,-103,112r0,520r-51,0r0,-520v-1,-89,64,-157,154,-157","w":501},"\u00e0":{"d":"221,-495v96,0,150,53,149,151r0,344r-51,0r0,-55v-31,45,-74,67,-128,67v-84,1,-145,-72,-145,-161v0,-91,60,-160,145,-160v54,0,97,22,128,65r0,-95v1,-69,-36,-112,-103,-112v-47,0,-88,21,-123,63r-26,-36v43,-47,94,-71,154,-71xm99,-148v0,66,40,120,106,120v51,0,89,-22,114,-66r0,-108v-25,-45,-63,-67,-114,-67v-65,0,-106,56,-106,121xm274,-556r-39,0r-135,-144r58,0","w":440},"\u00e1":{"d":"221,-495v96,0,150,53,149,151r0,344r-51,0r0,-55v-31,45,-74,67,-128,67v-84,1,-145,-72,-145,-161v0,-91,60,-160,145,-160v54,0,97,22,128,65r0,-95v1,-69,-36,-112,-103,-112v-47,0,-88,21,-123,63r-26,-36v43,-47,94,-71,154,-71xm99,-148v0,66,40,120,106,120v51,0,89,-22,114,-66r0,-108v-25,-45,-63,-67,-114,-67v-65,0,-106,56,-106,121xm344,-700r-135,144r-39,0r116,-144r58,0","w":440},"\u00e2":{"d":"221,-495v96,0,150,53,149,151r0,344r-51,0r0,-55v-31,45,-74,67,-128,67v-84,1,-145,-72,-145,-161v0,-91,60,-160,145,-160v54,0,97,22,128,65r0,-95v1,-69,-36,-112,-103,-112v-47,0,-88,21,-123,63r-26,-36v43,-47,94,-71,154,-71xm99,-148v0,66,40,120,106,120v51,0,89,-22,114,-66r0,-108v-25,-45,-63,-67,-114,-67v-65,0,-106,56,-106,121xm333,-556r-36,0r-75,-112r-72,112r-36,0r82,-144r52,0","w":440},"\u00e3":{"d":"221,-495v96,0,150,53,149,151r0,344r-51,0r0,-55v-31,45,-74,67,-128,67v-84,1,-145,-72,-145,-161v0,-91,60,-160,145,-160v54,0,97,22,128,65r0,-95v1,-69,-36,-112,-103,-112v-47,0,-88,21,-123,63r-26,-36v43,-47,94,-71,154,-71xm99,-148v0,66,40,120,106,120v51,0,89,-22,114,-66r0,-108v-25,-45,-63,-67,-114,-67v-65,0,-106,56,-106,121xm353,-688v0,67,-22,134,-81,134v-50,0,-56,-56,-77,-87v-7,-11,-16,-16,-25,-16v-30,0,-45,32,-45,97r-33,0v0,-67,21,-134,80,-134v50,0,57,56,78,87v7,11,16,16,25,16v30,0,45,-32,45,-97r33,0","w":440},"\u00e4":{"d":"221,-495v96,0,150,53,149,151r0,344r-51,0r0,-55v-31,45,-74,67,-128,67v-84,1,-145,-72,-145,-161v0,-91,60,-160,145,-160v54,0,97,22,128,65r0,-95v1,-69,-36,-112,-103,-112v-47,0,-88,21,-123,63r-26,-36v43,-47,94,-71,154,-71xm99,-148v0,66,40,120,106,120v51,0,89,-22,114,-66r0,-108v-25,-45,-63,-67,-114,-67v-65,0,-106,56,-106,121xm305,-637v19,0,37,17,37,36v0,19,-18,37,-37,37v-19,0,-37,-18,-37,-37v0,-19,18,-36,37,-36xm137,-637v19,0,36,17,36,36v0,19,-17,37,-36,37v-19,0,-37,-18,-37,-37v0,-19,18,-36,37,-36","w":440},"\u00e5":{"d":"221,-495v96,0,150,53,149,151r0,344r-51,0r0,-55v-31,45,-74,67,-128,67v-84,1,-145,-72,-145,-161v0,-91,60,-160,145,-160v54,0,97,22,128,65r0,-95v1,-69,-36,-112,-103,-112v-47,0,-88,21,-123,63r-26,-36v43,-47,94,-71,154,-71xm99,-148v0,66,40,120,106,120v51,0,89,-22,114,-66r0,-108v-25,-45,-63,-67,-114,-67v-65,0,-106,56,-106,121xm308,-639v0,48,-39,89,-87,89v-47,0,-88,-41,-88,-89v0,-47,41,-88,88,-88v47,0,87,41,87,88xm164,-639v0,31,27,58,57,58v31,0,57,-27,57,-58v0,-30,-26,-57,-57,-57v-30,0,-57,27,-57,57","w":440},"\u00e6":{"d":"504,-495v131,0,188,128,183,270r-318,0v1,102,51,193,149,193v47,0,87,-22,119,-65r31,30v-41,53,-92,79,-153,79v-70,0,-125,-33,-164,-98v-37,65,-90,98,-159,98v-85,1,-146,-70,-146,-160v0,-90,60,-162,145,-161v55,0,97,21,128,64r0,-94v1,-69,-36,-112,-103,-112v-47,0,-88,21,-123,63r-26,-36v43,-47,94,-71,154,-71v79,0,124,34,135,101v23,-55,73,-101,148,-101xm635,-265v0,-89,-43,-191,-133,-187v-91,4,-130,93,-133,187r266,0xm99,-148v0,69,40,120,106,120v57,0,100,-30,129,-90v-10,-24,-15,-52,-15,-83v-25,-45,-63,-68,-114,-68v-66,0,-106,52,-106,121","w":731},"\u00e7":{"d":"331,109v0,47,-44,79,-93,78v-34,0,-62,-10,-85,-29r16,-32v21,19,44,28,69,28v28,1,57,-18,57,-45v0,-44,-50,-50,-71,-22r-27,-16r22,-60v-111,-10,-171,-126,-171,-253v0,-132,66,-254,191,-253v52,0,96,21,131,63r-30,35v-26,-35,-58,-53,-97,-53v-97,0,-141,104,-141,208v0,105,44,208,141,209v39,0,71,-18,97,-53r30,35v-29,38,-68,59,-115,62r-16,44v39,-30,92,4,92,54","w":400},"\u00e8":{"d":"102,-225v1,102,51,193,148,194v48,0,88,-22,120,-66r30,30v-41,53,-91,79,-152,79v-131,1,-200,-116,-200,-254v0,-130,66,-253,187,-253v133,0,188,127,184,270r-317,0xm367,-265v0,-89,-43,-191,-133,-187v-91,4,-129,92,-132,187r265,0xm289,-556r-39,0r-135,-144r58,0","w":464},"\u00e9":{"d":"102,-225v1,102,51,193,148,194v48,0,88,-22,120,-66r30,30v-41,53,-91,79,-152,79v-131,1,-200,-116,-200,-254v0,-130,66,-253,187,-253v133,0,188,127,184,270r-317,0xm367,-265v0,-89,-43,-191,-133,-187v-91,4,-129,92,-132,187r265,0xm358,-700r-135,144r-39,0r116,-144r58,0","w":464},"\u00ea":{"d":"102,-225v1,102,51,193,148,194v48,0,88,-22,120,-66r30,30v-41,53,-91,79,-152,79v-131,1,-200,-116,-200,-254v0,-130,66,-253,187,-253v133,0,188,127,184,270r-317,0xm367,-265v0,-89,-43,-191,-133,-187v-91,4,-129,92,-132,187r265,0xm346,-556r-36,0r-75,-112r-72,112r-36,0r82,-144r52,0","w":464},"\u00eb":{"d":"102,-225v1,102,51,193,148,194v48,0,88,-22,120,-66r30,30v-41,53,-91,79,-152,79v-131,1,-200,-116,-200,-254v0,-130,66,-253,187,-253v133,0,188,127,184,270r-317,0xm367,-265v0,-89,-43,-191,-133,-187v-91,4,-129,92,-132,187r265,0xm319,-637v19,0,37,17,37,36v0,19,-18,37,-37,37v-19,0,-37,-18,-37,-37v0,-19,18,-36,37,-36xm151,-637v19,0,36,17,36,36v0,19,-17,37,-36,37v-19,0,-37,-18,-37,-37v0,-19,18,-36,37,-36","w":464},"\u00ec":{"d":"148,-556r-39,0r-135,-144r58,0xm121,0r-50,0r0,-483r50,0r0,483","w":192},"\u00ed":{"d":"218,-700r-135,144r-39,0r116,-144r58,0xm121,0r-50,0r0,-483r50,0r0,483","w":192},"\u00ee":{"d":"206,-556r-36,0r-75,-112r-72,112r-36,0r82,-144r52,0xm121,0r-50,0r0,-483r50,0r0,483","w":192},"\u00ef":{"d":"180,-637v19,0,37,17,37,36v0,19,-18,37,-37,37v-19,0,-37,-18,-37,-37v0,-19,18,-36,37,-36xm12,-637v19,0,36,17,36,36v0,19,-17,37,-36,37v-19,0,-37,-18,-37,-37v0,-19,18,-36,37,-36xm121,0r-50,0r0,-483r50,0r0,483","w":192},"\u00f0":{"d":"48,-238v0,-128,59,-250,178,-250v50,0,90,24,119,73v-25,-53,-58,-105,-101,-155r-123,55r-15,-32r113,-50v-18,-20,-38,-40,-61,-59r38,-33v24,23,47,47,69,72r93,-42r14,32r-84,38v89,111,134,225,134,342v0,135,-60,258,-187,259v-124,1,-187,-121,-187,-250xm102,-238v0,101,39,205,133,205v94,0,133,-105,133,-205v0,-101,-39,-204,-133,-204v-94,0,-133,104,-133,204"},"\u00f1":{"d":"122,-412v26,-40,80,-82,140,-83v79,0,119,43,119,130r0,365r-51,0r0,-354v0,-64,-28,-96,-83,-96v-54,1,-105,46,-125,85r0,365r-50,0r0,-483r50,0r0,71xm357,-688v0,67,-22,134,-81,134v-50,0,-56,-56,-77,-87v-7,-11,-16,-16,-25,-16v-30,0,-45,32,-45,97r-33,0v0,-67,21,-134,80,-134v50,0,57,56,78,87v7,11,16,16,25,16v30,0,45,-32,45,-97r33,0","w":450},"\u00f2":{"d":"422,-242v0,131,-63,254,-187,254v-124,0,-187,-123,-187,-254v0,-132,61,-253,187,-253v125,0,187,122,187,253xm102,-242v0,101,39,209,133,209v95,0,133,-107,133,-209v0,-101,-38,-208,-133,-208v-94,0,-133,107,-133,208xm288,-556r-39,0r-135,-144r58,0"},"\u00f3":{"d":"422,-242v0,131,-63,254,-187,254v-124,0,-187,-123,-187,-254v0,-132,61,-253,187,-253v125,0,187,122,187,253xm102,-242v0,101,39,209,133,209v95,0,133,-107,133,-209v0,-101,-38,-208,-133,-208v-94,0,-133,107,-133,208xm357,-700r-135,144r-39,0r116,-144r58,0"},"\u00f4":{"d":"422,-242v0,131,-63,254,-187,254v-124,0,-187,-123,-187,-254v0,-132,61,-253,187,-253v125,0,187,122,187,253xm102,-242v0,101,39,209,133,209v95,0,133,-107,133,-209v0,-101,-38,-208,-133,-208v-94,0,-133,107,-133,208xm345,-556r-36,0r-75,-112r-72,112r-36,0r82,-144r52,0"},"\u00f5":{"d":"422,-242v0,131,-63,254,-187,254v-124,0,-187,-123,-187,-254v0,-132,61,-253,187,-253v125,0,187,122,187,253xm102,-242v0,101,39,209,133,209v95,0,133,-107,133,-209v0,-101,-38,-208,-133,-208v-94,0,-133,107,-133,208xm366,-688v0,67,-22,134,-81,134v-50,0,-56,-56,-77,-87v-7,-11,-16,-16,-25,-16v-30,0,-45,32,-45,97r-33,0v0,-67,21,-134,80,-134v50,0,57,56,78,87v7,11,16,16,25,16v30,0,45,-32,45,-97r33,0"},"\u00f6":{"d":"422,-242v0,131,-63,254,-187,254v-124,0,-187,-123,-187,-254v0,-132,61,-253,187,-253v125,0,187,122,187,253xm102,-242v0,101,39,209,133,209v95,0,133,-107,133,-209v0,-101,-38,-208,-133,-208v-94,0,-133,107,-133,208xm319,-637v19,0,37,17,37,36v0,19,-18,37,-37,37v-19,0,-37,-18,-37,-37v0,-19,18,-36,37,-36xm151,-637v19,0,36,17,36,36v0,19,-17,37,-36,37v-19,0,-37,-18,-37,-37v0,-19,18,-36,37,-36"},"\u00f7":{"d":"222,-543v21,0,39,18,39,39v0,21,-18,39,-39,39v-21,0,-39,-18,-39,-39v0,-21,18,-39,39,-39xm414,-317r-385,0r0,-40r385,0r0,40xm222,-204v21,0,39,17,39,39v0,21,-18,39,-39,39v-21,0,-39,-18,-39,-39v0,-21,18,-40,39,-39","w":443},"\u00f8":{"d":"422,-242v2,131,-63,255,-187,254v-45,0,-82,-14,-113,-43r-19,31r-40,0r36,-58v-34,-47,-51,-108,-51,-184v-1,-132,61,-254,187,-253v43,0,80,14,109,41r18,-29r40,0r-34,55v36,46,54,108,54,186xm235,-33v140,-1,161,-236,103,-347r-189,305v23,28,51,42,86,42xm235,-450v-138,1,-160,229,-106,343r189,-304v-23,-26,-50,-39,-83,-39"},"\u00f9":{"d":"205,-33v55,-1,103,-43,124,-83r0,-367r51,0r0,483r-51,0r0,-69v-29,40,-78,81,-140,81v-83,0,-118,-43,-118,-129r0,-366r50,0r0,355v0,63,28,95,84,95xm279,-556r-39,0r-135,-144r58,0","w":450},"\u00fa":{"d":"205,-33v55,-1,103,-43,124,-83r0,-367r51,0r0,483r-51,0r0,-69v-29,40,-78,81,-140,81v-83,0,-118,-43,-118,-129r0,-366r50,0r0,355v0,63,28,95,84,95xm348,-700r-135,144r-39,0r116,-144r58,0","w":450},"\u00fb":{"d":"205,-33v55,-1,103,-43,124,-83r0,-367r51,0r0,483r-51,0r0,-69v-29,40,-78,81,-140,81v-83,0,-118,-43,-118,-129r0,-366r50,0r0,355v0,63,28,95,84,95xm335,-556r-36,0r-75,-112r-72,112r-36,0r82,-144r52,0","w":450},"\u00fc":{"d":"205,-33v55,-1,103,-43,124,-83r0,-367r51,0r0,483r-51,0r0,-69v-29,40,-78,81,-140,81v-83,0,-118,-43,-118,-129r0,-366r50,0r0,355v0,63,28,95,84,95xm312,-637v19,0,37,17,37,36v0,19,-18,37,-37,37v-19,0,-37,-18,-37,-37v0,-19,18,-36,37,-36xm144,-637v19,0,36,17,36,36v0,19,-17,37,-36,37v-19,0,-37,-18,-37,-37v0,-19,18,-36,37,-36","w":450},"\u00fd":{"d":"40,189r9,-46v19,11,52,11,67,-4v26,-27,37,-89,53,-129r-159,-493r56,0r130,421r131,-421r55,0r-195,593v-23,72,-75,100,-147,79xm318,-700r-135,144r-39,0r116,-144r58,0","w":392},"\u00fe":{"d":"251,-495v119,0,173,119,171,253v0,76,-16,137,-46,184v-30,47,-72,70,-125,70v-57,0,-100,-28,-130,-84r0,256r-50,0r0,-851r50,0r0,254v31,-55,74,-82,130,-82xm121,-123v17,43,66,90,121,90v140,0,152,-251,94,-358v-22,-39,-53,-59,-94,-59v-55,0,-103,46,-121,88r0,239","w":468},"\u00ff":{"d":"40,189r9,-46v19,11,52,11,67,-4v26,-27,37,-89,53,-129r-159,-493r56,0r130,421r131,-421r55,0r-195,593v-23,72,-75,100,-147,79xm280,-637v19,0,37,17,37,36v0,19,-18,37,-37,37v-19,0,-37,-18,-37,-37v0,-19,18,-36,37,-36xm112,-637v19,0,36,17,36,36v0,19,-17,37,-36,37v-19,0,-37,-18,-37,-37v0,-19,18,-36,37,-36","w":392},"\u0152":{"d":"290,-677v85,0,147,48,177,116r0,-106r326,0r0,50r-270,0r0,250r263,0r0,50r-263,0r0,267r270,0r0,50r-326,0r0,-106v-31,69,-91,118,-177,118v-75,0,-131,-34,-174,-98v-82,-122,-82,-372,0,-494v43,-64,99,-97,174,-97xm296,-39v95,0,147,-72,171,-158r0,-273v-25,-86,-75,-156,-171,-156v-59,0,-103,28,-136,82v-63,103,-63,319,0,422v33,55,77,83,136,83","w":847},"\u0153":{"d":"555,-495v131,0,189,128,184,270r-318,0v1,102,51,194,149,194v47,0,87,-22,119,-66r31,30v-41,53,-92,79,-153,79v-86,0,-143,-45,-172,-135v-23,70,-70,135,-160,135v-124,0,-187,-123,-187,-254v0,-132,61,-253,187,-253v89,0,138,64,160,133v20,-68,74,-134,160,-133xm687,-265v0,-89,-43,-191,-133,-187v-91,4,-130,93,-133,187r266,0xm235,-32v95,0,133,-108,133,-210v0,-101,-38,-208,-133,-208v-94,0,-133,107,-133,208v0,102,38,210,133,210","w":783},"\u0178":{"d":"329,-805v19,0,37,17,37,36v0,19,-18,37,-37,37v-19,0,-37,-18,-37,-37v0,-19,18,-36,37,-36xm161,-805v19,0,36,17,36,36v0,19,-17,37,-36,37v-19,0,-37,-18,-37,-37v0,-19,18,-36,37,-36xm270,0r-56,0r0,-286r-206,-381r64,0r170,325r170,-325r63,0r-205,381r0,286","w":483},"\u02c6":{"d":"219,-556r-36,0r-75,-112r-72,112r-36,0r82,-144r52,0","w":219},"\u02dc":{"d":"261,-688v0,67,-22,134,-81,134v-50,0,-56,-56,-77,-87v-7,-11,-16,-16,-25,-16v-30,0,-45,32,-45,97r-33,0v0,-67,21,-134,80,-134v50,0,57,56,78,87v7,11,16,16,25,16v30,0,45,-32,45,-97r33,0","w":261},"\u2013":{"d":"497,-219r-467,0r0,-46r467,0r0,46","w":527},"\u2014":{"d":"707,-219r-677,0r0,-46r677,0r0,46","w":737},"\u2018":{"d":"107,-479v-62,-3,-58,-94,-29,-140v15,-24,30,-44,50,-58r29,24v-27,17,-54,56,-58,92v28,-6,50,15,50,40v0,22,-19,43,-42,42","w":218},"\u2019":{"d":"108,-677v60,4,57,95,29,141v-14,24,-30,43,-51,57r-29,-23v26,-18,56,-56,59,-93v-29,6,-50,-13,-50,-40v0,-22,19,-43,42,-42","w":218},"\u201a":{"d":"108,-76v30,1,50,29,49,63v-1,58,-34,111,-71,135r-29,-24v27,-17,55,-56,59,-92v-29,6,-50,-13,-50,-40v0,-22,19,-43,42,-42","w":218},"\u201c":{"d":"110,-479v-61,-4,-57,-94,-28,-140v15,-24,30,-44,50,-58r29,24v-27,17,-54,56,-58,92v29,-6,49,15,49,40v1,23,-19,43,-42,42xm251,-479v-62,-3,-58,-94,-29,-140v15,-24,30,-44,50,-58r29,24v-27,17,-54,56,-58,92v28,-6,50,15,50,40v0,22,-19,43,-42,42","w":359},"\u201d":{"d":"248,-677v61,3,57,96,29,141v-14,24,-30,43,-50,57r-29,-23v27,-18,54,-57,58,-93v-28,6,-50,-15,-50,-40v0,-22,19,-43,42,-42xm108,-677v60,4,57,95,29,141v-14,24,-30,43,-51,57r-29,-23v26,-18,56,-56,59,-93v-29,6,-50,-13,-50,-40v0,-22,19,-43,42,-42","w":359},"\u201e":{"d":"108,-76v30,1,50,29,49,63v-1,58,-34,111,-71,135r-29,-24v27,-17,55,-56,59,-92v-29,6,-50,-13,-50,-40v0,-22,19,-43,42,-42xm248,-76v61,3,57,94,29,140v-14,24,-30,44,-50,58r-29,-24v27,-17,54,-56,58,-92v-28,6,-50,-15,-50,-40v0,-22,19,-43,42,-42","w":359},"\u2022":{"d":"180,-344v56,0,102,46,102,102v0,55,-47,101,-102,101v-56,0,-102,-46,-102,-101v0,-56,46,-102,102,-102","w":358},"\u2026":{"d":"109,-76v23,0,43,20,43,42v0,23,-20,43,-43,43v-22,0,-43,-20,-43,-43v0,-22,21,-42,43,-42xm327,-76v23,0,44,20,44,42v0,23,-21,43,-44,43v-22,0,-43,-20,-43,-43v0,-22,21,-42,43,-42xm546,-76v22,0,43,20,43,42v0,23,-21,43,-43,43v-23,0,-44,-20,-44,-43v0,-22,21,-42,44,-42","w":655},"\u2039":{"d":"206,-63r-51,0r-125,-180r125,-177r51,0r-125,177","w":236},"\u203a":{"d":"206,-243r-125,180r-51,0r125,-180r-125,-177r51,0","w":236},"\u20ac":{"d":"135,-242v18,104,76,203,183,203v61,0,107,-33,139,-100r47,24v-45,85,-107,127,-186,127v-142,0,-221,-119,-242,-254r-50,0r0,-41r45,0v-3,-27,-3,-64,0,-102r-45,0r0,-41r50,0v22,-134,101,-252,242,-252v78,0,140,39,185,117r-47,24v-33,-60,-79,-90,-138,-90v-107,0,-164,97,-182,201r226,0r0,41r-232,0v-3,39,-3,74,0,102r232,0r0,41r-227,0","w":538},"\u2122":{"d":"379,-447r-28,0r0,-182r-65,182r-8,0r-65,-182r0,182r-28,0r0,-220r43,0r54,158r54,-158r43,0r0,220xm149,-641r-52,0r0,194r-28,0r0,-194r-52,0r0,-26r132,0r0,26","w":414}}});
