/*!
 * The following copyright notice may not be removed under any circumstances.
 * 
 * Copyright:
 * Copyright (c) Mark Simonson, 2005. All rights reserved.
 * 
 * Description:
 * This is a protected webfont and is intended for CSS @font-face use ONLY.
 * Reverse engineering this font is strictly prohibited.
 */
Cufon.registerFont({"w":684,"face":{"font-family":"","font-weight":700,"font-stretch":"normal","units-per-em":"1000","panose-1":"2 0 5 6 3 0 0 2 0 4","ascent":"790","descent":"-210","x-height":"12","bbox":"-102 -903 1041 199","underline-thickness":"20","underline-position":"-113","unicode-range":"U+0020-U+2122"},"glyphs":{" ":{"w":257},"!":{"d":"184,-218r-112,0r-21,-449r153,0xm209,-70v0,42,-39,80,-81,80v-42,0,-80,-38,-80,-80v0,-43,37,-81,80,-81v43,0,81,38,81,81","w":255},"\"":{"d":"44,-608v-1,-37,32,-69,69,-69v36,0,75,33,69,69r-41,233r-56,0v-27,-143,-41,-220,-41,-233xm225,-608v-1,-36,33,-69,69,-69v36,0,75,33,69,69r-41,233r-56,0v-27,-143,-41,-220,-41,-233","w":406},"#":{"d":"339,0r-95,0r58,-170r-95,0r-57,170r-94,0r57,-170r-96,0r26,-81r98,0r54,-165r-97,0r25,-80r100,0r56,-171r94,0r-56,171r94,0r56,-171r95,0r-58,171r97,0r-23,80r-101,0r-55,165r101,0r-25,81r-103,0xm328,-251r55,-165r-94,0r-54,165r93,0","w":618},"$":{"d":"581,-202v0,127,-92,201,-220,212r0,90r-94,0r0,-90v-97,-8,-176,-43,-237,-104r78,-111v44,46,97,75,159,86r0,-155v-63,-15,-97,-28,-145,-58v-44,-28,-70,-73,-70,-142v0,-115,98,-193,215,-201r0,-93r94,0r0,95v82,9,150,39,204,89r-79,106v-34,-31,-76,-53,-125,-65r0,138v64,17,98,28,147,59v45,28,73,75,73,144xm361,-117v41,-7,75,-30,75,-71v0,-41,-37,-49,-75,-63r0,134xm267,-549v-39,4,-68,25,-69,64v0,23,23,42,69,57r0,-121","w":614},"%":{"d":"365,-510v0,95,-73,165,-170,165v-97,0,-169,-71,-169,-165v0,-95,72,-167,169,-167v98,0,170,71,170,167xm205,0r-75,0r426,-667r76,0xm732,-153v0,94,-74,165,-170,165v-97,0,-169,-71,-169,-165v0,-95,72,-168,169,-168v97,0,170,73,170,168xm116,-510v0,49,32,87,79,87v48,0,80,-38,80,-87v0,-51,-32,-89,-80,-89v-47,0,-79,39,-79,89xm483,-153v0,50,31,87,79,87v48,0,80,-37,80,-87v0,-51,-32,-89,-80,-89v-48,0,-79,38,-79,89","w":758},"&":{"d":"314,-677v92,0,175,52,175,141v0,80,-52,123,-101,152v-16,9,-37,19,-62,31r57,72r57,69v27,-43,48,-86,61,-130r101,47v-29,65,-60,118,-93,160r129,135r-162,0r-50,-50v-55,41,-115,62,-182,62v-124,1,-222,-68,-220,-193v2,-106,67,-151,144,-193v-29,-53,-44,-101,-44,-143v-1,-95,89,-160,190,-160xm159,-193v0,60,45,106,103,105v33,0,65,-11,96,-34v-60,-65,-102,-117,-141,-173v-39,27,-58,61,-58,102xm320,-585v-40,-1,-71,31,-70,71v0,25,10,55,29,90v33,-15,58,-31,75,-47v17,-16,25,-35,25,-58v1,-34,-26,-56,-59,-56","w":647},"'":{"d":"44,-608v-1,-37,32,-69,69,-69v36,0,75,33,69,69r-41,233r-56,0v-27,-143,-41,-220,-41,-233","w":225},"(":{"d":"178,-243v0,164,38,265,101,380r-79,62v-89,-96,-159,-268,-159,-442v0,-174,70,-347,159,-442r79,60v-63,117,-101,216,-101,382","w":297},")":{"d":"119,-243v0,163,-38,266,-101,380r79,62v89,-97,160,-267,160,-442v0,-174,-72,-346,-160,-442r-79,60v63,117,101,216,101,382","w":298},"*":{"d":"207,-366r-63,0r5,-110r-92,59r-32,-54r97,-51r-97,-50r32,-54r92,59r-5,-110r63,0r-5,110r92,-59r32,54r-97,50r97,51r-32,54r-92,-59","w":351},"+":{"d":"475,-298r-179,0r0,203r-87,0r0,-203r-180,0r0,-79r180,0r0,-196r87,0r0,196r179,0r0,79","w":504},",":{"d":"126,-151v52,0,90,45,89,102v-2,84,-48,147,-103,186r-55,-45v30,-15,69,-58,77,-94v-48,14,-87,-23,-87,-69v0,-42,37,-81,79,-80","w":255},"-":{"d":"270,-188r-240,0r0,-108r240,0r0,108","w":300},".":{"d":"209,-70v0,43,-38,81,-81,81v-43,0,-81,-38,-81,-81v0,-43,38,-81,81,-81v43,0,81,38,81,81","w":257},"\/":{"d":"92,20r-92,0r237,-707r92,0","w":329},"0":{"d":"466,-40v-83,67,-229,67,-312,0v-79,-64,-120,-161,-120,-293v0,-131,41,-230,120,-293v83,-66,229,-66,312,0v79,63,120,161,120,293v0,131,-42,230,-120,293xm310,-551v-103,2,-130,104,-131,218v0,66,10,119,31,159v21,40,55,60,100,60v103,-2,130,-105,131,-219v0,-67,-10,-120,-31,-159v-21,-39,-55,-59,-100,-59","w":620},"1":{"d":"345,0r-142,0r0,-484r-111,113r-81,-85r210,-211r124,0r0,667","w":411},"2":{"d":"289,-677v138,-2,257,80,255,213v0,55,-21,108,-64,160v-43,52,-111,112,-203,179r272,0r0,125r-502,0r0,-112v143,-106,238,-181,284,-226v46,-45,69,-87,69,-126v1,-57,-51,-87,-108,-87v-70,0,-130,26,-179,77r-81,-94v54,-65,148,-108,257,-109","w":600},"3":{"d":"546,-184v-3,127,-122,196,-263,196v-115,0,-212,-44,-263,-107r75,-95v38,42,109,75,183,76v69,1,126,-26,126,-85v0,-65,-56,-76,-134,-77v-42,0,-70,1,-83,2r0,-128v8,1,36,1,83,1v83,0,124,-24,124,-71v-1,-56,-62,-80,-124,-79v-65,0,-122,23,-170,69r-71,-89v63,-71,148,-106,255,-106v138,0,249,58,252,181v1,84,-73,139,-146,152v77,7,158,71,156,160","w":587},"4":{"d":"486,0r-142,0r0,-138r-319,0r0,-112r265,-417r196,0r0,404r86,0r0,125r-86,0r0,138xm344,-263r0,-278r-180,278r180,0","w":597},"5":{"d":"573,-219v0,145,-116,231,-267,231v-110,0,-196,-33,-257,-100r79,-99v47,49,106,73,177,73v68,0,124,-38,124,-99v0,-64,-51,-99,-120,-99v-55,0,-102,18,-140,54r-99,-27r0,-382r458,0r0,125r-316,0r0,163v37,-37,86,-56,147,-56v119,-1,214,91,214,216","w":608},"6":{"d":"578,-217v0,135,-115,229,-256,229v-195,0,-288,-149,-288,-344v0,-199,115,-347,311,-345v79,0,144,23,197,69r-64,109v-37,-35,-81,-52,-133,-52v-102,-1,-176,93,-166,203v30,-44,99,-86,171,-86v126,0,228,85,228,217xm179,-249v7,74,51,135,135,135v64,0,118,-42,119,-98v1,-66,-57,-100,-123,-100v-54,0,-98,21,-131,63","w":608},"7":{"d":"277,0r-156,0r239,-542r-336,0r0,-125r501,0r0,99","w":545},"8":{"d":"571,-173v1,126,-135,185,-268,185v-134,0,-269,-59,-268,-185v1,-88,71,-147,143,-171v-88,-31,-132,-83,-132,-157v-1,-85,68,-139,135,-159v73,-23,171,-23,244,0v68,21,136,74,135,159v0,73,-44,126,-132,157v73,25,142,83,143,171xm303,-551v-59,0,-113,21,-113,74v0,49,67,69,113,77v46,-8,112,-28,112,-77v0,-52,-54,-74,-112,-74xm179,-193v4,106,245,106,248,0v2,-52,-76,-80,-124,-87v-39,7,-74,18,-101,42v-16,13,-23,28,-23,45","w":606},"9":{"d":"574,-334v0,199,-115,347,-311,345v-79,0,-145,-23,-196,-69r63,-109v37,35,81,52,133,52v107,1,172,-91,167,-203v-31,44,-100,87,-172,86v-127,1,-227,-85,-227,-217v0,-135,113,-229,255,-229v195,0,288,149,288,344xm175,-454v-2,66,58,100,123,100v54,0,98,-21,131,-63v-7,-74,-51,-135,-135,-135v-64,0,-118,42,-119,98","w":608},":":{"d":"209,-409v0,43,-38,81,-81,81v-43,0,-81,-38,-81,-81v0,-43,38,-81,81,-81v43,0,81,38,81,81xm209,-70v0,43,-38,81,-81,81v-43,0,-81,-38,-81,-81v0,-43,38,-81,81,-81v43,0,81,38,81,81","w":246},";":{"d":"209,-410v0,43,-38,82,-81,82v-43,0,-81,-39,-81,-82v0,-43,38,-80,81,-80v43,0,81,37,81,80xm126,-155v53,0,90,45,89,103v-2,83,-48,147,-103,185r-55,-45v30,-15,69,-58,77,-94v-48,14,-87,-23,-87,-69v0,-42,37,-81,79,-80","w":255},"<":{"d":"475,-90r-446,-199r0,-92r446,-199r0,94r-355,152r355,150r0,94","w":504},"=":{"d":"475,-389r-446,0r0,-79r446,0r0,79xm475,-201r-446,0r0,-78r446,0r0,78","w":504},">":{"d":"475,-289r-446,199r0,-94r355,-150r-355,-152r0,-94r446,199r0,92","w":504},"?":{"d":"228,-677v115,0,208,54,208,158v0,85,-57,126,-108,161v-27,18,-57,42,-59,80v0,17,6,31,19,42r-110,32v-39,-40,-44,-112,-10,-160v29,-41,68,-53,101,-86v15,-15,23,-29,23,-44v-1,-38,-34,-57,-79,-57v-48,0,-89,21,-123,62r-81,-91v55,-65,128,-97,219,-97xm307,-70v0,43,-38,81,-81,81v-43,0,-81,-38,-81,-81v0,-43,38,-81,81,-81v43,0,81,38,81,81","w":456},"@":{"d":"75,-246v0,155,124,278,282,278v63,0,124,-18,182,-55r21,30v-65,42,-135,63,-208,63v-176,0,-320,-140,-317,-314v2,-155,95,-279,203,-340v62,-35,126,-54,194,-54v180,0,317,133,315,306v0,77,-21,138,-62,182v-41,44,-87,65,-136,65v-56,1,-91,-33,-98,-80v-29,42,-81,79,-144,80v-95,2,-155,-73,-155,-168v0,-123,108,-245,226,-245v59,0,100,22,125,67r11,-53r113,0r-51,244v-9,35,1,69,34,69v23,0,44,-13,64,-41v20,-28,30,-68,30,-120v2,-159,-113,-267,-276,-267v-182,0,-353,171,-353,353xm269,-263v0,51,31,89,82,88v43,0,80,-22,111,-66r25,-116v-12,-26,-41,-51,-81,-51v-75,0,-137,71,-137,145","w":783},"A":{"d":"688,0r-161,0r-42,-113r-286,0r-42,113r-161,0r257,-667r178,0xm446,-238r-104,-287r-104,287r208,0"},"B":{"d":"622,-181v-1,109,-77,181,-194,181r-362,0r0,-667r351,0v112,-3,191,69,192,170v2,78,-51,141,-115,153v70,9,129,82,128,163xm464,-472v0,-43,-33,-70,-78,-70r-178,0r0,140r178,0v46,1,78,-26,78,-70xm477,-201v0,-46,-35,-76,-85,-76r-184,0r0,152r184,0v51,1,85,-27,85,-76","w":663},"C":{"d":"390,-114v71,-1,131,-47,156,-97r122,59v-62,109,-155,164,-278,164v-199,0,-356,-146,-356,-345v0,-201,156,-345,356,-345v125,0,217,54,278,163r-122,60v-25,-50,-85,-96,-156,-97v-121,-2,-210,97,-210,219v0,122,89,220,210,219","w":687},"D":{"d":"683,-334v0,201,-150,334,-353,334r-264,0r0,-667r263,0v202,-4,354,134,354,333xm538,-334v0,-123,-81,-211,-208,-208r-122,0r0,417r121,0v123,3,209,-90,209,-209","w":718},"E":{"d":"538,0r-472,0r0,-667r472,0r0,125r-330,0r0,140r323,0r0,125r-323,0r0,152r330,0r0,125","w":583},"F":{"d":"208,0r-142,0r0,-667r472,0r0,125r-330,0r0,140r323,0r0,125r-323,0r0,277","w":571},"G":{"d":"390,-114v54,0,114,-24,141,-51r0,-80r-176,0r0,-124r318,0r0,256v-75,83,-169,125,-283,125v-198,0,-356,-144,-356,-345v0,-202,158,-345,356,-345v121,0,212,50,275,149r-117,64v-30,-46,-86,-86,-158,-87v-121,-1,-210,97,-210,219v0,122,89,219,210,219","w":720},"H":{"d":"666,0r-143,0r0,-281r-315,0r0,281r-142,0r0,-667r142,0r0,262r315,0r0,-262r143,0r0,667","w":731},"I":{"d":"208,0r-142,0r0,-667r142,0r0,667","w":274},"J":{"d":"421,-219v2,148,-92,231,-235,231v-75,0,-135,-22,-180,-66r62,-108v33,32,69,48,106,48v62,1,105,-44,104,-107r0,-446r143,0r0,448","w":486},"K":{"d":"637,0r-175,0r-202,-268r-52,63r0,205r-142,0r0,-667r142,0r0,297r236,-297r175,0r-265,313","w":636},"L":{"d":"485,0r-425,0r0,-667r143,0r0,542r282,0r0,125","w":515},"M":{"d":"789,0r-143,0r0,-481r-188,481r-62,0r-188,-481r0,481r-142,0r0,-667r199,0r162,417r162,-417r200,0r0,667","w":855},"N":{"d":"663,0r-137,0r-318,-435r0,435r-142,0r0,-667r146,0r309,419r0,-419r142,0r0,667","w":729},"O":{"d":"731,-333v0,197,-151,345,-348,345v-198,0,-349,-147,-349,-345v0,-198,151,-345,349,-345v197,0,348,149,348,345xm180,-333v0,122,82,219,203,219v121,0,202,-97,202,-219v0,-122,-81,-219,-202,-219v-122,0,-203,96,-203,219","w":765},"P":{"d":"602,-452v1,124,-93,214,-224,214r-170,0r0,238r-142,0r0,-667r312,0v133,-4,224,89,224,215xm457,-452v0,-55,-44,-91,-99,-90r-150,0r0,179r150,0v55,1,99,-35,99,-89","w":625},"Q":{"d":"383,-678v197,0,348,149,348,345v0,93,-29,171,-87,236r49,57r-99,81r-54,-62v-48,22,-100,33,-157,33v-198,0,-349,-147,-349,-345v0,-198,151,-345,349,-345xm180,-333v0,146,120,256,272,208r-73,-86r99,-81r73,86v23,-36,34,-78,34,-127v2,-122,-81,-219,-202,-219v-122,0,-203,96,-203,219","w":765},"R":{"d":"603,-452v0,105,-66,179,-147,198r151,254r-164,0r-131,-237r-104,0r0,237r-142,0r0,-667r312,0v132,-3,225,87,225,215xm457,-453v0,-54,-44,-89,-99,-89r-150,0r0,180r150,0v56,1,99,-35,99,-91","w":643},"S":{"d":"571,-202v-2,141,-111,214,-267,214v-119,0,-213,-35,-284,-106r78,-111v58,61,129,91,212,91v62,0,116,-24,116,-74v0,-44,-55,-61,-100,-70v-60,-11,-133,-33,-184,-56v-55,-25,-101,-81,-100,-160v1,-124,115,-203,253,-203v106,0,193,31,260,93r-79,106v-53,-49,-117,-73,-194,-73v-51,-1,-94,21,-94,66v0,41,57,55,100,65v60,12,133,34,184,58v54,25,100,80,99,160","w":600},"T":{"d":"363,0r-143,0r0,-542r-195,0r0,-125r532,0r0,125r-194,0r0,542","w":582},"U":{"d":"668,-267v-1,177,-114,279,-301,279v-188,0,-300,-101,-301,-279r0,-400r144,0r0,396v0,96,59,157,157,157v98,0,156,-61,156,-157r0,-396r145,0r0,400","w":734},"V":{"d":"431,0r-178,0r-257,-667r161,0r185,512r185,-512r161,0"},"W":{"d":"727,0r-151,0r-117,-458r-116,458r-151,0r-191,-667r159,0r117,482r127,-482r111,0r126,482r117,-482r159,0","w":918},"X":{"d":"671,0r-170,0r-167,-244r-168,244r-169,0r242,-342r-227,-325r169,0r153,228r151,-228r171,0r-227,324","w":668},"Y":{"d":"394,0r-142,0r0,-273r-256,-394r162,0r165,267r165,-267r161,0r-255,394r0,273","w":645},"Z":{"d":"550,0r-508,0r0,-115r315,-427r-315,0r0,-125r501,0r0,114r-315,428r322,0r0,125","w":592},"[":{"d":"263,190r-216,0r0,-868r216,0r0,85r-124,0r0,698r124,0r0,85","w":280},"\\":{"d":"237,20r-237,-707r92,0r237,707r-92,0","w":329},"]":{"d":"233,190r-215,0r0,-85r124,0r0,-698r-124,0r0,-85r215,0r0,868","w":280},"^":{"d":"422,-333r-94,0r-108,-247r-107,247r-94,0r156,-334r93,0","w":441},"_":{"d":"567,125r-570,0r0,-85r570,0r0,85","w":564},"`":{"d":"251,-556r-89,0r-162,-144r117,0","w":251},"\u02cb":{"d":"251,-556r-89,0r-162,-144r117,0","w":251},"a":{"d":"269,-495v124,1,212,54,212,183r0,312r-128,0r0,-51v-35,42,-86,63,-153,63v-87,0,-167,-66,-167,-160v0,-100,75,-155,167,-156v69,0,120,20,153,59r0,-61v0,-53,-48,-82,-106,-81v-51,0,-98,19,-139,57r-50,-89v57,-51,127,-76,211,-76xm160,-146v0,46,43,73,91,72v47,0,81,-14,102,-42r0,-60v-21,-29,-55,-43,-102,-43v-48,-1,-91,27,-91,73","w":543},"b":{"d":"300,-382v-45,0,-91,28,-110,56r0,171v19,28,66,54,110,54v76,1,122,-62,122,-141v0,-78,-47,-141,-122,-140xm553,-242v0,145,-80,253,-214,254v-60,0,-110,-25,-149,-74r0,62r-127,0r0,-667r127,0r0,246v37,-49,87,-74,149,-74v132,0,214,111,214,253","w":586},"c":{"d":"163,-242v0,80,53,142,131,141v43,0,77,-18,102,-53r83,78v-43,59,-106,88,-191,88v-145,0,-256,-109,-256,-254v0,-145,111,-253,256,-253v85,0,149,29,191,87r-83,78v-23,-35,-57,-52,-102,-52v-78,-1,-131,60,-131,140","w":499},"d":{"d":"32,-242v0,-143,81,-253,214,-253v62,0,112,25,149,74r0,-246r128,0r0,667r-128,0r0,-62v-39,49,-89,74,-149,74v-133,-1,-214,-110,-214,-254xm163,-242v0,79,47,142,123,141v45,0,91,-26,109,-55r0,-171v-18,-29,-64,-55,-109,-55v-75,-1,-123,62,-123,140","w":586},"e":{"d":"304,-92v48,0,104,-20,128,-47r57,84v-49,45,-115,67,-199,67v-147,0,-258,-105,-258,-254v0,-139,110,-255,250,-253v156,2,254,124,242,295r-359,0v9,63,63,110,139,108xm402,-288v-7,-58,-49,-103,-120,-103v-69,0,-112,45,-118,103r238,0","w":553},"f":{"d":"279,-573v-47,0,-64,37,-60,90r98,0r0,111r-98,0r0,372r-127,0r0,-372r-80,0r0,-111r80,0v-7,-117,55,-193,162,-194v57,0,99,15,126,46r-48,77v-14,-13,-32,-19,-53,-19","w":327},"g":{"d":"32,-249v0,-143,80,-245,213,-246v61,0,111,25,150,74r0,-62r127,0r0,451v1,86,-34,151,-87,183v-49,30,-101,44,-174,45v-83,0,-153,-24,-208,-72r57,-91v70,86,295,89,285,-65r0,-47v-39,50,-89,75,-150,75v-133,-1,-213,-101,-213,-245xm163,-249v0,79,48,133,123,133v43,0,90,-28,109,-55r0,-157v-19,-28,-65,-54,-109,-54v-75,0,-123,54,-123,133","w":585},"h":{"d":"360,-495v101,-1,157,54,157,152r0,343r-127,0r0,-294v0,-59,-30,-88,-89,-88v-45,0,-82,19,-110,56r0,326r-128,0r0,-667r128,0r0,246v43,-49,99,-74,169,-74","w":580},"i":{"d":"202,-611v0,41,-35,76,-76,76v-40,0,-75,-36,-75,-76v0,-40,35,-75,75,-75v41,0,76,34,76,75xm190,0r-127,0r0,-483r127,0r0,483","w":253},"j":{"d":"202,-611v0,41,-35,76,-76,76v-40,0,-75,-36,-75,-76v0,-40,35,-75,75,-75v41,0,76,34,76,75xm190,13v0,112,-59,184,-172,183v-63,0,-82,-9,-120,-35r34,-94v20,17,42,25,65,25v43,-1,67,-31,66,-79r0,-496r127,0r0,496","w":253},"k":{"d":"535,0r-159,0r-128,-186r-58,62r0,124r-127,0r0,-667r127,0r0,399r183,-215r156,0r-191,219","w":536},"l":{"d":"190,0r-127,0r0,-667r127,0r0,667","w":253},"m":{"d":"648,-495v92,0,143,51,142,146r0,349r-128,0r0,-305v0,-51,-24,-77,-72,-77v-44,0,-81,30,-100,56r0,326r-128,0r0,-305v0,-51,-24,-77,-72,-77v-39,0,-73,19,-100,56r0,326r-127,0r0,-483r127,0r0,62v25,-34,95,-74,158,-74v71,0,116,29,134,87v28,-43,95,-88,166,-87","w":853},"n":{"d":"359,-495v101,0,158,56,158,154r0,341r-128,0r0,-292v0,-60,-30,-90,-89,-90v-44,0,-81,19,-110,56r0,326r-127,0r0,-483r127,0r0,62v33,-39,96,-74,169,-74","w":579},"o":{"d":"543,-242v0,143,-107,254,-256,254v-149,0,-255,-111,-255,-254v0,-143,106,-253,255,-253v149,0,256,110,256,253xm164,-242v0,77,46,141,123,141v77,0,124,-64,124,-141v0,-76,-47,-140,-124,-140v-76,0,-123,64,-123,140","w":575},"p":{"d":"553,-242v0,145,-80,253,-214,254v-60,0,-110,-25,-149,-74r0,246r-127,0r0,-667r127,0r0,61v38,-49,88,-73,149,-73v134,0,214,108,214,253xm190,-157v18,27,66,56,109,56v76,1,123,-62,123,-141v0,-78,-48,-141,-123,-140v-44,0,-91,26,-109,55r0,170","w":583},"q":{"d":"162,-242v0,79,47,141,122,141v44,0,91,-27,109,-56r0,-170v-18,-29,-64,-55,-109,-55v-74,-1,-122,63,-122,140xm31,-242v0,-145,78,-252,213,-253v61,0,111,24,149,73r0,-61r128,0r0,667r-128,0r0,-246v-39,49,-88,74,-149,74v-133,-1,-213,-110,-213,-254","w":583},"r":{"d":"344,-371v-59,-13,-131,17,-154,52r0,319r-127,0r0,-483r127,0r0,65v32,-38,89,-76,154,-77r0,124","w":360},"s":{"d":"447,-142v-2,101,-95,154,-210,154v-87,0,-170,-31,-216,-75r55,-92v33,32,105,67,167,67v54,0,81,-17,81,-51v0,-30,-41,-40,-74,-45v-46,-6,-100,-24,-138,-40v-42,-18,-75,-59,-74,-119v2,-95,90,-152,198,-152v74,0,139,22,194,66r-51,90v-28,-30,-86,-56,-143,-56v-38,-1,-75,14,-76,47v0,13,10,23,30,30v44,16,107,23,156,40v54,18,102,63,101,136","w":477},"t":{"d":"216,-155v0,30,15,54,44,54v21,0,35,-5,44,-15r27,97v-23,21,-59,31,-106,31v-91,0,-136,-44,-136,-133r0,-251r-80,0r0,-111r80,0r0,-132r127,0r0,132r98,0r0,111r-98,0r0,217","w":338},"u":{"d":"219,12v-101,1,-156,-54,-156,-152r0,-343r127,0r0,293v0,59,30,89,89,89v45,0,81,-18,110,-55r0,-327r127,0r0,483r-127,0r0,-61v-45,49,-101,73,-170,73","w":579},"v":{"d":"325,0r-137,0r-194,-483r136,0r126,336r127,-336r136,0","w":513},"w":{"d":"623,0r-136,0r-102,-329r-102,329r-136,0r-147,-483r132,0r90,325r106,-325r113,0r106,325r90,-325r133,0","w":770},"x":{"d":"504,0r-142,0r-110,-163r-111,163r-141,0r172,-248r-162,-235r142,0r100,148r99,-148r142,0r-161,235","w":504},"y":{"d":"47,188r18,-113v38,17,93,6,107,-27r18,-42r-196,-489r136,0r126,336r127,-336r136,0r-227,562v-31,80,-83,117,-183,117v-25,0,-46,-3,-62,-8","w":513},"z":{"d":"437,0r-395,0r0,-95r218,-277r-218,0r0,-111r391,0r0,91r-222,281r226,0r0,111","w":479},"{":{"d":"148,30v-1,40,25,75,63,75r60,0r0,85r-60,0v-86,1,-155,-68,-155,-159r0,-172v0,-36,-17,-67,-52,-67r0,-72v35,0,52,-31,52,-67r0,-171v-3,-91,70,-161,155,-160r60,0r0,85r-60,0v-38,0,-63,34,-63,74r0,185v0,47,-15,77,-46,90v31,13,46,43,46,90r0,184","w":288},"|":{"d":"151,20r-85,0r0,-707r85,0r0,707","w":216},"}":{"d":"233,31v3,90,-70,160,-155,159r-61,0r0,-85r61,0v37,0,63,-35,63,-75r0,-184v0,-47,15,-77,46,-90v-31,-13,-46,-43,-46,-90r0,-185v1,-40,-26,-74,-63,-74r-61,0r0,-85r61,0v85,-1,155,71,155,160r0,171v0,36,17,67,52,67r0,72v-35,0,-52,31,-52,67r0,172","w":288},"~":{"d":"398,-667r86,10v-6,69,-15,113,-36,166v-19,46,-53,78,-112,79v-73,0,-98,-57,-115,-114v-8,-27,-18,-62,-46,-62v-32,0,-53,59,-62,176r-87,-10v6,-68,14,-114,36,-166v19,-45,54,-77,113,-78v73,0,98,57,115,114v8,27,18,63,46,63v32,0,53,-59,62,-178","w":510},"\u00a0":{"w":257},"\u00a1":{"d":"51,184r20,-449r112,0r21,449r-153,0xm127,-333v-43,0,-81,-38,-81,-81v0,-42,39,-80,81,-80v42,0,80,38,80,80v0,43,-37,81,-80,81","w":255},"\u00a2":{"d":"32,-242v0,-133,91,-232,209,-249r0,-74r92,0r0,73v63,10,112,38,146,84r-83,78v-16,-23,-37,-39,-63,-47r0,271v25,-8,46,-24,63,-48r83,78v-35,47,-83,75,-146,84r0,92r-92,0r0,-92v-118,-17,-209,-116,-209,-250xm241,-372v-46,19,-78,66,-78,130v0,64,32,112,78,131r0,-261","w":499},"\u00a3":{"d":"391,13v-52,0,-139,-45,-181,-44v-31,0,-70,13,-116,38r-48,-97v73,-35,109,-76,109,-125v0,-17,-4,-35,-12,-54r-120,0r0,-81r68,0v-31,-42,-46,-82,-46,-120v0,-120,124,-207,243,-207v113,0,191,40,232,121r-113,66v-14,-39,-53,-71,-102,-71v-66,-1,-118,48,-103,121v7,33,31,66,47,90r144,0r0,81r-112,0v8,61,-26,107,-64,130v16,-5,32,-8,49,-8v35,0,98,33,130,33v40,0,69,-12,86,-36r57,113v-33,33,-83,50,-148,50","w":550},"\u00a4":{"d":"486,-137r-29,29r-56,-57v-76,68,-204,68,-280,0r-57,57r-28,-29r56,-56v-67,-81,-67,-201,0,-280r-56,-57r28,-28r57,56v76,-67,203,-67,280,0r56,-56r29,28r-56,57v67,79,67,200,0,280xm261,-162v92,0,171,-79,171,-171v0,-92,-79,-171,-171,-171v-92,0,-171,79,-171,171v0,92,79,171,171,171","w":522},"\u00a5":{"d":"394,0r-142,0r0,-115r-228,0r0,-78r228,0r0,-80r-228,0r0,-79r176,0r-204,-315r162,0r165,267r165,-267r161,0r-204,315r178,0r0,79r-229,0r0,80r229,0r0,78r-229,0r0,115","w":645},"\u00a6":{"d":"151,20r-85,0r0,-316r85,0r0,316xm151,-371r-85,0r0,-316r85,0r0,316","w":216},"\u00a7":{"d":"241,-588v-44,0,-81,15,-81,53v0,33,41,45,74,51v97,21,213,39,213,158v0,57,-28,100,-84,128v56,25,84,65,84,122v0,105,-98,157,-210,157v-85,0,-156,-26,-214,-79r53,-80v35,35,95,70,161,70v47,0,87,-15,87,-57v0,-43,-58,-54,-101,-64v-89,-20,-185,-46,-185,-153v-1,-63,49,-108,97,-124v-65,-25,-97,-67,-97,-127v1,-91,95,-144,197,-144v84,0,149,23,194,68r-50,75v-36,-36,-82,-54,-138,-54xm321,-302v0,-35,-28,-59,-83,-72v-52,12,-78,36,-78,73v-1,31,29,51,52,59v13,4,30,9,51,14v39,-17,58,-41,58,-74","w":484},"\u00a8":{"d":"253,-679v38,0,68,30,68,68v0,38,-30,68,-68,68v-36,0,-68,-32,-68,-68v0,-36,32,-68,68,-68xm42,-679v37,0,68,31,68,68v0,37,-31,68,-68,68v-37,0,-68,-31,-68,-68v0,-37,31,-68,68,-68","w":295},"\u00a9":{"d":"389,-679v186,0,345,160,345,345v0,186,-160,345,-345,345v-185,0,-345,-161,-345,-345v0,-186,160,-345,345,-345xm389,-25v165,0,309,-145,309,-309v0,-166,-144,-309,-309,-309v-165,0,-309,145,-309,309v0,165,145,309,309,309xm232,-335v0,92,73,174,162,172v49,0,89,-20,118,-59r31,31v-39,45,-88,68,-149,68v-115,0,-208,-95,-208,-212v0,-116,94,-210,208,-210v61,0,111,22,148,66r-31,31v-28,-38,-67,-57,-117,-57v-90,-1,-162,76,-162,170","w":778},"\u00aa":{"d":"47,-598v83,-78,288,-75,288,75r0,197r-92,0r0,-32v-24,27,-58,40,-102,40v-59,0,-110,-41,-110,-104v0,-63,51,-101,110,-101v45,0,79,12,102,37r0,-39v0,-35,-31,-55,-69,-54v-35,0,-66,14,-92,41xm122,-422v-1,58,99,57,121,18r0,-36v-24,-38,-120,-39,-121,18","w":385},"\u00ab":{"d":"497,-63r-117,0r-160,-180r160,-177r117,0r-160,177xm308,-63r-118,0r-160,-180r160,-177r118,0r-160,177","w":527},"\u00ac":{"d":"475,-468r0,267r-81,0r0,-188r-365,0r0,-79r446,0","w":515},"\u00ad":{"d":"270,-188r-240,0r0,-108r240,0r0,108","w":300},"\u00ae":{"d":"247,-677v116,0,212,96,212,212v0,114,-98,212,-212,212v-114,0,-212,-98,-212,-212v0,-114,98,-212,212,-212xm247,-285v97,0,180,-84,180,-180v0,-98,-82,-180,-180,-180v-98,0,-180,82,-180,180v0,96,83,180,180,180xm344,-512v0,39,-34,70,-62,72r65,97r-42,0r-63,-96r-42,0r0,96r-34,0r0,-243r99,0v42,-1,79,31,79,74xm265,-470v22,0,44,-19,44,-42v0,-24,-21,-44,-44,-44r-65,0r0,86r65,0","w":494},"\u00af":{"d":"363,-591r-363,0r0,-73r363,0r0,73","w":363},"\u203e":{"d":"363,-591r-363,0r0,-73r363,0r0,73","w":363},"\u00b0":{"d":"155,-677v73,0,136,63,136,136v0,72,-64,134,-136,134v-73,0,-135,-61,-135,-134v0,-73,62,-136,135,-136xm155,-476v35,0,67,-30,67,-65v0,-36,-32,-67,-67,-67v-35,0,-65,31,-65,67v0,35,30,65,65,65","w":311},"\u00b1":{"d":"475,-326r-179,0r0,203r-87,0r0,-203r-180,0r0,-79r180,0r0,-196r87,0r0,196r179,0r0,79xm475,0r-446,0r0,-79r446,0r0,79","w":504},"\u00b2":{"d":"196,-827v87,-1,161,42,161,124v0,32,-14,64,-41,95v-27,31,-70,67,-131,110r176,0r0,77r-315,0r0,-70v87,-61,146,-105,174,-131v28,-26,42,-51,42,-73v0,-37,-30,-55,-68,-55v-43,-1,-90,24,-109,49r-50,-60v39,-44,93,-66,161,-66","w":398},"\u00b3":{"d":"267,-627v47,4,98,41,96,95v-2,77,-79,118,-166,118v-74,0,-129,-21,-165,-63r48,-63v30,33,68,49,114,49v40,0,73,-13,73,-47v0,-33,-29,-49,-88,-49v-25,0,-40,0,-44,1r0,-76v5,1,20,1,43,1v55,0,83,-15,83,-45v-1,-33,-36,-44,-73,-44v-42,0,-77,14,-106,43r-45,-56v39,-43,93,-64,161,-64v87,-1,156,33,158,109v1,49,-44,85,-89,91","w":398},"\u00b4":{"d":"251,-700r-162,144r-89,0r134,-144r117,0","w":251},"\u00b5":{"d":"190,184r-127,0r0,-667r127,0r0,298v1,57,30,85,89,85v44,0,81,-19,110,-56r0,-327r127,0r0,483r-127,0r0,-61v-52,54,-113,80,-199,71r0,174","w":579},"\u03bc":{"d":"190,184r-127,0r0,-667r127,0r0,298v1,57,30,85,89,85v44,0,81,-19,110,-56r0,-327r127,0r0,483r-127,0r0,-61v-52,54,-113,80,-199,71r0,174","w":579},"\u00b6":{"d":"27,-495v0,-92,80,-172,172,-172r204,0r0,767r-63,0r0,-705r-78,0r0,705r-63,0r0,-423v-92,3,-172,-80,-172,-172","w":449},"\u00b7":{"d":"128,-325v43,0,81,38,81,81v0,42,-39,80,-81,80v-42,0,-80,-38,-80,-80v0,-43,37,-81,80,-81","w":257},"\u2219":{"d":"128,-325v43,0,81,38,81,81v0,42,-39,80,-81,80v-42,0,-80,-38,-80,-80v0,-43,37,-81,80,-81","w":257},"\u00b8":{"d":"221,111v0,55,-54,85,-111,84v-48,0,-85,-10,-110,-31r25,-51v25,19,53,29,82,29v25,0,50,-10,51,-33v1,-32,-45,-32,-61,-12r-46,-26r30,-82r63,0r-25,62v44,-28,102,7,102,60","w":221},"\u00b9":{"d":"226,-421r-97,0r0,-277r-67,69r-55,-58r136,-134r83,0r0,400","w":286},"\u00ba":{"d":"375,-483v0,94,-75,165,-173,165v-98,0,-172,-72,-172,-165v0,-93,75,-165,172,-165v99,0,173,71,173,165xm125,-483v0,53,27,91,77,91v51,0,79,-38,79,-91v0,-52,-28,-89,-79,-89v-50,0,-77,37,-77,89","w":405},"\u00bb":{"d":"308,-243r-160,180r-118,0r160,-180r-160,-177r118,0xm497,-243r-160,180r-117,0r160,-180r-160,-177r117,0","w":527},"\u00bc":{"d":"641,-667r-427,667r-76,0r426,-667r77,0xm809,-86r-52,0r0,86r-96,0r0,-86r-196,0r0,-65r158,-249r134,0r0,239r52,0r0,75xm661,-161r0,-158r-101,158r101,0xm226,-267r-97,0r0,-277r-67,69r-55,-58r136,-134r83,0r0,400","w":833},"\u00bd":{"d":"641,-667r-427,667r-76,0r426,-667r77,0xm665,-406v87,-1,161,42,161,124v0,32,-13,63,-40,94v-27,31,-71,68,-132,111r176,0r0,77r-315,0r0,-70v87,-61,145,-106,173,-132v28,-26,43,-50,43,-72v0,-37,-30,-55,-68,-55v-43,-1,-90,24,-109,49r-50,-60v39,-44,93,-66,161,-66xm226,-267r-97,0r0,-277r-67,69r-55,-58r136,-134r83,0r0,400","w":867},"\u00be":{"d":"729,-667r-427,667r-76,0r426,-667r77,0xm896,-86r-52,0r0,86r-96,0r0,-86r-196,0r0,-65r158,-249r134,0r0,239r52,0r0,75xm748,-161r0,-158r-101,158r101,0xm267,-473v47,4,98,41,96,95v-2,77,-79,118,-166,118v-74,0,-129,-21,-165,-63r48,-63v30,33,68,49,114,49v40,0,73,-13,73,-47v0,-33,-29,-49,-88,-49v-25,0,-40,0,-44,1r0,-76v5,1,20,1,43,1v55,0,83,-15,83,-45v-1,-33,-36,-44,-73,-44v-42,0,-77,14,-106,43r-45,-56v39,-43,93,-64,161,-64v87,-1,156,33,158,109v1,49,-44,85,-89,91","w":921},"\u00bf":{"d":"228,195v-115,0,-208,-54,-208,-158v0,-85,57,-126,108,-161v27,-18,57,-42,59,-80v0,-17,-6,-31,-19,-42r110,-32v39,40,44,112,10,160v-29,41,-68,53,-101,86v-15,15,-23,29,-23,44v1,38,34,57,79,57v48,0,89,-21,123,-62r81,91v-55,65,-128,97,-219,97xm149,-413v0,-43,38,-81,81,-81v43,0,81,38,81,81v0,43,-38,81,-81,81v-43,0,-81,-38,-81,-81","w":398},"\u00c0":{"d":"425,-728r-89,0r-162,-144r117,0xm688,0r-161,0r-42,-113r-286,0r-42,113r-161,0r257,-667r178,0xm446,-238r-104,-287r-104,287r208,0"},"\u00c1":{"d":"512,-872r-162,144r-89,0r134,-144r117,0xm688,0r-161,0r-42,-113r-286,0r-42,113r-161,0r257,-667r178,0xm446,-238r-104,-287r-104,287r208,0"},"\u00c2":{"d":"494,-728r-78,0r-73,-89r-71,89r-78,0r92,-144r114,0xm688,0r-161,0r-42,-113r-286,0r-42,113r-161,0r257,-667r178,0xm446,-238r-104,-287r-104,287r208,0"},"\u00c3":{"d":"506,-860v1,79,-33,133,-107,134v-40,1,-68,-30,-87,-51v-32,-34,-69,-16,-66,45r-67,0v-1,-79,34,-133,108,-134v40,-1,65,30,85,50v32,33,70,16,67,-44r67,0xm688,0r-161,0r-42,-113r-286,0r-42,113r-161,0r257,-667r178,0xm446,-238r-104,-287r-104,287r208,0"},"\u00c4":{"d":"448,-852v36,0,68,32,68,68v0,36,-32,68,-68,68v-36,0,-68,-32,-68,-68v0,-36,32,-68,68,-68xm237,-852v37,0,68,31,68,68v0,37,-31,68,-68,68v-37,0,-68,-31,-68,-68v0,-37,31,-68,68,-68xm688,0r-161,0r-42,-113r-286,0r-42,113r-161,0r257,-667r178,0xm446,-238r-104,-287r-104,287r208,0"},"\u00c5":{"d":"447,-798v0,56,-48,105,-104,105v-56,0,-105,-49,-105,-105v0,-56,49,-105,105,-105v56,0,104,48,104,105xm296,-798v0,25,22,47,47,47v25,0,46,-21,46,-47v0,-26,-21,-47,-46,-47v-25,0,-47,22,-47,47xm688,0r-161,0r-42,-113r-286,0r-42,113r-161,0r257,-667r178,0xm446,-238r-104,-287r-104,287r208,0"},"\u00c6":{"d":"926,0r-472,0r0,-113r-234,0r-66,113r-163,0r406,-667r529,0r0,125r-329,0r0,140r322,0r0,125r-322,0r0,152r329,0r0,125xm454,-238r0,-287r-167,287r167,0","w":968},"\u00c7":{"d":"495,107v0,55,-54,85,-111,84v-48,0,-85,-10,-110,-31r25,-51v25,19,53,29,82,29v25,0,50,-10,51,-33v1,-32,-45,-32,-61,-12r-46,-26r21,-58v-174,-15,-312,-154,-312,-342v0,-201,156,-345,356,-345v125,0,217,54,278,163r-122,60v-25,-50,-85,-96,-156,-97v-121,-2,-210,97,-210,219v0,122,89,220,210,219v71,-1,131,-47,156,-97r122,59v-58,103,-145,158,-261,163r-14,36v44,-28,102,7,102,60","w":687},"\u00c8":{"d":"385,-728r-89,0r-162,-144r117,0xm538,0r-472,0r0,-667r472,0r0,125r-330,0r0,140r323,0r0,125r-323,0r0,152r330,0r0,125","w":583},"\u00c9":{"d":"471,-872r-162,144r-89,0r134,-144r117,0xm538,0r-472,0r0,-667r472,0r0,125r-330,0r0,140r323,0r0,125r-323,0r0,152r330,0r0,125","w":583},"\u00ca":{"d":"452,-728r-78,0r-73,-89r-71,89r-78,0r92,-144r114,0xm538,0r-472,0r0,-667r472,0r0,125r-330,0r0,140r323,0r0,125r-323,0r0,152r330,0r0,125","w":583},"\u00cb":{"d":"409,-852v37,0,68,31,68,68v0,37,-31,68,-68,68v-36,0,-68,-32,-68,-68v0,-36,32,-68,68,-68xm198,-852v36,0,68,32,68,68v0,36,-32,68,-68,68v-36,0,-68,-32,-68,-68v0,-36,32,-68,68,-68xm538,0r-472,0r0,-667r472,0r0,125r-330,0r0,140r323,0r0,125r-323,0r0,152r330,0r0,125","w":583},"\u00cc":{"d":"219,-728r-89,0r-162,-144r117,0xm208,0r-142,0r0,-667r142,0r0,667","w":274},"\u00cd":{"d":"309,-872r-162,144r-89,0r134,-144r117,0xm208,0r-142,0r0,-667r142,0r0,667","w":274},"\u00ce":{"d":"287,-728r-78,0r-73,-89r-71,89r-78,0r92,-144r114,0xm208,0r-142,0r0,-667r142,0r0,667","w":274},"\u00cf":{"d":"243,-852v37,0,68,31,68,68v0,37,-31,68,-68,68v-36,0,-68,-32,-68,-68v0,-36,32,-68,68,-68xm32,-852v36,0,68,32,68,68v0,36,-32,68,-68,68v-36,0,-68,-32,-68,-68v0,-36,32,-68,68,-68xm208,0r-142,0r0,-667r142,0r0,667","w":274},"\u00d0":{"d":"708,-334v0,201,-150,334,-353,334r-264,0r0,-277r-82,0r0,-106r82,0r0,-284r263,0v202,-4,354,134,354,333xm563,-334v0,-123,-81,-211,-208,-208r-122,0r0,159r150,0r0,106r-150,0r0,152r121,0v123,3,209,-90,209,-209","w":742},"\u00d1":{"d":"527,-860v1,79,-33,133,-107,134v-40,1,-67,-30,-86,-51v-32,-34,-70,-16,-67,45r-67,0v-1,-79,34,-133,108,-134v40,-1,66,30,86,50v32,33,69,16,66,-44r67,0xm663,0r-137,0r-318,-435r0,435r-142,0r0,-667r146,0r309,419r0,-419r142,0r0,667","w":729},"\u00d2":{"d":"468,-728r-89,0r-162,-144r117,0xm731,-333v0,197,-151,345,-348,345v-198,0,-349,-147,-349,-345v0,-198,151,-345,349,-345v197,0,348,149,348,345xm180,-333v0,122,82,219,203,219v121,0,202,-97,202,-219v0,-122,-81,-219,-202,-219v-122,0,-203,96,-203,219","w":765},"\u00d3":{"d":"553,-872r-162,144r-89,0r134,-144r117,0xm731,-333v0,197,-151,345,-348,345v-198,0,-349,-147,-349,-345v0,-198,151,-345,349,-345v197,0,348,149,348,345xm180,-333v0,122,82,219,203,219v121,0,202,-97,202,-219v0,-122,-81,-219,-202,-219v-122,0,-203,96,-203,219","w":765},"\u00d4":{"d":"535,-728r-78,0r-73,-89r-71,89r-78,0r92,-144r114,0xm731,-333v0,197,-151,345,-348,345v-198,0,-349,-147,-349,-345v0,-198,151,-345,349,-345v197,0,348,149,348,345xm180,-333v0,122,82,219,203,219v121,0,202,-97,202,-219v0,-122,-81,-219,-202,-219v-122,0,-203,96,-203,219","w":765},"\u00d5":{"d":"547,-860v1,79,-33,133,-107,134v-40,1,-67,-30,-86,-51v-32,-34,-70,-16,-67,45r-67,0v-1,-79,34,-133,108,-134v40,-1,66,30,86,50v32,33,69,16,66,-44r67,0xm731,-333v0,197,-151,345,-348,345v-198,0,-349,-147,-349,-345v0,-198,151,-345,349,-345v197,0,348,149,348,345xm180,-333v0,122,82,219,203,219v121,0,202,-97,202,-219v0,-122,-81,-219,-202,-219v-122,0,-203,96,-203,219","w":765},"\u00d6":{"d":"489,-852v37,0,68,31,68,68v0,37,-31,68,-68,68v-36,0,-68,-32,-68,-68v0,-36,32,-68,68,-68xm278,-852v36,0,68,32,68,68v0,36,-32,68,-68,68v-36,0,-68,-32,-68,-68v0,-36,32,-68,68,-68xm731,-333v0,197,-151,345,-348,345v-198,0,-349,-147,-349,-345v0,-198,151,-345,349,-345v197,0,348,149,348,345xm180,-333v0,122,82,219,203,219v121,0,202,-97,202,-219v0,-122,-81,-219,-202,-219v-122,0,-203,96,-203,219","w":765},"\u00d7":{"d":"394,-137r-142,-142r-140,142r-57,-56r142,-141r-142,-141r57,-56r140,142r142,-142r55,56r-141,141r141,141","w":504},"\u00d8":{"d":"731,-333v0,197,-151,345,-348,345v-70,0,-132,-16,-185,-47r-26,35r-103,0r64,-84v-66,-65,-99,-148,-99,-249v0,-198,151,-345,349,-345v62,0,119,14,172,41r23,-30r102,0r-58,76v73,66,109,152,109,258xm383,-114v121,2,204,-97,202,-219v0,-58,-16,-107,-47,-147r-259,339v31,18,65,27,104,27xm383,-552v-122,-2,-205,96,-203,219v0,54,13,99,39,136r255,-334v-28,-14,-58,-21,-91,-21","w":765},"\u00d9":{"d":"452,-728r-89,0r-162,-144r117,0xm668,-267v-1,177,-114,279,-301,279v-188,0,-300,-101,-301,-279r0,-400r144,0r0,396v0,96,59,157,157,157v98,0,156,-61,156,-157r0,-396r145,0r0,400","w":734},"\u00da":{"d":"538,-872r-162,144r-89,0r134,-144r117,0xm668,-267v-1,177,-114,279,-301,279v-188,0,-300,-101,-301,-279r0,-400r144,0r0,396v0,96,59,157,157,157v98,0,156,-61,156,-157r0,-396r145,0r0,400","w":734},"\u00db":{"d":"523,-728r-78,0r-73,-89r-71,89r-78,0r92,-144r114,0xm668,-267v-1,177,-114,279,-301,279v-188,0,-300,-101,-301,-279r0,-400r144,0r0,396v0,96,59,157,157,157v98,0,156,-61,156,-157r0,-396r145,0r0,400","w":734},"\u00dc":{"d":"475,-852v37,0,68,31,68,68v0,37,-31,68,-68,68v-36,0,-68,-32,-68,-68v0,-36,32,-68,68,-68xm264,-852v36,0,68,32,68,68v0,36,-32,68,-68,68v-36,0,-68,-32,-68,-68v0,-36,32,-68,68,-68xm668,-267v-1,177,-114,279,-301,279v-188,0,-300,-101,-301,-279r0,-400r144,0r0,396v0,96,59,157,157,157v98,0,156,-61,156,-157r0,-396r145,0r0,400","w":734},"\u00dd":{"d":"495,-872r-162,144r-89,0r134,-144r117,0xm394,0r-142,0r0,-273r-256,-394r162,0r165,267r165,-267r161,0r-255,394r0,273","w":645},"\u00de":{"d":"602,-343v1,124,-93,213,-224,213r-170,0r0,130r-142,0r0,-667r142,0r0,108r170,0v133,-4,224,90,224,216xm457,-344v0,-55,-44,-92,-99,-91r-150,0r0,180r150,0v55,1,99,-35,99,-89","w":625},"\u00df":{"d":"292,-677v118,0,249,80,192,200v-22,46,-72,63,-104,97v-20,22,-19,49,13,60v41,14,98,23,142,39v50,18,93,66,92,136v-1,100,-91,159,-201,157v-96,-1,-143,-32,-196,-79r53,-88v25,33,86,65,143,65v42,0,77,-16,79,-50v0,-14,-9,-25,-27,-33v-40,-18,-97,-26,-142,-43v-49,-19,-93,-60,-92,-128v1,-81,69,-106,110,-146v38,-37,-16,-74,-64,-74v-55,0,-100,34,-99,89r0,475r-128,0r0,-475v0,-120,100,-202,229,-202","w":643},"\u00e0":{"d":"269,-495v124,1,212,54,212,183r0,312r-128,0r0,-51v-35,42,-86,63,-153,63v-87,0,-167,-66,-167,-160v0,-100,75,-155,167,-156v69,0,120,20,153,59r0,-61v0,-53,-48,-82,-106,-81v-51,0,-98,19,-139,57r-50,-89v57,-51,127,-76,211,-76xm160,-146v0,46,43,73,91,72v47,0,81,-14,102,-42r0,-60v-21,-29,-55,-43,-102,-43v-48,-1,-91,27,-91,73xm352,-556r-89,0r-162,-144r117,0","w":543},"\u00e1":{"d":"269,-495v124,1,212,54,212,183r0,312r-128,0r0,-51v-35,42,-86,63,-153,63v-87,0,-167,-66,-167,-160v0,-100,75,-155,167,-156v69,0,120,20,153,59r0,-61v0,-53,-48,-82,-106,-81v-51,0,-98,19,-139,57r-50,-89v57,-51,127,-76,211,-76xm160,-146v0,46,43,73,91,72v47,0,81,-14,102,-42r0,-60v-21,-29,-55,-43,-102,-43v-48,-1,-91,27,-91,73xm443,-700r-162,144r-89,0r134,-144r117,0","w":543},"\u00e2":{"d":"269,-495v124,1,212,54,212,183r0,312r-128,0r0,-51v-35,42,-86,63,-153,63v-87,0,-167,-66,-167,-160v0,-100,75,-155,167,-156v69,0,120,20,153,59r0,-61v0,-53,-48,-82,-106,-81v-51,0,-98,19,-139,57r-50,-89v57,-51,127,-76,211,-76xm160,-146v0,46,43,73,91,72v47,0,81,-14,102,-42r0,-60v-21,-29,-55,-43,-102,-43v-48,-1,-91,27,-91,73xm423,-556r-78,0r-73,-89r-71,89r-78,0r92,-144r114,0","w":543},"\u00e3":{"d":"269,-495v124,1,212,54,212,183r0,312r-128,0r0,-51v-35,42,-86,63,-153,63v-87,0,-167,-66,-167,-160v0,-100,75,-155,167,-156v69,0,120,20,153,59r0,-61v0,-53,-48,-82,-106,-81v-51,0,-98,19,-139,57r-50,-89v57,-51,127,-76,211,-76xm160,-146v0,46,43,73,91,72v47,0,81,-14,102,-42r0,-60v-21,-29,-55,-43,-102,-43v-48,-1,-91,27,-91,73xm434,-688v1,79,-33,133,-107,134v-40,1,-68,-30,-87,-51v-32,-34,-69,-16,-66,45r-67,0v-1,-79,34,-133,108,-134v40,-1,65,30,85,50v32,33,70,16,67,-44r67,0","w":543},"\u00e4":{"d":"269,-495v124,1,212,54,212,183r0,312r-128,0r0,-51v-35,42,-86,63,-153,63v-87,0,-167,-66,-167,-160v0,-100,75,-155,167,-156v69,0,120,20,153,59r0,-61v0,-53,-48,-82,-106,-81v-51,0,-98,19,-139,57r-50,-89v57,-51,127,-76,211,-76xm160,-146v0,46,43,73,91,72v47,0,81,-14,102,-42r0,-60v-21,-29,-55,-43,-102,-43v-48,-1,-91,27,-91,73xm374,-679v37,0,68,31,68,68v0,37,-31,68,-68,68v-36,0,-68,-32,-68,-68v0,-36,32,-68,68,-68xm163,-679v38,0,68,30,68,68v0,38,-30,68,-68,68v-38,0,-68,-30,-68,-68v0,-38,30,-68,68,-68","w":543},"\u00e5":{"d":"269,-495v124,1,212,54,212,183r0,312r-128,0r0,-51v-35,42,-86,63,-153,63v-87,0,-167,-66,-167,-160v0,-100,75,-155,167,-156v69,0,120,20,153,59r0,-61v0,-53,-48,-82,-106,-81v-51,0,-98,19,-139,57r-50,-89v57,-51,127,-76,211,-76xm160,-146v0,46,43,73,91,72v47,0,81,-14,102,-42r0,-60v-21,-29,-55,-43,-102,-43v-48,-1,-91,27,-91,73xm375,-646v0,56,-48,105,-104,105v-56,0,-105,-49,-105,-105v0,-56,49,-105,105,-105v56,0,104,48,104,105xm224,-646v0,25,22,47,47,47v25,0,46,-21,46,-47v0,-26,-21,-47,-46,-47v-25,0,-47,22,-47,47","w":543},"\u00e6":{"d":"606,-495v152,1,247,126,235,295r-359,0v9,62,64,108,139,106v47,0,104,-22,128,-48r57,87v-49,45,-115,67,-199,67v-87,0,-159,-37,-199,-88v-50,59,-116,88,-198,88v-93,0,-177,-60,-177,-158v0,-97,74,-158,167,-158v67,0,118,19,153,58r0,-60v0,-53,-48,-82,-106,-81v-53,0,-99,19,-139,57r-50,-89v57,-51,127,-76,211,-76v83,0,137,26,164,79v41,-53,98,-79,173,-79xm719,-288v-5,-59,-49,-103,-120,-103v-68,0,-112,46,-118,103r238,0xm160,-146v0,46,43,73,91,72v53,0,91,-19,112,-56v-7,-12,-10,-27,-10,-45v-22,-29,-56,-44,-102,-44v-48,-1,-91,27,-91,73","w":870},"\u00e7":{"d":"402,109v0,55,-54,85,-111,84v-48,0,-85,-10,-110,-31r25,-51v25,19,53,29,82,29v25,0,50,-10,51,-33v1,-32,-45,-32,-61,-12r-46,-26r21,-59v-126,-12,-221,-115,-221,-252v0,-145,111,-253,256,-253v85,0,149,29,191,87r-83,78v-23,-35,-57,-52,-102,-52v-78,-1,-131,60,-131,140v0,80,53,142,131,141v43,0,77,-18,102,-53r83,78v-37,51,-91,80,-164,87r-15,38v44,-28,102,7,102,60","w":499},"\u00e8":{"d":"304,-92v48,0,104,-20,128,-47r57,84v-49,45,-115,67,-199,67v-147,0,-258,-105,-258,-254v0,-139,110,-255,250,-253v156,2,254,124,242,295r-359,0v9,63,63,110,139,108xm402,-288v-7,-58,-49,-103,-120,-103v-69,0,-112,45,-118,103r238,0xm365,-556r-89,0r-162,-144r117,0","w":553},"\u00e9":{"d":"304,-92v48,0,104,-20,128,-47r57,84v-49,45,-115,67,-199,67v-147,0,-258,-105,-258,-254v0,-139,110,-255,250,-253v156,2,254,124,242,295r-359,0v9,63,63,110,139,108xm402,-288v-7,-58,-49,-103,-120,-103v-69,0,-112,45,-118,103r238,0xm454,-700r-162,144r-89,0r134,-144r117,0","w":553},"\u00ea":{"d":"304,-92v48,0,104,-20,128,-47r57,84v-49,45,-115,67,-199,67v-147,0,-258,-105,-258,-254v0,-139,110,-255,250,-253v156,2,254,124,242,295r-359,0v9,63,63,110,139,108xm402,-288v-7,-58,-49,-103,-120,-103v-69,0,-112,45,-118,103r238,0xm434,-556r-78,0r-73,-89r-71,89r-78,0r92,-144r114,0","w":553},"\u00eb":{"d":"304,-92v48,0,104,-20,128,-47r57,84v-49,45,-115,67,-199,67v-147,0,-258,-105,-258,-254v0,-139,110,-255,250,-253v156,2,254,124,242,295r-359,0v9,63,63,110,139,108xm402,-288v-7,-58,-49,-103,-120,-103v-69,0,-112,45,-118,103r238,0xm389,-679v38,0,68,30,68,68v0,38,-30,68,-68,68v-36,0,-68,-32,-68,-68v0,-36,32,-68,68,-68xm178,-679v37,0,68,31,68,68v0,37,-31,68,-68,68v-37,0,-68,-31,-68,-68v0,-37,31,-68,68,-68","w":553},"\u00ec":{"d":"208,-556r-89,0r-162,-144r117,0xm190,0r-127,0r0,-483r127,0r0,483","w":253},"\u00ed":{"d":"296,-700r-162,144r-89,0r134,-144r117,0xm190,0r-127,0r0,-483r127,0r0,483","w":253},"\u00ee":{"d":"277,-556r-78,0r-73,-89r-71,89r-78,0r92,-144r114,0xm190,0r-127,0r0,-483r127,0r0,483","w":253},"\u00ef":{"d":"232,-679v37,0,68,31,68,68v0,37,-31,68,-68,68v-36,0,-68,-32,-68,-68v0,-36,32,-68,68,-68xm21,-679v38,0,68,30,68,68v0,38,-30,68,-68,68v-38,0,-68,-30,-68,-68v0,-38,30,-68,68,-68xm190,0r-127,0r0,-483r127,0r0,483","w":253},"\u00f0":{"d":"32,-224v0,-130,89,-238,214,-236v67,0,121,31,160,92v-24,-53,-76,-108,-157,-166r-146,65r-25,-60r108,-47r-62,-38r69,-102v47,29,88,56,123,83r103,-45r26,57r-74,33v115,102,172,214,172,336v0,156,-100,264,-256,264v-145,0,-255,-95,-255,-236xm164,-224v0,70,50,123,123,123v74,0,124,-52,124,-123v0,-71,-50,-124,-124,-124v-73,0,-124,53,-123,124","w":575},"\u00f1":{"d":"366,-495v101,0,158,56,158,154r0,341r-128,0r0,-292v0,-60,-30,-90,-89,-90v-44,0,-81,19,-110,56r0,326r-127,0r0,-483r127,0r0,62v33,-39,96,-74,169,-74xm454,-688v1,79,-33,133,-107,134v-40,1,-68,-30,-87,-51v-32,-34,-69,-16,-66,45r-67,0v-1,-79,34,-133,108,-134v40,-1,65,30,85,50v32,33,70,16,67,-44r67,0","w":579},"\u00f2":{"d":"543,-242v0,143,-107,254,-256,254v-149,0,-255,-111,-255,-254v0,-143,106,-253,255,-253v149,0,256,110,256,253xm164,-242v0,77,46,141,123,141v77,0,124,-64,124,-141v0,-76,-47,-140,-124,-140v-76,0,-123,64,-123,140xm370,-556r-89,0r-162,-144r117,0","w":575},"\u00f3":{"d":"543,-242v0,143,-107,254,-256,254v-149,0,-255,-111,-255,-254v0,-143,106,-253,255,-253v149,0,256,110,256,253xm164,-242v0,77,46,141,123,141v77,0,124,-64,124,-141v0,-76,-47,-140,-124,-140v-76,0,-123,64,-123,140xm457,-700r-162,144r-89,0r134,-144r117,0","w":575},"\u00f4":{"d":"543,-242v0,143,-107,254,-256,254v-149,0,-255,-111,-255,-254v0,-143,106,-253,255,-253v149,0,256,110,256,253xm164,-242v0,77,46,141,123,141v77,0,124,-64,124,-141v0,-76,-47,-140,-124,-140v-76,0,-123,64,-123,140xm438,-556r-78,0r-73,-89r-71,89r-78,0r92,-144r114,0","w":575},"\u00f5":{"d":"543,-242v0,143,-107,254,-256,254v-149,0,-255,-111,-255,-254v0,-143,106,-253,255,-253v149,0,256,110,256,253xm164,-242v0,77,46,141,123,141v77,0,124,-64,124,-141v0,-76,-47,-140,-124,-140v-76,0,-123,64,-123,140xm451,-688v1,79,-33,133,-107,134v-40,1,-67,-30,-86,-51v-32,-34,-70,-16,-67,45r-67,0v-1,-79,34,-133,108,-134v40,-1,66,30,86,50v32,33,69,16,66,-44r67,0","w":575},"\u00f6":{"d":"543,-242v0,143,-107,254,-256,254v-149,0,-255,-111,-255,-254v0,-143,106,-253,255,-253v149,0,256,110,256,253xm164,-242v0,77,46,141,123,141v77,0,124,-64,124,-141v0,-76,-47,-140,-124,-140v-76,0,-123,64,-123,140xm393,-679v38,0,68,30,68,68v0,38,-30,68,-68,68v-36,0,-68,-32,-68,-68v0,-36,32,-68,68,-68xm182,-679v37,0,68,31,68,68v0,37,-31,68,-68,68v-37,0,-68,-31,-68,-68v0,-37,31,-68,68,-68","w":575},"\u00f7":{"d":"255,-576v32,0,61,28,61,60v0,33,-28,62,-61,62v-32,0,-61,-30,-61,-62v0,-32,29,-60,61,-60xm482,-298r-453,0r0,-79r453,0r0,79xm255,-218v32,0,61,29,61,61v0,32,-29,61,-61,61v-32,0,-61,-29,-61,-61v0,-32,29,-61,61,-61","w":511},"\u00f8":{"d":"543,-242v1,143,-107,254,-256,254v-55,0,-103,-13,-144,-40r-24,28r-79,0r57,-67v-43,-47,-65,-106,-65,-175v-1,-143,106,-253,255,-253v54,0,101,13,141,38r22,-26r80,0r-55,64v45,47,68,106,68,177xm287,-101v107,0,153,-129,105,-220r-171,201v19,13,41,19,66,19xm287,-382v-104,0,-151,125,-106,216r169,-199v-19,-11,-40,-17,-63,-17","w":575},"\u00f9":{"d":"219,12v-101,1,-156,-54,-156,-152r0,-343r127,0r0,293v0,59,30,89,89,89v45,0,81,-18,110,-55r0,-327r127,0r0,483r-127,0r0,-61v-45,49,-101,73,-170,73xm373,-556r-89,0r-162,-144r117,0","w":579},"\u00fa":{"d":"219,12v-101,1,-156,-54,-156,-152r0,-343r127,0r0,293v0,59,30,89,89,89v45,0,81,-18,110,-55r0,-327r127,0r0,483r-127,0r0,-61v-45,49,-101,73,-170,73xm460,-700r-162,144r-89,0r134,-144r117,0","w":579},"\u00fb":{"d":"219,12v-101,1,-156,-54,-156,-152r0,-343r127,0r0,293v0,59,30,89,89,89v45,0,81,-18,110,-55r0,-327r127,0r0,483r-127,0r0,-61v-45,49,-101,73,-170,73xm441,-556r-78,0r-73,-89r-71,89r-78,0r92,-144r114,0","w":579},"\u00fc":{"d":"219,12v-101,1,-156,-54,-156,-152r0,-343r127,0r0,293v0,59,30,89,89,89v45,0,81,-18,110,-55r0,-327r127,0r0,483r-127,0r0,-61v-45,49,-101,73,-170,73xm398,-679v37,0,68,31,68,68v0,37,-31,68,-68,68v-36,0,-68,-32,-68,-68v0,-36,32,-68,68,-68xm187,-679v38,0,68,30,68,68v0,38,-30,68,-68,68v-38,0,-68,-30,-68,-68v0,-38,30,-68,68,-68","w":579},"\u00fd":{"d":"47,188r18,-113v38,17,93,6,107,-27r18,-42r-196,-489r136,0r126,336r127,-336r136,0r-227,562v-31,80,-83,117,-183,117v-25,0,-46,-3,-62,-8xm426,-700r-162,144r-89,0r134,-144r117,0","w":513},"\u00fe":{"d":"553,-242v0,145,-80,253,-214,254v-60,0,-110,-25,-149,-74r0,246r-127,0r0,-851r127,0r0,245v38,-49,88,-73,149,-73v134,0,214,108,214,253xm190,-157v18,27,66,56,109,56v76,1,123,-62,123,-141v0,-78,-48,-141,-123,-140v-44,0,-91,26,-109,55r0,170","w":583},"\u00ff":{"d":"47,188r18,-113v38,17,93,6,107,-27r18,-42r-196,-489r136,0r126,336r127,-336r136,0r-227,562v-31,80,-83,117,-183,117v-25,0,-46,-3,-62,-8xm362,-679v37,0,68,31,68,68v0,37,-31,68,-68,68v-36,0,-68,-32,-68,-68v0,-36,32,-68,68,-68xm151,-679v38,0,68,30,68,68v0,38,-30,68,-68,68v-38,0,-68,-30,-68,-68v0,-38,30,-68,68,-68","w":513},"\u0152":{"d":"368,-677v84,0,164,37,202,88r0,-78r471,0r0,125r-329,0r0,140r322,0r0,125r-322,0r0,152r329,0r0,125r-471,0r0,-78v-38,52,-118,89,-202,90v-193,3,-334,-150,-334,-345v0,-195,141,-347,334,-344xm388,-114v89,-1,153,-50,182,-116r0,-207v-28,-67,-92,-113,-182,-114v-126,-2,-208,93,-208,218v0,124,83,221,208,219","w":1084},"\u0153":{"d":"661,-495v156,1,254,124,242,295r-359,0v9,63,63,110,138,108v48,0,103,-22,129,-47r57,84v-50,45,-116,67,-199,67v-80,0,-145,-36,-194,-107v-49,71,-112,107,-188,107v-149,0,-255,-111,-255,-254v0,-143,106,-253,255,-253v74,0,137,36,189,107v47,-71,108,-107,185,-107xm780,-288v-5,-59,-48,-103,-119,-103v-69,0,-113,46,-119,103r238,0xm287,-100v77,0,124,-63,124,-142v0,-79,-48,-140,-124,-140v-75,0,-123,62,-123,140v0,79,47,142,123,142","w":931},"\u0178":{"d":"430,-852v36,0,68,32,68,68v0,36,-32,68,-68,68v-36,0,-68,-32,-68,-68v0,-36,32,-68,68,-68xm219,-852v37,0,68,31,68,68v0,37,-31,68,-68,68v-37,0,-68,-31,-68,-68v0,-37,31,-68,68,-68xm394,0r-142,0r0,-273r-256,-394r162,0r165,267r165,-267r161,0r-255,394r0,273","w":645},"\u02c6":{"d":"300,-556r-78,0r-73,-89r-71,89r-78,0r92,-144r114,0","w":300},"\u02dc":{"d":"327,-688v1,79,-33,133,-107,134v-40,1,-67,-30,-86,-51v-32,-34,-70,-16,-67,45r-67,0v-1,-79,34,-133,108,-134v40,-1,66,30,86,50v32,33,69,16,66,-44r67,0","w":327},"\u2013":{"d":"563,-188r-533,0r0,-108r533,0r0,108","w":593},"\u2014":{"d":"803,-188r-773,0r0,-108r773,0r0,108","w":833},"\u2018":{"d":"128,-390v-52,-1,-90,-45,-89,-102v2,-84,48,-147,103,-186r55,45v-31,15,-69,60,-78,95v46,-14,88,22,88,69v0,41,-38,80,-79,79","w":255},"\u2019":{"d":"126,-677v52,1,90,45,89,102v-2,84,-48,147,-103,186r-55,-45v30,-15,69,-60,77,-95v-45,14,-87,-22,-87,-69v0,-41,38,-80,79,-79","w":255},"\u201a":{"d":"126,-151v52,0,90,45,89,102v-2,84,-48,147,-103,186r-55,-45v30,-15,69,-58,77,-94v-48,14,-87,-23,-87,-69v0,-42,37,-81,79,-80","w":255},"\u201c":{"d":"129,-390v-52,-1,-90,-45,-89,-102v2,-84,48,-147,103,-186r55,45v-31,15,-69,60,-78,95v47,-14,88,22,88,69v0,41,-38,80,-79,79xm333,-390v-52,-1,-90,-45,-89,-102v2,-84,48,-147,103,-186r55,45v-30,15,-70,60,-78,95v46,-14,87,22,87,69v0,41,-37,80,-78,79","w":459},"\u201d":{"d":"329,-677v52,1,90,45,89,102v-2,84,-48,147,-103,186r-55,-45v30,-15,70,-60,78,-95v-46,14,-87,-22,-87,-69v0,-41,37,-80,78,-79xm126,-677v52,1,90,45,89,102v-2,84,-48,147,-103,186r-55,-45v30,-15,69,-60,77,-95v-45,14,-87,-22,-87,-69v0,-41,38,-80,79,-79","w":459},"\u201e":{"d":"126,-151v52,0,90,45,89,102v-2,84,-48,147,-103,186r-55,-45v30,-15,69,-58,77,-94v-48,14,-87,-23,-87,-69v0,-42,37,-81,79,-80xm329,-151v52,0,90,45,89,102v-2,84,-48,147,-103,186r-55,-45v30,-14,70,-60,78,-94v-48,14,-87,-23,-87,-69v0,-42,36,-81,78,-80","w":459},"\u2022":{"d":"180,-361v65,0,119,54,119,119v0,64,-56,118,-119,118v-64,0,-119,-54,-119,-118v0,-65,54,-119,119,-119","w":358},"\u2026":{"d":"128,-151v43,0,81,38,81,81v0,42,-39,80,-81,80v-42,0,-80,-38,-80,-80v0,-43,37,-81,80,-81xm384,-151v43,0,81,38,81,81v0,42,-39,80,-81,80v-42,0,-80,-38,-80,-80v0,-43,37,-81,80,-81xm640,-151v43,0,81,38,81,81v0,42,-39,80,-81,80v-42,0,-80,-38,-80,-80v0,-43,37,-81,80,-81","w":768},"\u2039":{"d":"308,-63r-118,0r-160,-180r160,-177r118,0r-160,177","w":338},"\u203a":{"d":"308,-243r-160,180r-118,0r160,-180r-160,-177r118,0","w":338},"\u20ac":{"d":"413,-114v71,0,131,-47,156,-97r122,59v-62,109,-155,164,-278,164v-170,1,-303,-100,-341,-237r-51,0r0,-79r37,0v-1,-11,-1,-50,0,-61r-37,0r0,-79r52,0v40,-134,171,-234,340,-234v125,0,217,54,278,163r-122,60v-25,-50,-85,-97,-156,-97v-88,0,-152,47,-184,108r244,0r0,79r-268,0v-3,11,-2,49,-1,61r269,0r0,79r-245,0v31,64,96,110,185,111","w":709},"\u2122":{"d":"419,-447r-28,0r0,-182r-75,182r-8,0r-75,-182r0,182r-28,0r0,-220r43,0r64,160r64,-160r43,0r0,220xm169,-641r-62,0r0,194r-28,0r0,-194r-62,0r0,-26r152,0r0,26","w":454}}});
