/*!
 * The following copyright notice may not be removed under any circumstances.
 * 
 * Copyright:
 * Copyright (c) Mark Simonson, 2005. All rights reserved.
 * 
 * Description:
 * This is a protected webfont and is intended for CSS @font-face use ONLY.
 * Reverse engineering this font is strictly prohibited.
 */
Cufon.registerFont({"w":572,"face":{"font-family":"","font-weight":400,"font-stretch":"normal","units-per-em":"1000","panose-1":"2 0 5 6 3 0 0 2 0 4","ascent":"790","descent":"-210","x-height":"12","bbox":"-98 -890 1051 199","underline-thickness":"20","underline-position":"-113","unicode-range":"U+0020-U+2122"},"glyphs":{" ":{"w":259},"!":{"d":"146,-187r-62,0r-16,-480r94,0xm170,-45v0,28,-27,55,-55,55v-28,0,-55,-27,-55,-55v0,-30,25,-55,55,-55v30,0,55,25,55,55","w":230},"\"":{"d":"54,-631v-2,-39,51,-63,78,-33v9,9,15,20,13,33r-27,219r-37,0v-18,-137,-27,-210,-27,-219xm199,-631v-2,-39,52,-63,78,-33v9,9,15,20,13,33r-27,219r-37,0v-18,-137,-27,-210,-27,-219","w":344},"#":{"d":"300,0r-61,0r61,-181r-111,0r-60,181r-62,0r61,-181r-106,0r17,-53r107,0r66,-199r-108,0r16,-52r110,0r60,-182r62,0r-60,182r110,0r60,-182r61,0r-61,182r107,0r-15,52r-109,0r-67,199r111,0r-16,53r-113,0xm317,-234r67,-199r-110,0r-67,199r110,0","w":591},"$":{"d":"545,-184v0,116,-87,190,-213,195r0,89r-61,0r0,-89v-95,-6,-171,-41,-228,-105r50,-64v46,55,105,86,178,94r0,-243v-64,-18,-91,-26,-140,-56v-42,-26,-66,-65,-67,-129v0,-109,98,-179,207,-185r0,-91r61,0r0,92v79,7,145,37,198,92r-50,61v-39,-43,-88,-68,-148,-77r0,218v108,32,213,64,213,198xm332,-63v75,-6,127,-47,127,-115v0,-74,-61,-91,-127,-113r0,228xm271,-602v-64,3,-120,42,-121,105v0,25,10,45,31,60v21,15,51,28,90,39r0,-204","w":593},"%":{"d":"353,-511v0,92,-68,163,-161,163v-93,0,-161,-71,-161,-163v0,-94,68,-166,161,-166v93,0,161,72,161,166xm183,0r-55,0r426,-667r56,0xm700,-152v0,93,-67,164,-160,164v-93,0,-161,-72,-161,-164v0,-93,68,-165,161,-165v92,0,160,73,160,165xm91,-511v0,61,42,112,101,112v59,0,101,-51,101,-112v0,-63,-40,-115,-101,-115v-60,0,-101,52,-101,115xm438,-152v0,62,41,113,102,113v61,0,101,-51,101,-113v0,-62,-40,-114,-101,-114v-61,0,-102,52,-102,114","w":732},"&":{"d":"301,-677v84,0,150,48,150,131v0,81,-58,122,-105,153v-14,9,-36,20,-65,35v44,58,103,125,157,184v29,-45,53,-96,72,-153r64,29v-29,71,-60,128,-91,172v41,43,85,85,130,126r-104,0v-13,-11,-38,-35,-73,-70v-55,55,-119,82,-192,82v-117,1,-209,-68,-207,-186v0,-47,13,-86,39,-116v26,-30,62,-58,108,-83v-34,-58,-51,-108,-51,-150v-2,-88,78,-154,168,-154xm117,-179v0,78,61,130,135,129v50,0,96,-22,139,-66v-82,-87,-117,-127,-175,-207v-66,40,-99,88,-99,144xm303,-619v-52,-1,-95,44,-93,98v0,31,13,70,40,115v43,-21,76,-42,98,-62v22,-20,34,-45,34,-75v1,-47,-33,-76,-79,-76","w":642},"'":{"d":"54,-631v-2,-39,51,-63,78,-33v9,9,15,20,13,33r-27,219r-37,0v-18,-137,-27,-210,-27,-219","w":199},"(":{"d":"126,-243v0,177,41,279,105,407r-46,35v-188,-249,-188,-635,0,-884r46,34v-64,130,-105,229,-105,408","w":248},")":{"d":"122,-243v0,177,-41,279,-105,407r46,35v188,-249,188,-635,0,-884r-46,34v64,130,105,229,105,408","w":248},"*":{"d":"193,-389r-46,0r6,-115r-97,62r-22,-39r102,-52r-102,-52r22,-40r97,63r-6,-115r46,0r-6,115r96,-63r23,40r-102,52r102,52r-23,39r-96,-62","w":340},"+":{"d":"470,-311r-192,0r0,213r-57,0r0,-213r-192,0r0,-52r192,0r0,-207r57,0r0,207r192,0r0,52","w":499},",":{"d":"113,-100v39,0,64,34,63,76v-1,66,-39,121,-81,151r-38,-31v28,-17,60,-56,65,-93v-33,10,-62,-17,-62,-49v0,-28,24,-55,53,-54","w":230},"-":{"d":"270,-209r-240,0r0,-66r240,0r0,66","w":300},".":{"d":"170,-45v0,30,-25,55,-55,55v-30,0,-55,-25,-55,-55v0,-30,25,-55,55,-55v30,0,55,25,55,55","w":231},"\/":{"d":"59,20r-59,0r237,-707r59,0","w":296},"0":{"d":"422,-18v-66,39,-166,39,-232,0v-117,-70,-165,-263,-124,-438v28,-118,96,-221,240,-221v142,0,213,103,240,221v41,179,-7,369,-124,438xm206,-104v50,55,147,52,200,0v72,-71,85,-236,55,-359v-17,-70,-70,-140,-155,-140v-85,0,-137,70,-155,140v-20,75,-20,185,0,260v10,39,29,71,55,99","w":612},"1":{"d":"261,0r-83,0r0,-558r-107,114r-50,-51r167,-172r73,0r0,667","w":339},"2":{"d":"285,-677v119,-1,224,73,224,196v0,62,-27,123,-80,185v-53,62,-135,136,-244,222r327,0r0,74r-458,0r0,-67v137,-107,233,-189,288,-247v55,-58,83,-114,83,-167v0,-79,-65,-122,-140,-122v-77,0,-137,28,-181,84r-51,-53v46,-62,130,-105,232,-105","w":588},"3":{"d":"503,-180v-3,121,-106,192,-237,192v-106,0,-194,-48,-237,-110r49,-52v36,49,104,88,186,88v88,0,156,-43,156,-125v0,-87,-73,-118,-166,-118v-39,0,-62,0,-69,1r0,-76v7,1,30,1,69,1v83,0,155,-31,155,-110v1,-74,-71,-114,-149,-114v-67,0,-126,27,-176,81r-46,-52v56,-69,132,-103,229,-103v122,0,225,62,225,177v0,87,-72,143,-143,155v74,9,156,73,154,165","w":557},"4":{"d":"432,0r-83,0r0,-169r-317,0r0,-69r286,-429r114,0r0,425r94,0r0,73r-94,0r0,169xm349,-242r0,-348r-234,348r234,0","w":558},"5":{"d":"539,-208v0,132,-105,220,-238,220v-103,0,-181,-36,-235,-107r51,-56v46,59,107,89,184,89v86,0,154,-60,154,-143v0,-87,-65,-145,-153,-144v-59,0,-111,21,-154,62r-61,-21r0,-359r408,0r0,74r-325,0r0,232v41,-40,93,-60,156,-60v120,-1,213,87,213,213","w":590},"6":{"d":"542,-206v0,123,-102,221,-233,218v-146,-3,-215,-95,-243,-214v-52,-225,31,-475,257,-475v77,0,139,27,184,80r-42,62v-39,-45,-86,-68,-142,-68v-135,1,-195,141,-188,288v30,-49,109,-104,189,-104v127,0,218,81,218,213xm138,-248v8,95,61,186,167,186v87,0,152,-65,153,-141v2,-92,-64,-144,-153,-144v-74,1,-136,48,-167,99","w":591},"7":{"d":"213,0r-92,0r269,-593r-359,0r0,-74r455,0r0,57","w":515},"8":{"d":"530,-169v1,116,-116,181,-239,181v-124,0,-240,-64,-239,-181v1,-93,80,-152,159,-175v-75,-22,-146,-70,-148,-160v-2,-115,113,-173,228,-173v115,0,231,58,229,173v-1,90,-74,139,-149,160v79,23,158,81,159,175xm291,-603v-76,0,-146,38,-144,110v2,77,78,100,144,115v66,-14,143,-38,145,-115v2,-71,-70,-110,-145,-110xm136,-178v-1,73,77,116,155,116v77,0,155,-43,155,-116v0,-55,-57,-99,-96,-114v-22,-8,-41,-13,-59,-15v-49,7,-90,25,-123,59v-21,20,-32,43,-32,70","w":582},"9":{"d":"49,-460v0,-124,102,-221,234,-218v145,3,214,95,243,214v23,94,19,216,-13,300v-35,93,-119,176,-244,175v-76,0,-138,-27,-185,-80r42,-62v59,76,178,93,251,28v60,-53,84,-139,79,-248v-30,49,-108,104,-188,104v-127,0,-219,-81,-219,-213xm133,-463v-2,92,64,144,154,144v74,-1,137,-48,167,-100v-12,-101,-57,-181,-168,-185v-86,-3,-152,64,-153,141","w":591},":":{"d":"170,-435v0,28,-27,55,-55,55v-28,0,-55,-27,-55,-55v0,-30,25,-55,55,-55v30,0,55,25,55,55xm170,-45v0,30,-25,55,-55,55v-30,0,-55,-25,-55,-55v0,-30,25,-55,55,-55v30,0,55,25,55,55","w":225},";":{"d":"170,-435v0,28,-27,55,-55,55v-28,0,-55,-27,-55,-55v0,-30,25,-55,55,-55v30,0,55,25,55,55xm113,-102v39,0,64,34,63,76v0,67,-39,121,-81,151r-38,-30v27,-17,60,-58,65,-94v-33,10,-62,-17,-62,-49v0,-28,24,-55,53,-54","w":230},"<":{"d":"470,-90r-441,-218r0,-53r441,-219r0,63r-377,183r377,181r0,63","w":499},"=":{"d":"470,-404r-441,0r0,-53r441,0r0,53xm470,-211r-441,0r0,-53r441,0r0,53","w":499},">":{"d":"470,-308r-441,218r0,-63r377,-181r-377,-183r0,-63r441,219r0,53","w":499},"?":{"d":"235,-677v107,0,196,59,196,155v0,122,-115,145,-173,212v-27,30,-28,76,6,98r-61,27v-42,-33,-48,-98,-19,-145v35,-56,104,-75,142,-127v12,-16,19,-34,19,-53v-1,-59,-50,-93,-117,-93v-66,0,-119,27,-160,82r-50,-54v52,-68,124,-102,217,-102xm279,-45v0,29,-26,55,-55,55v-29,0,-55,-26,-55,-55v0,-29,26,-55,55,-55v29,0,55,26,55,55","w":462},"@":{"d":"70,-246v0,159,125,283,286,283v65,0,127,-19,186,-56r18,26v-65,42,-135,63,-208,63v-176,0,-317,-140,-317,-314v0,-206,193,-394,397,-394v180,0,315,140,315,317v0,126,-67,233,-173,236v-53,1,-92,-36,-91,-88v-31,45,-90,87,-159,88v-92,1,-153,-69,-153,-163v0,-127,114,-251,235,-251v62,0,109,35,128,78r13,-62r68,0r-57,271v-9,39,10,73,45,73v25,0,49,-15,73,-45v24,-30,36,-76,36,-137v3,-163,-119,-283,-283,-283v-185,0,-359,175,-359,358xm243,-252v0,64,38,112,102,111v57,0,107,-30,148,-90r29,-139v-13,-37,-51,-73,-103,-73v-96,0,-176,96,-176,191","w":783},"A":{"d":"649,0r-95,0r-59,-149r-332,0r-59,149r-95,0r269,-667r103,0xm471,-222r-142,-360r-141,360r283,0","w":658},"B":{"d":"575,-180v0,110,-78,180,-193,180r-304,0r0,-667r297,0v109,-2,187,66,187,170v0,78,-53,141,-117,153v68,8,130,86,130,164xm476,-485v0,-64,-47,-108,-115,-108r-200,0r0,215r200,0v69,2,115,-42,115,-107xm489,-189v0,-67,-51,-115,-123,-115r-205,0r0,230r205,0v74,1,123,-43,123,-115","w":629},"C":{"d":"394,-62v81,-1,150,-45,184,-97r70,38v-65,89,-149,133,-254,133v-193,0,-343,-149,-343,-345v0,-197,150,-345,343,-345v107,0,192,44,253,132r-69,39v-34,-53,-103,-97,-184,-97v-148,-2,-257,119,-257,271v0,151,110,273,257,271","w":676},"D":{"d":"648,-333v0,194,-144,333,-342,333r-228,0r0,-667r228,0v197,-5,342,142,342,334xm562,-333v0,-150,-101,-264,-256,-260r-145,0r0,519r145,0v153,4,256,-111,256,-259","w":700},"E":{"d":"515,0r-437,0r0,-667r437,0r0,74r-354,0r0,215r347,0r0,74r-347,0r0,230r354,0r0,74","w":569},"F":{"d":"161,0r-83,0r0,-667r437,0r0,74r-354,0r0,215r347,0r0,74r-347,0r0,304","w":551},"G":{"d":"394,-62v74,0,143,-35,180,-72r0,-135r-230,0r0,-74r312,0r0,240v-69,77,-156,116,-262,116v-192,0,-343,-149,-343,-346v0,-198,150,-345,343,-345v106,0,192,41,259,124r-66,42v-38,-51,-109,-92,-193,-92v-148,-2,-257,119,-257,271v0,151,110,271,257,271","w":713},"H":{"d":"634,0r-83,0r0,-306r-390,0r0,306r-83,0r0,-667r83,0r0,287r390,0r0,-287r83,0r0,667","w":712},"I":{"d":"161,0r-83,0r0,-667r83,0r0,667","w":239},"J":{"d":"397,-201v3,134,-84,213,-212,213v-72,0,-130,-26,-174,-77r44,-63v35,44,77,66,125,66v81,1,134,-58,134,-140r0,-465r83,0r0,466","w":475},"K":{"d":"585,0r-104,0r-253,-300r-67,76r0,224r-83,0r0,-667r83,0r0,344r295,-344r104,0r-278,316","w":601},"L":{"d":"460,0r-393,0r0,-667r83,0r0,593r310,0r0,74","w":493},"M":{"d":"731,0r-83,0r0,-561r-226,561r-34,0r-227,-561r0,561r-83,0r0,-667r119,0r208,514r207,-514r119,0r0,667","w":809},"N":{"d":"630,0r-80,0r-389,-532r0,532r-83,0r0,-667r85,0r384,521r0,-521r83,0r0,667","w":708},"O":{"d":"714,-333v0,193,-140,345,-332,345v-193,0,-331,-152,-331,-345v0,-193,138,-345,331,-345v192,0,332,152,332,345xm137,-333v0,151,96,271,245,271v148,0,246,-121,246,-271v0,-151,-98,-271,-246,-271v-149,0,-245,119,-245,271","w":765},"P":{"d":"555,-466v0,115,-88,201,-209,201r-185,0r0,265r-83,0r0,-667r268,0v123,-4,209,85,209,201xm469,-466v0,-75,-57,-127,-133,-127r-175,0r0,254r175,0v76,2,133,-52,133,-127","w":587},"Q":{"d":"382,-678v192,0,332,152,332,345v0,99,-31,182,-92,247r63,67r-57,50r-65,-69v-52,33,-112,50,-181,50v-193,0,-331,-152,-331,-345v0,-193,138,-345,331,-345xm137,-333v0,151,96,273,245,271v47,0,90,-11,127,-34r-95,-103r58,-49r94,102v41,-51,62,-113,62,-187v0,-151,-98,-271,-246,-271v-149,0,-245,119,-245,271","w":765},"R":{"d":"556,-466v0,111,-76,186,-174,194r180,272r-98,0r-169,-265r-134,0r0,265r-83,0r0,-667r268,0v121,-2,210,80,210,201xm470,-466v0,-76,-58,-127,-134,-127r-175,0r0,255r175,0v76,2,134,-53,134,-128","w":609},"S":{"d":"540,-184v-3,124,-100,196,-246,196v-108,0,-193,-35,-256,-106r50,-64v55,64,125,96,209,96v92,0,157,-42,157,-116v0,-73,-75,-101,-140,-118v-116,-30,-253,-54,-255,-196v-1,-115,108,-186,230,-186v98,0,177,31,236,94r-50,61v-47,-53,-112,-80,-193,-80v-72,0,-137,39,-137,106v0,54,55,79,103,92v60,15,136,40,190,63v55,24,104,79,102,158","w":586},"T":{"d":"326,0r-83,0r0,-593r-211,0r0,-74r506,0r0,74r-212,0r0,593","w":570},"U":{"d":"623,-260v0,170,-99,272,-273,272v-173,0,-272,-102,-272,-271r0,-408r84,0r0,406v-1,122,66,199,188,199v122,0,190,-77,189,-199r0,-406r84,0r0,407","w":701},"V":{"d":"381,0r-103,0r-269,-667r95,0r225,576r225,-576r95,0","w":658},"W":{"d":"678,0r-90,0r-147,-538r-147,538r-90,0r-190,-667r92,0r148,556r153,-556r69,0r153,556r147,-556r93,0","w":883},"X":{"d":"640,0r-101,0r-213,-284r-213,284r-101,0r260,-342r-245,-325r101,0r198,266r197,-266r102,0r-245,324","w":652},"Y":{"d":"355,0r-83,0r0,-282r-263,-385r97,0r207,310r207,-310r97,0r-262,385r0,282","w":626},"Z":{"d":"537,0r-489,0r0,-69r375,-524r-375,0r0,-74r482,0r0,69r-376,524r383,0r0,74","w":585},"[":{"d":"226,190r-186,0r0,-868r186,0r0,55r-127,0r0,758r127,0r0,55","w":243},"\\":{"d":"237,20r-237,-707r59,0r237,707r-59,0","w":296},"]":{"d":"204,190r-187,0r0,-55r128,0r0,-758r-128,0r0,-55r187,0r0,868","w":243},"^":{"d":"413,-333r-62,0r-135,-279r-135,279r-62,0r169,-334r57,0","w":432},"_":{"d":"567,95r-570,0r0,-55r570,0r0,55","w":564},"`":{"d":"226,-556r-57,0r-169,-144r78,0","w":226},"\u02cb":{"d":"226,-556r-57,0r-169,-144r78,0","w":226},"a":{"d":"265,-495v109,0,187,52,187,163r0,332r-75,0r0,-55v-39,45,-93,67,-160,67v-88,1,-168,-66,-168,-160v0,-98,76,-159,168,-159v68,0,121,22,160,65r0,-87v1,-65,-55,-102,-122,-101v-58,0,-107,22,-148,67r-35,-52v51,-53,116,-80,193,-80xm125,-148v0,64,53,106,120,106v59,0,103,-20,132,-60r0,-92v-29,-39,-73,-59,-132,-59v-66,0,-120,42,-120,105","w":528},"b":{"d":"295,-428v-61,0,-122,38,-145,78r0,219v23,39,84,76,145,76v98,0,155,-84,155,-186v0,-102,-57,-187,-155,-187xm528,-241v0,144,-80,253,-215,253v-67,0,-122,-28,-163,-84r0,72r-75,0r0,-667r75,0r0,257v42,-57,96,-85,163,-85v134,-1,215,112,215,254","w":575},"c":{"d":"125,-242v0,104,65,188,167,187v51,0,92,-21,123,-63r50,46v-43,56,-102,84,-177,84v-141,0,-241,-113,-241,-254v0,-141,100,-253,241,-253v75,0,134,28,177,84r-50,45v-30,-41,-71,-62,-123,-62v-101,-2,-167,83,-167,186","w":496},"d":{"d":"47,-241v0,-142,82,-254,215,-254v67,0,121,28,163,85r0,-257r75,0r0,667r-75,0r0,-72v-41,56,-96,84,-163,84v-134,0,-215,-110,-215,-253xm125,-241v0,103,57,186,156,186v60,0,121,-38,144,-77r0,-218v-23,-40,-84,-78,-144,-78v-99,-1,-156,85,-156,187","w":575},"e":{"d":"127,-217v5,92,74,167,173,167v60,0,110,-21,150,-62r36,49v-51,50,-115,75,-192,75v-145,0,-247,-108,-247,-254v0,-136,103,-253,238,-253v149,0,240,120,232,278r-390,0xm443,-273v-2,-84,-64,-160,-159,-160v-92,0,-154,77,-158,160r317,0","w":563},"f":{"d":"96,-520v-1,-93,51,-157,140,-157v41,0,75,12,102,37r-31,48v-17,-15,-37,-23,-59,-23v-51,0,-77,32,-77,95r0,37r98,0r0,66r-98,0r0,417r-75,0r0,-417r-80,0r0,-66r80,0r0,-37","w":284},"g":{"d":"500,-7v3,140,-98,203,-231,203v-95,0,-143,-22,-195,-73r38,-54v37,43,89,65,157,65v89,0,159,-47,156,-141r0,-73v-33,46,-90,85,-163,86v-134,0,-215,-108,-215,-250v0,-143,81,-251,215,-251v67,0,121,28,163,85r0,-73r75,0r0,476xm125,-244v0,102,57,184,156,183v61,0,120,-38,144,-78r0,-212v-24,-39,-84,-77,-144,-77v-99,-1,-156,81,-156,184","w":575},"h":{"d":"151,-413v32,-41,101,-83,172,-82v103,0,154,51,154,154r0,341r-75,0r0,-318v1,-79,-35,-109,-109,-110v-59,0,-117,38,-142,75r0,353r-75,0r0,-667r75,0r0,254","w":552},"i":{"d":"163,-602v0,27,-23,50,-50,50v-27,0,-51,-23,-51,-50v0,-27,24,-51,51,-51v27,0,50,24,50,51xm150,0r-75,0r0,-483r75,0r0,483","w":225},"j":{"d":"163,-602v0,27,-23,50,-50,50v-27,0,-51,-23,-51,-50v0,-27,24,-51,51,-51v27,0,50,24,50,51xm150,47v1,94,-50,149,-143,149v-40,0,-75,-12,-105,-36r26,-56v20,20,43,30,69,30v51,-1,79,-32,78,-87r0,-530r75,0r0,530","w":225},"k":{"d":"500,0r-96,0r-173,-217r-81,79r0,138r-75,0r0,-667r75,0r0,441r254,-257r95,0r-214,219","w":514},"l":{"d":"150,0r-75,0r0,-667r75,0r0,667","w":225},"m":{"d":"436,-405v26,-44,93,-91,162,-90v90,0,135,49,135,146r0,349r-75,0r0,-328v0,-67,-30,-100,-89,-100v-53,0,-106,38,-128,74r0,354r-75,0r0,-328v0,-67,-30,-100,-89,-100v-53,0,-104,40,-127,75r0,353r-75,0r0,-483r75,0r0,70v24,-37,94,-82,157,-82v69,0,114,37,129,90","w":808},"n":{"d":"150,-413v33,-41,101,-82,173,-82v102,0,153,52,153,156r0,339r-74,0r0,-316v1,-79,-35,-111,-109,-112v-60,0,-116,38,-143,75r0,353r-75,0r0,-483r75,0r0,70","w":552},"o":{"d":"525,-242v0,141,-97,254,-239,254v-142,0,-239,-113,-239,-254v0,-141,97,-253,239,-253v142,0,239,112,239,253xm126,-242v0,99,61,187,160,187v99,0,160,-88,160,-187v0,-100,-61,-186,-160,-186v-99,0,-160,87,-160,186"},"p":{"d":"528,-242v0,143,-80,254,-215,254v-66,0,-120,-28,-163,-85r0,257r-75,0r0,-667r75,0r0,72v32,-46,90,-84,163,-84v134,0,215,110,215,253xm150,-133v23,40,84,78,144,78v98,1,155,-85,155,-187v0,-102,-57,-186,-155,-186v-60,0,-121,38,-144,77r0,218"},"q":{"d":"123,-242v0,102,57,188,155,187v60,0,121,-38,144,-78r0,-218v-23,-39,-84,-77,-144,-77v-98,0,-155,84,-155,186xm259,-495v73,0,131,38,163,84r0,-72r75,0r0,667r-75,0r0,-257v-43,57,-97,85,-163,85v-134,0,-215,-111,-215,-254v0,-144,80,-253,215,-253"},"r":{"d":"282,-419v-50,0,-115,42,-132,77r0,342r-75,0r0,-483r75,0r0,77v46,-59,100,-88,161,-88r0,77v-12,-1,-22,-2,-29,-2","w":330},"s":{"d":"418,-134v0,95,-82,146,-189,146v-81,0,-146,-25,-195,-76r38,-54v30,36,94,69,159,69v63,0,115,-27,115,-83v0,-51,-59,-67,-106,-78v-89,-20,-193,-40,-193,-146v0,-87,81,-139,179,-139v74,0,134,23,179,70r-35,52v-34,-41,-82,-61,-144,-61v-57,0,-107,26,-107,76v0,65,90,64,149,81v75,22,150,49,150,143","w":465},"t":{"d":"166,-117v0,34,15,62,48,62v21,0,38,-7,51,-21r22,57v-22,21,-52,31,-89,31v-72,0,-108,-38,-108,-113r0,-316r-80,0r0,-66r80,0r0,-132r76,0r0,132r98,0r0,66r-98,0r0,300","w":294},"u":{"d":"259,-55v60,0,117,-36,142,-73r0,-355r75,0r0,483r-75,0r0,-68v-36,41,-99,80,-172,80v-103,0,-154,-51,-154,-154r0,-341r75,0r0,318v0,78,35,109,109,110","w":551},"v":{"d":"286,0r-82,0r-201,-483r82,0r160,396r161,-396r81,0","w":490},"w":{"d":"569,0r-76,0r-126,-388r-126,388r-75,0r-154,-483r78,0r118,385r127,-385r65,0r126,385r118,-385r79,0","w":734},"x":{"d":"475,0r-86,0r-146,-198r-145,198r-86,0r185,-248r-175,-235r87,0r134,184r135,-184r86,0r-175,235","w":487},"y":{"d":"49,189r11,-68v24,11,64,11,84,-3v30,-21,42,-77,61,-113r-202,-488r82,0r160,396r161,-396r81,0r-242,581v-31,79,-104,113,-196,91","w":490},"z":{"d":"420,0r-368,0r0,-59r266,-358r-266,0r0,-66r364,0r0,57r-268,360r272,0r0,66","w":472},"{":{"d":"116,55v-1,41,28,80,66,80r62,0r0,55r-62,0v-68,1,-124,-61,-124,-134r0,-206v0,-37,-17,-69,-53,-69r0,-50v36,0,53,-32,53,-69r0,-205v-3,-74,55,-135,124,-135r62,0r0,55r-62,0v-38,0,-66,38,-66,79r0,212v0,46,-15,75,-45,88v30,13,45,42,45,88r0,211","w":261},"|":{"d":"133,20r-55,0r0,-707r55,0r0,707","w":211},"}":{"d":"203,56v3,73,-57,135,-125,134r-61,0r0,-55r61,0v38,0,67,-39,67,-80r0,-211v0,-46,15,-75,45,-88v-30,-13,-45,-42,-45,-88r0,-212v1,-42,-28,-79,-67,-79r-61,0r0,-55r61,0v69,0,125,61,125,135r0,205v0,37,17,69,52,69r0,50v-35,0,-52,32,-52,69r0,206","w":261},"~":{"d":"420,-667r55,6v-7,67,-14,112,-35,163v-18,43,-47,75,-102,75v-99,0,-98,-112,-138,-171v-9,-13,-21,-19,-35,-19v-42,0,-69,64,-82,191r-56,-7v7,-66,15,-113,36,-163v17,-42,48,-74,102,-74v99,0,97,113,138,172v9,13,21,19,35,19v42,0,69,-64,82,-192","w":503},"\u00a0":{"w":259},"\u00a1":{"d":"68,184r15,-480r63,0r16,480r-94,0xm115,-384v-28,0,-55,-26,-55,-54v0,-29,26,-55,55,-55v29,0,54,26,54,55v0,28,-26,54,-54,54","w":230},"\u00a2":{"d":"47,-242v0,-131,87,-236,205,-250r0,-73r59,0r0,71v63,5,114,33,154,83r-50,45v-27,-37,-61,-57,-104,-61r0,371v42,-4,77,-25,104,-62r50,46v-39,50,-90,78,-154,83r0,89r-59,0r0,-91v-119,-13,-205,-119,-205,-251xm252,-424v-77,16,-127,89,-127,182v0,93,50,167,127,183r0,-365","w":496},"\u00a3":{"d":"373,13v-57,0,-128,-46,-179,-46v-28,0,-67,13,-118,40r-29,-63v43,-19,75,-42,98,-68v37,-42,45,-91,19,-144r-144,0r0,-54r105,0v-36,-43,-42,-41,-63,-92v-75,-184,157,-330,331,-234v35,20,62,48,81,83r-67,40v-16,-43,-68,-82,-127,-82v-76,0,-142,51,-142,128v0,72,50,116,80,157r150,0r0,54r-122,0v21,78,-8,128,-69,175v18,-6,35,-9,52,-9v39,0,112,41,148,41v38,0,80,-20,95,-40r36,67v-33,31,-78,47,-135,47","w":518},"\u00a4":{"d":"486,-137r-29,29r-56,-57v-76,68,-204,68,-280,0r-57,57r-28,-29r56,-56v-67,-81,-67,-201,0,-280r-56,-57r28,-28r57,56v76,-67,203,-67,280,0r56,-56r29,28r-56,57v67,79,67,200,0,280xm261,-162v92,0,171,-79,171,-171v0,-92,-79,-171,-171,-171v-92,0,-171,79,-171,171v0,92,79,171,171,171","w":522},"\u00a5":{"d":"355,0r-83,0r0,-122r-250,0r0,-53r250,0r0,-107r-250,0r0,-52r214,0r-227,-333r97,0r207,310r207,-310r97,0r-227,333r215,0r0,52r-250,0r0,107r250,0r0,53r-250,0r0,122","w":626},"\u00a6":{"d":"133,20r-55,0r0,-316r55,0r0,316xm133,-371r-55,0r0,-316r55,0r0,316","w":211},"\u00a7":{"d":"229,-621v-58,0,-110,27,-110,80v0,68,89,67,149,85v75,22,150,47,150,141v0,59,-31,101,-92,127v61,24,92,65,92,122v0,98,-85,147,-189,147v-77,0,-142,-26,-195,-78r38,-49v39,47,92,71,157,71v63,1,117,-28,117,-86v0,-53,-58,-71,-106,-83v-87,-22,-192,-41,-193,-147v-1,-70,55,-111,114,-127v-76,-24,-114,-65,-114,-124v0,-84,83,-135,179,-135v77,0,137,24,179,71r-35,45v-33,-40,-80,-60,-141,-60xm231,-397v-66,18,-112,35,-112,99v0,31,22,55,67,70v12,5,37,12,75,21v55,-24,83,-57,83,-99v0,-61,-57,-74,-113,-91","w":468},"\u00a8":{"d":"239,-650v26,0,47,21,47,46v0,25,-22,46,-47,46v-25,0,-46,-21,-46,-46v0,-25,21,-46,46,-46xm33,-650v25,0,46,21,46,46v0,25,-21,46,-46,46v-25,0,-47,-21,-47,-46v0,-25,21,-46,47,-46","w":272},"\u00a9":{"d":"389,-679v186,0,345,160,345,345v0,186,-160,345,-345,345v-185,0,-345,-161,-345,-345v0,-186,160,-345,345,-345xm389,-20v168,0,314,-146,314,-314v0,-169,-145,-314,-314,-314v-168,0,-314,146,-314,314v0,167,147,314,314,314xm391,-154v52,0,98,-27,121,-58r26,25v-38,44,-87,66,-147,66v-115,0,-208,-98,-208,-215v0,-117,93,-212,208,-212v61,0,109,22,146,65r-25,25v-22,-32,-71,-57,-121,-57v-94,-1,-171,81,-171,180v0,97,78,183,171,181","w":778},"\u00aa":{"d":"188,-648v75,0,130,35,130,111r0,211r-57,0r0,-35v-27,29,-63,43,-108,43v-58,0,-112,-42,-112,-104v0,-63,52,-103,112,-103v45,0,81,14,108,42r0,-55v1,-41,-38,-66,-80,-65v-39,0,-72,15,-98,46r-26,-38v35,-35,78,-53,131,-53xm99,-422v0,41,34,67,76,66v37,0,66,-13,86,-38r0,-56v-20,-25,-49,-38,-86,-38v-41,-1,-76,26,-76,66","w":378},"\u00ab":{"d":"409,-63r-75,0r-160,-180r160,-177r75,0r-160,177xm265,-63r-75,0r-160,-180r160,-177r75,0r-160,177","w":439},"\u00ac":{"d":"470,-457r0,246r-55,0r0,-193r-386,0r0,-53r441,0","w":504},"\u00ad":{"d":"270,-209r-240,0r0,-66r240,0r0,66","w":300},"\u00ae":{"d":"247,-677v116,0,212,96,212,212v0,114,-98,212,-212,212v-114,0,-212,-98,-212,-212v0,-114,98,-212,212,-212xm247,-282v98,0,183,-85,183,-183v0,-100,-84,-183,-183,-183v-99,0,-183,83,-183,183v0,98,85,183,183,183xm342,-512v0,39,-34,70,-62,72r65,97r-40,0r-63,-96r-44,0r0,96r-32,0r0,-243r99,0v42,-1,77,31,77,74xm265,-468v21,1,44,-22,44,-44v0,-24,-21,-46,-44,-46r-67,0r0,90r67,0","w":494},"\u00af":{"d":"363,-591r-363,0r0,-48r363,0r0,48","w":363},"\u203e":{"d":"363,-591r-363,0r0,-48r363,0r0,48","w":363},"\u00b0":{"d":"145,-677v65,0,122,57,122,122v0,66,-57,122,-122,122v-66,0,-122,-56,-122,-122v0,-65,56,-122,122,-122xm145,-482v39,0,74,-34,74,-73v0,-39,-35,-74,-74,-74v-39,0,-73,35,-73,74v0,40,33,73,73,73","w":290},"\u00b1":{"d":"470,-324r-192,0r0,213r-57,0r0,-213r-192,0r0,-52r192,0r0,-207r57,0r0,207r192,0r0,52xm470,0r-441,0r0,-53r441,0r0,53","w":499},"\u00b2":{"d":"196,-827v77,0,145,40,143,118v0,37,-17,74,-50,111v-33,37,-84,79,-151,128r203,0r0,49r-291,0r0,-45v83,-60,142,-108,177,-142v35,-34,52,-66,52,-97v1,-47,-39,-73,-85,-73v-48,0,-91,25,-112,52r-33,-38v29,-37,85,-63,147,-63","w":388},"\u00b3":{"d":"247,-628v46,5,98,43,96,98v-2,76,-67,116,-151,116v-69,0,-119,-22,-150,-65r33,-38v29,36,67,54,116,54v52,1,91,-23,92,-70v0,-46,-35,-69,-104,-69v-23,0,-36,0,-40,1r0,-50v5,1,18,1,40,1v65,0,98,-21,98,-64v0,-43,-44,-65,-90,-64v-43,0,-79,16,-109,48r-31,-35v37,-41,85,-62,146,-62v77,-1,142,36,143,107v1,53,-44,86,-89,92","w":388},"\u00b4":{"d":"226,-700r-169,144r-57,0r148,-144r78,0","w":226},"\u00b5":{"d":"401,-68v-45,58,-158,105,-251,66r0,186r-75,0r0,-667r75,0r0,318v-1,79,35,111,109,112v59,0,117,-38,142,-75r0,-355r75,0r0,483r-75,0r0,-68","w":551},"\u03bc":{"d":"401,-68v-45,58,-158,105,-251,66r0,186r-75,0r0,-667r75,0r0,318v-1,79,35,111,109,112v59,0,117,-38,142,-75r0,-355r75,0r0,483r-75,0r0,-68","w":551},"\u00b6":{"d":"27,-495v0,-92,80,-172,172,-172r179,0r0,767r-45,0r0,-722r-89,0r0,722r-45,0r0,-423v-92,3,-172,-80,-172,-172","w":449},"\u00b7":{"d":"115,-299v28,0,55,26,55,54v0,30,-25,55,-55,55v-30,0,-55,-25,-55,-55v0,-28,27,-54,55,-54","w":231},"\u2219":{"d":"115,-299v28,0,55,26,55,54v0,30,-25,55,-55,55v-30,0,-55,-25,-55,-55v0,-28,27,-54,55,-54","w":231},"\u00b8":{"d":"205,111v0,51,-50,81,-104,80v-42,0,-76,-10,-101,-30r19,-38v24,19,51,29,80,29v31,0,59,-13,61,-42v3,-42,-57,-44,-75,-18r-33,-19r31,-84r45,0r-26,66v42,-29,103,2,103,56","w":205},"\u00b9":{"d":"175,-421r-60,0r0,-322r-66,69r-35,-37r108,-110r53,0r0,400","w":235},"\u00ba":{"d":"365,-483v0,93,-67,165,-163,165v-93,0,-162,-74,-162,-165v0,-92,67,-165,162,-165v96,0,163,72,163,165xm100,-483v0,65,38,117,102,117v64,0,104,-53,104,-117v0,-64,-40,-116,-104,-116v-63,0,-102,52,-102,116","w":405},"\u00bb":{"d":"265,-243r-160,180r-75,0r160,-180r-160,-177r75,0xm409,-243r-160,180r-75,0r160,-180r-160,-177r75,0","w":439},"\u00bc":{"d":"590,-667r-427,667r-54,0r426,-667r55,0xm733,-100r-57,0r0,100r-60,0r0,-100r-196,0r0,-45r173,-255r83,0r0,251r57,0r0,49xm616,-149r0,-198r-136,198r136,0xm175,-267r-60,0r0,-322r-66,69r-35,-37r108,-110r53,0r0,400","w":770},"\u00bd":{"d":"590,-667r-427,667r-54,0r426,-667r55,0xm615,-406v77,0,145,40,143,118v0,37,-17,73,-50,110v-33,37,-84,80,-151,129r203,0r0,49r-291,0r0,-45v83,-60,142,-107,177,-141v35,-34,52,-67,52,-98v1,-47,-39,-73,-85,-73v-48,0,-91,25,-112,52r-33,-38v33,-42,82,-63,147,-63xm175,-267r-60,0r0,-322r-66,69r-35,-37r108,-110r53,0r0,400","w":807},"\u00be":{"d":"698,-667r-427,667r-54,0r426,-667r55,0xm842,-100r-57,0r0,100r-60,0r0,-100r-196,0r0,-45r173,-255r83,0r0,251r57,0r0,49xm725,-149r0,-198r-136,198r136,0xm247,-474v46,5,98,43,96,98v-2,76,-67,116,-151,116v-69,0,-119,-22,-150,-65r33,-38v29,36,67,54,116,54v52,1,91,-23,92,-70v0,-46,-35,-69,-104,-69v-23,0,-36,0,-40,1r0,-50v5,1,18,1,40,1v65,0,98,-21,98,-64v0,-43,-44,-65,-90,-64v-43,0,-79,16,-109,48r-31,-35v37,-41,85,-62,146,-62v77,-1,142,36,143,107v1,53,-44,86,-89,92","w":878},"\u00bf":{"d":"227,196v-107,0,-196,-59,-196,-155v0,-122,115,-145,173,-212v27,-30,28,-76,-6,-98r61,-27v42,33,49,98,19,145v-35,56,-104,75,-142,127v-12,16,-19,34,-19,53v1,59,50,93,117,93v66,0,119,-27,160,-81r50,53v-52,68,-124,102,-217,102xm183,-438v0,-28,27,-55,55,-55v28,0,55,27,55,55v0,28,-27,55,-55,55v-28,0,-55,-27,-55,-55","w":394},"\u00c0":{"d":"396,-728r-57,0r-169,-144r78,0xm649,0r-95,0r-59,-149r-332,0r-59,149r-95,0r269,-667r103,0xm471,-222r-142,-360r-141,360r283,0","w":658},"\u00c1":{"d":"490,-872r-169,144r-57,0r148,-144r78,0xm649,0r-95,0r-59,-149r-332,0r-59,149r-95,0r269,-667r103,0xm471,-222r-142,-360r-141,360r283,0","w":658},"\u00c2":{"d":"463,-728r-51,0r-83,-106r-80,106r-51,0r95,-144r72,0xm649,0r-95,0r-59,-149r-332,0r-59,149r-95,0r269,-667r103,0xm471,-222r-142,-360r-141,360r283,0","w":658},"\u00c3":{"d":"486,-860v1,72,-30,134,-97,134v-52,0,-67,-49,-93,-78v-9,-10,-19,-14,-30,-14v-36,3,-49,40,-48,86r-45,0v-1,-72,30,-134,97,-134v52,0,68,49,94,78v9,10,18,14,29,14v36,-3,49,-40,48,-86r45,0xm649,0r-95,0r-59,-149r-332,0r-59,149r-95,0r269,-667r103,0xm471,-222r-142,-360r-141,360r283,0","w":658},"\u00c4":{"d":"433,-819v26,0,47,21,47,46v0,25,-22,46,-47,46v-25,0,-46,-21,-46,-46v0,-25,21,-46,46,-46xm227,-819v25,0,46,21,46,46v0,25,-21,46,-46,46v-25,0,-47,-21,-47,-46v0,-25,21,-46,47,-46xm649,0r-95,0r-59,-149r-332,0r-59,149r-95,0r269,-667r103,0xm471,-222r-142,-360r-141,360r283,0","w":658},"\u00c5":{"d":"427,-791v0,53,-45,99,-97,99v-52,0,-99,-46,-99,-99v0,-53,47,-99,99,-99v52,0,97,46,97,99xm271,-791v0,31,27,59,59,59v31,0,58,-28,58,-59v0,-31,-27,-59,-58,-59v-32,0,-59,28,-59,59xm649,0r-95,0r-59,-149r-332,0r-59,149r-95,0r269,-667r103,0xm471,-222r-142,-360r-141,360r283,0","w":658},"\u00c6":{"d":"893,0r-437,0r0,-149r-262,0r-92,149r-95,0r416,-667r470,0r0,74r-354,0r0,215r347,0r0,74r-347,0r0,230r354,0r0,74xm456,-222r0,-360r-222,360r222,0","w":948},"\u00c7":{"d":"492,107v0,51,-50,81,-104,80v-43,0,-76,-10,-101,-30r19,-38v24,19,51,29,80,29v31,0,59,-13,61,-42v3,-42,-57,-44,-75,-18r-33,-19r21,-59v-174,-11,-309,-155,-309,-343v0,-197,150,-345,343,-345v107,0,192,44,253,132r-69,39v-34,-53,-103,-97,-184,-97v-148,-2,-257,119,-257,271v0,151,110,273,257,271v81,-1,150,-45,184,-97r70,38v-63,86,-145,130,-244,133r-15,39v42,-29,103,2,103,56","w":676},"\u00c8":{"d":"363,-728r-57,0r-169,-144r78,0xm515,0r-437,0r0,-667r437,0r0,74r-354,0r0,215r347,0r0,74r-347,0r0,230r354,0r0,74","w":569},"\u00c9":{"d":"456,-872r-169,144r-57,0r148,-144r78,0xm515,0r-437,0r0,-667r437,0r0,74r-354,0r0,215r347,0r0,74r-347,0r0,230r354,0r0,74","w":569},"\u00ca":{"d":"428,-728r-51,0r-83,-106r-80,106r-51,0r95,-144r72,0xm515,0r-437,0r0,-667r437,0r0,74r-354,0r0,215r347,0r0,74r-347,0r0,230r354,0r0,74","w":569},"\u00cb":{"d":"399,-819v26,0,47,21,47,46v0,25,-22,46,-47,46v-25,0,-46,-21,-46,-46v0,-25,21,-46,46,-46xm193,-819v25,0,46,21,46,46v0,25,-21,46,-46,46v-25,0,-47,-21,-47,-46v0,-25,21,-46,47,-46xm515,0r-437,0r0,-667r437,0r0,74r-354,0r0,215r347,0r0,74r-347,0r0,230r354,0r0,74","w":569},"\u00cc":{"d":"185,-728r-57,0r-169,-144r78,0xm161,0r-83,0r0,-667r83,0r0,667","w":239},"\u00cd":{"d":"281,-872r-169,144r-57,0r148,-144r78,0xm161,0r-83,0r0,-667r83,0r0,667","w":239},"\u00ce":{"d":"252,-728r-51,0r-83,-106r-80,106r-51,0r95,-144r72,0xm161,0r-83,0r0,-667r83,0r0,667","w":239},"\u00cf":{"d":"222,-819v26,0,47,21,47,46v0,25,-22,46,-47,46v-25,0,-46,-21,-46,-46v0,-25,21,-46,46,-46xm16,-819v25,0,46,21,46,46v0,25,-21,46,-46,46v-25,0,-47,-21,-47,-46v0,-25,21,-46,47,-46xm161,0r-83,0r0,-667r83,0r0,667","w":239},"\u00d0":{"d":"676,-333v0,194,-144,333,-342,333r-228,0r0,-299r-96,0r0,-61r96,0r0,-307r228,0v197,-5,342,142,342,334xm590,-333v0,-150,-101,-264,-256,-260r-145,0r0,233r169,0r0,61r-169,0r0,225r145,0v153,4,256,-111,256,-259","w":728},"\u00d1":{"d":"509,-860v1,72,-30,134,-97,134v-52,0,-68,-49,-94,-78v-9,-10,-18,-14,-29,-14v-36,3,-49,40,-48,86r-45,0v-1,-72,30,-134,97,-134v52,0,67,49,93,78v9,10,19,14,30,14v36,-3,49,-40,48,-86r45,0xm630,0r-80,0r-389,-532r0,532r-83,0r0,-667r85,0r384,521r0,-521r83,0r0,667","w":708},"\u00d2":{"d":"452,-728r-57,0r-169,-144r78,0xm714,-333v0,193,-140,345,-332,345v-193,0,-331,-152,-331,-345v0,-193,138,-345,331,-345v192,0,332,152,332,345xm137,-333v0,151,96,271,245,271v148,0,246,-121,246,-271v0,-151,-98,-271,-246,-271v-149,0,-245,119,-245,271","w":765},"\u00d3":{"d":"544,-872r-169,144r-57,0r148,-144r78,0xm714,-333v0,193,-140,345,-332,345v-193,0,-331,-152,-331,-345v0,-193,138,-345,331,-345v192,0,332,152,332,345xm137,-333v0,151,96,271,245,271v148,0,246,-121,246,-271v0,-151,-98,-271,-246,-271v-149,0,-245,119,-245,271","w":765},"\u00d4":{"d":"517,-728r-51,0r-83,-106r-80,106r-51,0r95,-144r72,0xm714,-333v0,193,-140,345,-332,345v-193,0,-331,-152,-331,-345v0,-193,138,-345,331,-345v192,0,332,152,332,345xm137,-333v0,151,96,271,245,271v148,0,246,-121,246,-271v0,-151,-98,-271,-246,-271v-149,0,-245,119,-245,271","w":765},"\u00d5":{"d":"539,-860v1,72,-30,134,-97,134v-52,0,-68,-49,-94,-78v-9,-10,-18,-14,-29,-14v-36,3,-49,40,-48,86r-45,0v-1,-72,30,-134,97,-134v52,0,67,49,93,78v9,10,19,14,30,14v36,-3,49,-40,48,-86r45,0xm714,-333v0,193,-140,345,-332,345v-193,0,-331,-152,-331,-345v0,-193,138,-345,331,-345v192,0,332,152,332,345xm137,-333v0,151,96,271,245,271v148,0,246,-121,246,-271v0,-151,-98,-271,-246,-271v-149,0,-245,119,-245,271","w":765},"\u00d6":{"d":"485,-819v26,0,47,21,47,46v0,25,-22,46,-47,46v-25,0,-46,-21,-46,-46v0,-25,21,-46,46,-46xm279,-819v25,0,46,21,46,46v0,25,-21,46,-46,46v-25,0,-47,-21,-47,-46v0,-25,21,-46,47,-46xm714,-333v0,193,-140,345,-332,345v-193,0,-331,-152,-331,-345v0,-193,138,-345,331,-345v192,0,332,152,332,345xm137,-333v0,151,96,271,245,271v148,0,246,-121,246,-271v0,-151,-98,-271,-246,-271v-149,0,-245,119,-245,271","w":765},"\u00d7":{"d":"398,-148r-149,-149r-148,149r-37,-37r149,-149r-149,-149r37,-37r148,149r149,-149r37,37r-148,149r148,149","w":499},"\u00d8":{"d":"714,-333v3,193,-140,345,-332,345v-64,0,-121,-15,-172,-45r-22,33r-67,0r44,-65v-76,-65,-114,-155,-114,-268v0,-193,138,-345,331,-345v61,0,117,14,167,42r21,-31r67,0r-42,63v69,57,117,152,119,271xm382,-62v148,2,246,-121,246,-271v0,-86,-26,-154,-78,-205r-297,441v37,23,80,35,129,35xm382,-604v-149,-2,-245,119,-245,271v0,83,24,150,73,201r296,-440v-37,-21,-79,-32,-124,-32","w":765},"\u00d9":{"d":"418,-728r-57,0r-169,-144r78,0xm623,-260v0,170,-99,272,-273,272v-173,0,-272,-102,-272,-271r0,-408r84,0r0,406v-1,122,66,199,188,199v122,0,190,-77,189,-199r0,-406r84,0r0,407","w":701},"\u00da":{"d":"510,-872r-169,144r-57,0r148,-144r78,0xm623,-260v0,170,-99,272,-273,272v-173,0,-272,-102,-272,-271r0,-408r84,0r0,406v-1,122,66,199,188,199v122,0,190,-77,189,-199r0,-406r84,0r0,407","w":701},"\u00db":{"d":"488,-728r-51,0r-83,-106r-80,106r-51,0r95,-144r72,0xm623,-260v0,170,-99,272,-273,272v-173,0,-272,-102,-272,-271r0,-408r84,0r0,406v-1,122,66,199,188,199v122,0,190,-77,189,-199r0,-406r84,0r0,407","w":701},"\u00dc":{"d":"454,-819v26,0,47,21,47,46v0,25,-22,46,-47,46v-25,0,-46,-21,-46,-46v0,-25,21,-46,46,-46xm248,-819v25,0,46,21,46,46v0,25,-21,46,-46,46v-25,0,-47,-21,-47,-46v0,-25,21,-46,47,-46xm623,-260v0,170,-99,272,-273,272v-173,0,-272,-102,-272,-271r0,-408r84,0r0,406v-1,122,66,199,188,199v122,0,190,-77,189,-199r0,-406r84,0r0,407","w":701},"\u00dd":{"d":"477,-872r-169,144r-57,0r148,-144r78,0xm355,0r-83,0r0,-282r-263,-385r97,0r207,310r207,-310r97,0r-262,385r0,282","w":626},"\u00de":{"d":"555,-346v0,116,-88,200,-209,200r-185,0r0,146r-83,0r0,-667r83,0r0,119r185,0v123,-3,209,85,209,202xm469,-346v0,-75,-57,-128,-133,-128r-175,0r0,254r175,0v76,1,133,-51,133,-126","w":587},"\u00df":{"d":"266,-677v86,0,176,45,175,126v-2,90,-93,102,-135,153v-24,28,-20,67,14,85v69,36,179,33,228,93v19,23,30,50,30,85v-2,92,-81,149,-186,147v-94,-2,-136,-30,-186,-78r38,-52v28,38,83,68,148,68v64,0,113,-29,113,-83v0,-50,-55,-68,-101,-79v-85,-21,-185,-41,-186,-145v-1,-50,41,-91,73,-109v27,-16,72,-42,73,-77v2,-44,-53,-67,-99,-67v-64,0,-114,46,-114,111r0,499r-75,0r0,-499v-1,-103,82,-178,190,-178","w":597},"\u00e0":{"d":"265,-495v109,0,187,52,187,163r0,332r-75,0r0,-55v-39,45,-93,67,-160,67v-88,1,-168,-66,-168,-160v0,-98,76,-159,168,-159v68,0,121,22,160,65r0,-87v1,-65,-55,-102,-122,-101v-58,0,-107,22,-148,67r-35,-52v51,-53,116,-80,193,-80xm125,-148v0,64,53,106,120,106v59,0,103,-20,132,-60r0,-92v-29,-39,-73,-59,-132,-59v-66,0,-120,42,-120,105xm332,-556r-57,0r-169,-144r78,0","w":528},"\u00e1":{"d":"265,-495v109,0,187,52,187,163r0,332r-75,0r0,-55v-39,45,-93,67,-160,67v-88,1,-168,-66,-168,-160v0,-98,76,-159,168,-159v68,0,121,22,160,65r0,-87v1,-65,-55,-102,-122,-101v-58,0,-107,22,-148,67r-35,-52v51,-53,116,-80,193,-80xm125,-148v0,64,53,106,120,106v59,0,103,-20,132,-60r0,-92v-29,-39,-73,-59,-132,-59v-66,0,-120,42,-120,105xm427,-700r-169,144r-57,0r148,-144r78,0","w":528},"\u00e2":{"d":"265,-495v109,0,187,52,187,163r0,332r-75,0r0,-55v-39,45,-93,67,-160,67v-88,1,-168,-66,-168,-160v0,-98,76,-159,168,-159v68,0,121,22,160,65r0,-87v1,-65,-55,-102,-122,-101v-58,0,-107,22,-148,67r-35,-52v51,-53,116,-80,193,-80xm125,-148v0,64,53,106,120,106v59,0,103,-20,132,-60r0,-92v-29,-39,-73,-59,-132,-59v-66,0,-120,42,-120,105xm401,-556r-51,0r-83,-106r-80,106r-51,0r95,-144r72,0","w":528},"\u00e3":{"d":"265,-495v109,0,187,52,187,163r0,332r-75,0r0,-55v-39,45,-93,67,-160,67v-88,1,-168,-66,-168,-160v0,-98,76,-159,168,-159v68,0,121,22,160,65r0,-87v1,-65,-55,-102,-122,-101v-58,0,-107,22,-148,67r-35,-52v51,-53,116,-80,193,-80xm125,-148v0,64,53,106,120,106v59,0,103,-20,132,-60r0,-92v-29,-39,-73,-59,-132,-59v-66,0,-120,42,-120,105xm422,-688v1,72,-30,134,-97,134v-52,0,-67,-49,-93,-78v-9,-10,-19,-14,-30,-14v-36,3,-49,40,-48,86r-45,0v-1,-72,30,-134,97,-134v52,0,68,49,94,78v9,10,18,14,29,14v36,-3,49,-40,48,-86r45,0","w":528},"\u00e4":{"d":"265,-495v109,0,187,52,187,163r0,332r-75,0r0,-55v-39,45,-93,67,-160,67v-88,1,-168,-66,-168,-160v0,-98,76,-159,168,-159v68,0,121,22,160,65r0,-87v1,-65,-55,-102,-122,-101v-58,0,-107,22,-148,67r-35,-52v51,-53,116,-80,193,-80xm125,-148v0,64,53,106,120,106v59,0,103,-20,132,-60r0,-92v-29,-39,-73,-59,-132,-59v-66,0,-120,42,-120,105xm367,-650v26,0,47,21,47,46v0,25,-22,46,-47,46v-25,0,-46,-21,-46,-46v0,-25,21,-46,46,-46xm161,-650v25,0,46,21,46,46v0,25,-21,46,-46,46v-25,0,-47,-21,-47,-46v0,-25,21,-46,47,-46","w":528},"\u00e5":{"d":"265,-495v109,0,187,52,187,163r0,332r-75,0r0,-55v-39,45,-93,67,-160,67v-88,1,-168,-66,-168,-160v0,-98,76,-159,168,-159v68,0,121,22,160,65r0,-87v1,-65,-55,-102,-122,-101v-58,0,-107,22,-148,67r-35,-52v51,-53,116,-80,193,-80xm125,-148v0,64,53,106,120,106v59,0,103,-20,132,-60r0,-92v-29,-39,-73,-59,-132,-59v-66,0,-120,42,-120,105xm363,-646v0,53,-45,99,-97,99v-52,0,-99,-47,-99,-99v0,-52,47,-99,99,-99v52,0,97,46,97,99xm207,-646v0,31,27,59,59,59v31,0,58,-28,58,-59v0,-31,-27,-59,-58,-59v-32,0,-59,28,-59,59","w":528},"\u00e6":{"d":"614,-495v147,0,237,121,229,278r-390,0v5,92,74,165,173,165v61,0,111,-20,150,-61r36,50v-51,50,-115,75,-192,75v-85,0,-152,-33,-200,-100v-47,67,-114,100,-199,100v-91,1,-172,-65,-172,-160v0,-97,75,-159,168,-159v68,0,121,21,160,64r0,-86v1,-65,-55,-102,-122,-101v-58,0,-107,22,-148,67r-35,-52v51,-53,116,-80,193,-80v93,0,148,35,164,106v40,-71,102,-106,185,-106xm769,-273v-2,-84,-64,-160,-159,-160v-92,0,-154,77,-158,160r317,0xm125,-148v0,64,53,106,120,106v67,0,116,-28,147,-85v-10,-23,-15,-45,-15,-65v-29,-41,-73,-61,-132,-61v-66,0,-120,42,-120,105","w":889},"\u00e7":{"d":"394,109v0,51,-50,81,-104,80v-43,0,-76,-10,-101,-30r19,-38v24,19,51,29,80,29v31,0,59,-13,61,-42v3,-42,-57,-44,-75,-18r-33,-19r22,-61v-126,-8,-216,-117,-216,-252v0,-141,100,-253,241,-253v75,0,134,28,177,84r-50,45v-30,-41,-71,-62,-123,-62v-101,-2,-167,83,-167,186v0,104,65,188,167,187v51,0,92,-21,123,-63r50,46v-39,51,-91,78,-158,83r-16,42v42,-29,103,2,103,56","w":496},"\u00e8":{"d":"127,-217v5,92,74,167,173,167v60,0,110,-21,150,-62r36,49v-51,50,-115,75,-192,75v-145,0,-247,-108,-247,-254v0,-136,103,-253,238,-253v149,0,240,120,232,278r-390,0xm443,-273v-2,-84,-64,-160,-159,-160v-92,0,-154,77,-158,160r317,0xm352,-556r-57,0r-169,-144r78,0","w":563},"\u00e9":{"d":"127,-217v5,92,74,167,173,167v60,0,110,-21,150,-62r36,49v-51,50,-115,75,-192,75v-145,0,-247,-108,-247,-254v0,-136,103,-253,238,-253v149,0,240,120,232,278r-390,0xm443,-273v-2,-84,-64,-160,-159,-160v-92,0,-154,77,-158,160r317,0xm446,-700r-169,144r-57,0r148,-144r78,0","w":563},"\u00ea":{"d":"127,-217v5,92,74,167,173,167v60,0,110,-21,150,-62r36,49v-51,50,-115,75,-192,75v-145,0,-247,-108,-247,-254v0,-136,103,-253,238,-253v149,0,240,120,232,278r-390,0xm443,-273v-2,-84,-64,-160,-159,-160v-92,0,-154,77,-158,160r317,0xm419,-556r-51,0r-83,-106r-80,106r-51,0r95,-144r72,0","w":563},"\u00eb":{"d":"127,-217v5,92,74,167,173,167v60,0,110,-21,150,-62r36,49v-51,50,-115,75,-192,75v-145,0,-247,-108,-247,-254v0,-136,103,-253,238,-253v149,0,240,120,232,278r-390,0xm443,-273v-2,-84,-64,-160,-159,-160v-92,0,-154,77,-158,160r317,0xm389,-650v26,0,47,21,47,46v0,25,-22,46,-47,46v-25,0,-46,-21,-46,-46v0,-25,21,-46,46,-46xm183,-650v25,0,46,21,46,46v0,25,-21,46,-46,46v-25,0,-47,-21,-47,-46v0,-25,21,-46,47,-46","w":563},"\u00ec":{"d":"178,-556r-57,0r-169,-144r78,0xm150,0r-75,0r0,-483r75,0r0,483","w":225},"\u00ed":{"d":"273,-700r-169,144r-57,0r148,-144r78,0xm150,0r-75,0r0,-483r75,0r0,483","w":225},"\u00ee":{"d":"246,-556r-51,0r-83,-106r-80,106r-51,0r95,-144r72,0xm150,0r-75,0r0,-483r75,0r0,483","w":225},"\u00ef":{"d":"216,-650v26,0,47,21,47,46v0,25,-22,46,-47,46v-25,0,-46,-21,-46,-46v0,-25,21,-46,46,-46xm10,-650v25,0,46,21,46,46v0,25,-21,46,-46,46v-25,0,-47,-21,-47,-46v0,-25,21,-46,47,-46xm150,0r-75,0r0,-483r75,0r0,483","w":225},"\u00f0":{"d":"47,-234v0,-134,90,-247,220,-245v65,0,118,29,158,88v-33,-60,-87,-117,-160,-170r-143,64r-18,-42r118,-52r-75,-48r41,-62v45,27,82,53,112,76r108,-48r17,41r-86,38v124,105,186,221,186,347v0,147,-93,259,-239,259v-140,0,-239,-107,-239,-246xm126,-234v0,97,62,179,160,179v98,0,160,-82,160,-179v0,-96,-62,-178,-160,-178v-98,0,-160,82,-160,178"},"\u00f1":{"d":"153,-413v33,-41,101,-82,173,-82v102,0,153,52,153,156r0,339r-74,0r0,-316v1,-79,-35,-111,-109,-112v-60,0,-116,38,-143,75r0,353r-75,0r0,-483r75,0r0,70xm433,-688v1,72,-30,134,-97,134v-52,0,-68,-49,-94,-78v-9,-10,-18,-14,-29,-14v-36,3,-49,40,-48,86r-45,0v-1,-72,30,-134,97,-134v52,0,67,49,93,78v9,10,19,14,30,14v36,-3,49,-40,48,-86r45,0","w":552},"\u00f2":{"d":"525,-242v0,141,-97,254,-239,254v-142,0,-239,-113,-239,-254v0,-141,97,-253,239,-253v142,0,239,112,239,253xm126,-242v0,99,61,187,160,187v99,0,160,-88,160,-187v0,-100,-61,-186,-160,-186v-99,0,-160,87,-160,186xm352,-556r-57,0r-169,-144r78,0"},"\u00f3":{"d":"525,-242v0,141,-97,254,-239,254v-142,0,-239,-113,-239,-254v0,-141,97,-253,239,-253v142,0,239,112,239,253xm126,-242v0,99,61,187,160,187v99,0,160,-88,160,-187v0,-100,-61,-186,-160,-186v-99,0,-160,87,-160,186xm446,-700r-169,144r-57,0r148,-144r78,0"},"\u00f4":{"d":"525,-242v0,141,-97,254,-239,254v-142,0,-239,-113,-239,-254v0,-141,97,-253,239,-253v142,0,239,112,239,253xm126,-242v0,99,61,187,160,187v99,0,160,-88,160,-187v0,-100,-61,-186,-160,-186v-99,0,-160,87,-160,186xm420,-556r-51,0r-83,-106r-80,106r-51,0r95,-144r72,0"},"\u00f5":{"d":"525,-242v0,141,-97,254,-239,254v-142,0,-239,-113,-239,-254v0,-141,97,-253,239,-253v142,0,239,112,239,253xm126,-242v0,99,61,187,160,187v99,0,160,-88,160,-187v0,-100,-61,-186,-160,-186v-99,0,-160,87,-160,186xm443,-688v1,72,-30,134,-97,134v-52,0,-68,-49,-94,-78v-9,-10,-18,-14,-29,-14v-36,3,-49,40,-48,86r-45,0v-1,-72,30,-134,97,-134v52,0,67,49,93,78v9,10,19,14,30,14v36,-3,49,-40,48,-86r45,0"},"\u00f6":{"d":"525,-242v0,141,-97,254,-239,254v-142,0,-239,-113,-239,-254v0,-141,97,-253,239,-253v142,0,239,112,239,253xm126,-242v0,99,61,187,160,187v99,0,160,-88,160,-187v0,-100,-61,-186,-160,-186v-99,0,-160,87,-160,186xm389,-650v26,0,47,21,47,46v0,25,-22,46,-47,46v-25,0,-46,-21,-46,-46v0,-25,21,-46,46,-46xm183,-650v25,0,46,21,46,46v0,25,-21,46,-46,46v-25,0,-47,-21,-47,-46v0,-25,21,-46,47,-46"},"\u00f7":{"d":"256,-572v25,0,46,20,46,45v0,25,-21,47,-46,47v-25,0,-46,-22,-46,-47v0,-25,21,-45,46,-45xm482,-311r-453,0r0,-52r453,0r0,52xm256,-190v25,0,46,21,46,46v0,25,-21,46,-46,46v-25,0,-46,-21,-46,-46v0,-25,21,-46,46,-46","w":511},"\u00f8":{"d":"525,-242v0,141,-97,254,-239,254v-55,0,-103,-15,-142,-45r-26,33r-54,0r48,-61v-43,-47,-65,-108,-65,-181v0,-141,97,-253,239,-253v53,0,98,14,137,41r23,-29r55,0r-45,57v46,48,69,109,69,184xm286,-55v99,2,161,-88,160,-187v0,-49,-13,-91,-38,-124r-220,277v27,23,59,34,98,34xm286,-428v-99,-2,-161,87,-160,186v0,48,11,88,34,121r218,-277v-25,-20,-56,-30,-92,-30"},"\u00f9":{"d":"259,-55v60,0,117,-36,142,-73r0,-355r75,0r0,483r-75,0r0,-68v-36,41,-99,80,-172,80v-103,0,-154,-51,-154,-154r0,-341r75,0r0,318v0,78,35,109,109,110xm344,-556r-57,0r-169,-144r78,0","w":551},"\u00fa":{"d":"259,-55v60,0,117,-36,142,-73r0,-355r75,0r0,483r-75,0r0,-68v-36,41,-99,80,-172,80v-103,0,-154,-51,-154,-154r0,-341r75,0r0,318v0,78,35,109,109,110xm437,-700r-169,144r-57,0r148,-144r78,0","w":551},"\u00fb":{"d":"259,-55v60,0,117,-36,142,-73r0,-355r75,0r0,483r-75,0r0,-68v-36,41,-99,80,-172,80v-103,0,-154,-51,-154,-154r0,-341r75,0r0,318v0,78,35,109,109,110xm409,-556r-51,0r-83,-106r-80,106r-51,0r95,-144r72,0","w":551},"\u00fc":{"d":"259,-55v60,0,117,-36,142,-73r0,-355r75,0r0,483r-75,0r0,-68v-36,41,-99,80,-172,80v-103,0,-154,-51,-154,-154r0,-341r75,0r0,318v0,78,35,109,109,110xm382,-650v26,0,47,21,47,46v0,25,-22,46,-47,46v-25,0,-46,-21,-46,-46v0,-25,21,-46,46,-46xm176,-650v25,0,46,21,46,46v0,25,-21,46,-46,46v-25,0,-47,-21,-47,-46v0,-25,21,-46,47,-46","w":551},"\u00fd":{"d":"49,189r11,-68v24,11,64,11,84,-3v30,-21,42,-77,61,-113r-202,-488r82,0r160,396r161,-396r81,0r-242,581v-31,79,-104,113,-196,91xm406,-700r-169,144r-57,0r148,-144r78,0","w":490},"\u00fe":{"d":"528,-242v0,143,-80,254,-215,254v-66,0,-120,-28,-163,-85r0,257r-75,0r0,-851r75,0r0,256v32,-46,90,-84,163,-84v134,0,215,110,215,253xm150,-133v23,40,84,78,144,78v98,1,155,-85,155,-187v0,-102,-57,-186,-155,-186v-60,0,-121,38,-144,77r0,218"},"\u00ff":{"d":"49,189r11,-68v24,11,64,11,84,-3v30,-21,42,-77,61,-113r-202,-488r82,0r160,396r161,-396r81,0r-242,581v-31,79,-104,113,-196,91xm348,-650v26,0,47,21,47,46v0,25,-22,46,-47,46v-25,0,-46,-21,-46,-46v0,-25,21,-46,46,-46xm142,-650v25,0,46,21,46,46v0,25,-21,46,-46,46v-25,0,-47,-21,-47,-46v0,-25,21,-46,47,-46","w":490},"\u0152":{"d":"375,-677v107,2,198,55,239,131r0,-121r437,0r0,74r-354,0r0,215r347,0r0,74r-347,0r0,230r354,0r0,74r-437,0r0,-121v-41,77,-131,132,-239,133v-191,4,-324,-153,-324,-345v0,-192,133,-347,324,-344xm385,-62v116,-2,196,-68,229,-162r0,-219v-33,-94,-112,-158,-229,-160v-151,-2,-248,117,-248,270v0,152,97,274,248,271","w":1105},"\u0153":{"d":"684,-495v149,0,240,120,232,278r-390,0v5,92,74,167,173,167v60,0,110,-21,150,-62r36,49v-51,50,-115,75,-192,75v-110,0,-173,-66,-208,-138v-41,92,-108,138,-199,138v-142,0,-239,-113,-239,-254v0,-141,97,-256,239,-253v107,2,166,64,200,138v30,-67,97,-138,198,-138xm843,-273v-3,-83,-65,-160,-159,-160v-92,0,-155,77,-159,160r318,0xm286,-54v99,0,160,-87,160,-188v0,-100,-61,-186,-160,-186v-99,0,-160,86,-160,186v0,101,61,188,160,188","w":962},"\u0178":{"d":"419,-819v26,0,47,21,47,46v0,25,-22,46,-47,46v-25,0,-46,-21,-46,-46v0,-25,21,-46,46,-46xm213,-819v25,0,46,21,46,46v0,25,-21,46,-46,46v-25,0,-47,-21,-47,-46v0,-25,21,-46,47,-46xm355,0r-83,0r0,-282r-263,-385r97,0r207,310r207,-310r97,0r-262,385r0,282","w":626},"\u02c6":{"d":"265,-556r-51,0r-83,-106r-80,106r-51,0r95,-144r72,0","w":265},"\u02dc":{"d":"313,-688v1,72,-30,134,-97,134v-52,0,-68,-49,-94,-78v-9,-10,-18,-14,-29,-14v-36,3,-49,40,-48,86r-45,0v-1,-72,30,-134,97,-134v52,0,67,49,93,78v9,10,19,14,30,14v36,-3,49,-40,48,-86r45,0","w":313},"\u2013":{"d":"563,-209r-533,0r0,-66r533,0r0,66","w":593},"\u2014":{"d":"803,-209r-773,0r0,-66r773,0r0,66","w":833},"\u2018":{"d":"110,-451v-38,0,-63,-34,-62,-76v1,-65,39,-121,80,-150r38,30v-27,17,-60,57,-65,93v34,-9,62,16,62,49v0,30,-24,55,-53,54","w":230},"\u2019":{"d":"113,-677v39,0,64,34,63,76v-1,66,-39,121,-81,151r-38,-31v27,-17,60,-57,65,-93v-33,10,-62,-17,-62,-49v0,-28,24,-55,53,-54","w":230},"\u201a":{"d":"113,-100v39,0,64,34,63,76v-1,66,-39,121,-81,151r-38,-31v28,-17,60,-56,65,-93v-33,10,-62,-17,-62,-49v0,-28,24,-55,53,-54","w":230},"\u201c":{"d":"116,-451v-38,0,-63,-34,-62,-76v1,-65,39,-122,81,-150r37,30v-27,17,-59,57,-64,93v34,-9,62,16,62,49v0,30,-25,55,-54,54xm276,-451v-38,0,-63,-34,-62,-76v1,-65,39,-122,81,-150r37,30v-27,17,-59,57,-64,93v34,-9,62,16,62,49v0,30,-25,55,-54,54","w":390},"\u201d":{"d":"274,-677v38,0,63,34,62,76v-1,66,-39,121,-81,151r-37,-31v27,-17,59,-57,64,-93v-32,10,-62,-17,-62,-49v0,-28,26,-55,54,-54xm113,-677v39,0,64,34,63,76v-1,66,-39,121,-81,151r-38,-31v27,-17,60,-57,65,-93v-33,10,-62,-17,-62,-49v0,-28,24,-55,53,-54","w":390},"\u201e":{"d":"113,-100v39,0,64,34,63,76v-1,66,-39,121,-81,151r-38,-31v28,-17,60,-56,65,-93v-33,10,-62,-17,-62,-49v0,-28,24,-55,53,-54xm274,-100v38,0,63,34,62,76v-1,66,-39,121,-81,151r-37,-31v27,-17,59,-57,64,-93v-32,10,-62,-17,-62,-49v0,-28,26,-55,54,-54","w":390},"\u2022":{"d":"180,-350v57,0,108,51,108,108v0,57,-51,107,-108,107v-57,0,-108,-50,-108,-107v0,-57,51,-108,108,-108","w":358},"\u2026":{"d":"115,-100v30,0,55,25,55,55v0,28,-27,55,-55,55v-28,0,-55,-27,-55,-55v0,-30,25,-55,55,-55xm345,-100v30,0,55,25,55,55v0,28,-27,55,-55,55v-28,0,-55,-27,-55,-55v0,-30,25,-55,55,-55xm576,-100v29,0,54,26,54,55v0,28,-26,55,-54,55v-28,0,-55,-27,-55,-55v0,-29,26,-55,55,-55","w":691},"\u2039":{"d":"265,-63r-75,0r-160,-180r160,-177r75,0r-160,177","w":295},"\u203a":{"d":"265,-243r-160,180r-75,0r160,-180r-160,-177r75,0","w":295},"\u20ac":{"d":"416,-62v81,0,150,-45,184,-97r70,38v-65,89,-149,133,-254,133v-168,0,-298,-107,-331,-249r-54,0r0,-52r44,0v-3,-40,-3,-49,0,-90r-44,0r0,-53r55,0v34,-139,163,-246,330,-246v107,0,192,44,253,132r-69,39v-34,-53,-103,-97,-184,-97v-121,0,-211,75,-242,172r302,0r0,53r-314,0v-4,30,-4,61,0,90r314,0r0,52r-302,0v30,98,121,175,242,175","w":695},"\u2122":{"d":"419,-447r-28,0r0,-182r-75,182r-8,0r-75,-182r0,182r-28,0r0,-220r43,0r64,160r64,-160r43,0r0,220xm169,-641r-62,0r0,194r-28,0r0,-194r-62,0r0,-26r152,0r0,26","w":454}}});
