/*!
 * The following copyright notice may not be removed under any circumstances.
 * 
 * Copyright:
 * Copyright (c) Mark Simonson, 2005. All rights reserved.
 * 
 * Description:
 * This is a protected webfont and is intended for CSS @font-face use ONLY.
 * Reverse engineering this font is strictly prohibited.
 */
Cufon.registerFont({"w":512,"face":{"font-family":"","font-weight":400,"font-stretch":"normal","units-per-em":"1000","panose-1":"2 0 5 6 3 0 0 2 0 4","ascent":"790","descent":"-210","x-height":"12","bbox":"-65 -874 803 199","underline-thickness":"20","underline-position":"-113","unicode-range":"U+0020-U+2122"},"glyphs":{" ":{"w":215},"!":{"d":"144,-185r-59,0r-16,-482r90,0xm168,-44v0,28,-26,54,-54,54v-29,0,-53,-26,-53,-54v0,-27,25,-53,53,-53v28,0,54,26,54,53","w":228},"\"":{"d":"54,-633v-2,-37,50,-60,76,-31v9,9,14,19,13,31r-26,219r-37,0v-17,-136,-26,-209,-26,-219xm197,-633v-2,-38,50,-59,76,-31v9,9,14,19,13,31r-27,219r-36,0v-17,-136,-26,-209,-26,-219","w":340},"#":{"d":"263,0r-59,0r53,-182r-92,0r-51,182r-59,0r52,-182r-88,0r14,-51r89,0r56,-201r-88,0r12,-51r91,0r51,-182r59,0r-51,182r90,0r51,-182r59,0r-52,182r88,0r-13,51r-89,0r-57,201r91,0r-14,51r-92,0xm270,-233r57,-201r-90,0r-57,201r90,0","w":507},"$":{"d":"434,-174v-1,100,-65,172,-162,183r0,91r-59,0r0,-89v-75,-4,-136,-32,-182,-83r44,-61v37,44,83,68,138,73r0,-250v-52,-25,-95,-48,-129,-88v-19,-23,-34,-62,-33,-105v-1,-96,73,-164,162,-173r0,-92r59,0r0,91v61,6,110,29,149,70r-41,60v-29,-32,-65,-51,-108,-57r0,227v49,24,72,37,110,71v33,30,52,72,52,132xm272,-64v48,-11,81,-51,81,-105v0,-61,-37,-86,-81,-112r0,217xm213,-604v-44,9,-82,45,-81,97v1,55,39,77,81,101r0,-198","w":469},"%":{"d":"311,-512v0,89,-54,164,-140,164v-86,0,-141,-75,-141,-164v0,-89,55,-165,141,-165v87,0,140,75,140,165xm175,0r-47,0r350,-667r48,0xm621,-151v0,88,-56,163,-141,163v-86,0,-141,-74,-141,-163v0,-90,54,-166,141,-166v85,0,141,78,141,166xm86,-512v0,59,31,115,85,115v54,0,84,-57,84,-115v0,-60,-29,-116,-84,-116v-55,0,-85,57,-85,116xm395,-151v0,59,31,114,85,114v54,0,85,-55,85,-114v0,-61,-30,-117,-85,-117v-55,0,-85,57,-85,117","w":650},"&":{"d":"251,-677v73,0,126,55,126,130v0,76,-47,121,-85,153r-51,38v37,65,84,130,119,179v21,-42,38,-92,53,-149r61,27v-22,72,-46,131,-72,176r103,123r-90,0r-54,-66v-44,52,-96,78,-156,78v-100,0,-170,-74,-168,-180v2,-106,54,-151,120,-202v-29,-60,-44,-110,-44,-149v-2,-87,55,-158,138,-158xm113,-172v0,70,38,123,101,124v39,0,76,-22,109,-67v-62,-80,-86,-117,-136,-201v-49,41,-74,89,-74,144xm253,-621v-48,0,-70,47,-69,103v0,31,10,68,30,110v51,-38,94,-64,97,-137v2,-44,-20,-76,-58,-76","w":522},"'":{"d":"54,-633v-2,-37,50,-60,76,-31v9,9,14,19,13,31r-26,219r-37,0v-17,-136,-26,-209,-26,-219","w":197},"(":{"d":"211,-658v-53,131,-85,241,-86,415v0,140,29,278,86,414r-47,28v-157,-258,-157,-627,0,-884","w":229},")":{"d":"18,-658v53,131,85,241,86,415v0,140,-29,278,-86,414r47,28v157,-263,157,-621,0,-884","w":229},"*":{"d":"183,-391r-44,0r5,-115r-96,63r-22,-38r102,-53r-102,-52r22,-38r96,62r-5,-115r44,0r-6,115r97,-62r22,38r-102,52r102,53r-22,38r-97,-63","w":322},"+":{"d":"409,-312r-162,0r0,184r-55,0r0,-184r-163,0r0,-51r163,0r0,-177r55,0r0,177r162,0r0,51","w":438},",":{"d":"113,-97v37,1,61,34,60,75v-1,64,-39,120,-80,148r-36,-29v27,-19,59,-56,64,-93v-35,7,-60,-17,-60,-48v-1,-29,23,-54,52,-53","w":229},"-":{"d":"238,-210r-208,0r0,-64r208,0r0,64","w":268},".":{"d":"168,-44v0,28,-26,54,-54,54v-29,0,-53,-26,-53,-54v0,-27,25,-53,53,-53v28,0,54,26,54,53","w":229},"\/":{"d":"56,20r-56,0r192,-707r56,0","w":248},"0":{"d":"355,-19v-55,40,-142,40,-196,0v-110,-81,-135,-306,-93,-476v22,-89,85,-182,191,-182v106,0,169,94,191,182v42,172,15,397,-93,476xm194,-82v33,31,93,31,126,0v52,-51,65,-149,65,-251v0,-182,-43,-273,-128,-273v-85,0,-128,91,-128,273v0,103,13,199,65,251","w":514},"1":{"d":"245,0r-79,0r0,-562r-103,110r-48,-50r160,-165r70,0r0,667","w":315},"2":{"d":"240,-677v125,0,214,101,182,237v-8,36,-40,90,-58,118v-50,78,-136,177,-199,251r266,0r0,71r-379,0r0,-65v123,-141,198,-228,223,-263v47,-67,71,-123,73,-166v2,-66,-48,-112,-109,-112v-60,0,-107,28,-141,84r-53,-48v47,-71,112,-107,195,-107","w":491},"3":{"d":"426,-180v0,116,-78,192,-199,192v-92,0,-165,-50,-198,-111r53,-47v34,58,82,87,143,87v78,1,122,-49,122,-127v0,-102,-80,-130,-181,-120r0,-73v6,1,23,1,51,1v70,0,121,-40,121,-111v0,-73,-45,-117,-115,-117v-53,0,-99,26,-136,79r-50,-45v44,-70,108,-105,191,-105v111,0,189,64,189,177v0,77,-57,142,-119,155v65,11,128,82,128,165","w":474},"4":{"d":"366,0r-79,0r0,-171r-264,0r0,-69r242,-427r101,0r0,426r74,0r0,70r-74,0r0,171xm287,-241r0,-339r-191,339r191,0","w":463},"5":{"d":"448,-206v0,121,-82,218,-199,218v-87,0,-152,-36,-197,-109r53,-48v35,57,82,86,141,86v74,0,121,-70,121,-146v0,-84,-39,-145,-116,-146v-46,0,-86,21,-121,63r-59,-21r0,-358r341,0r0,71r-262,0r0,233v31,-39,73,-58,124,-58v109,1,174,94,174,215","w":493},"6":{"d":"451,-205v0,116,-75,219,-192,217v-130,-3,-180,-103,-201,-216v-17,-93,-14,-215,11,-298v27,-90,93,-175,204,-175v67,0,119,28,156,83r-44,56v-42,-76,-140,-93,-196,-26v-48,57,-62,142,-61,245v22,-48,80,-100,148,-99v110,1,175,90,175,213xm255,-349v-62,0,-103,54,-126,102v5,67,16,115,53,155v19,22,44,33,73,33v75,2,115,-70,115,-144v0,-90,-37,-146,-115,-146","w":493},"7":{"d":"184,0r-85,0r210,-596r-283,0r0,-71r373,0r0,55","w":424},"8":{"d":"442,-165v0,111,-84,177,-198,177v-115,0,-199,-65,-199,-177v0,-87,68,-154,133,-179v-62,-23,-123,-80,-123,-163v0,-107,86,-170,189,-170v103,0,189,63,189,170v0,82,-62,141,-124,163v65,25,133,92,133,179xm244,-606v-65,0,-109,44,-109,110v0,66,63,110,109,122v54,-11,107,-57,109,-122v2,-65,-44,-110,-109,-110xm126,-174v-2,69,51,115,118,115v65,0,118,-47,118,-115v0,-39,-14,-70,-43,-95v-29,-25,-54,-39,-75,-42v-22,3,-48,17,-76,42v-28,25,-42,56,-42,95","w":487},"9":{"d":"42,-461v0,-116,75,-220,193,-217v129,3,181,103,200,216v30,176,2,376,-111,445v-30,19,-65,28,-104,28v-67,0,-118,-28,-155,-83r44,-56v40,76,141,93,197,26v47,-57,63,-143,59,-245v-22,48,-79,100,-147,99v-111,-1,-176,-90,-176,-213xm123,-463v0,88,38,146,115,146v61,0,104,-54,126,-102v-9,-91,-30,-184,-125,-188v-76,-3,-116,70,-116,144","w":493},":":{"d":"168,-436v0,28,-26,52,-54,52v-28,0,-53,-24,-53,-52v0,-28,24,-54,53,-54v28,0,54,26,54,54xm168,-44v0,28,-26,54,-54,54v-29,0,-53,-26,-53,-54v0,-27,25,-53,53,-53v28,0,54,26,54,53","w":226},";":{"d":"168,-437v0,29,-26,53,-54,53v-29,0,-53,-24,-53,-53v0,-29,24,-53,53,-53v28,0,54,24,54,53xm113,-98v36,0,61,33,60,74v-1,65,-39,119,-80,148r-36,-29v27,-17,59,-57,64,-93v-33,9,-60,-16,-60,-48v0,-28,24,-53,52,-52","w":228},"<":{"d":"409,-125r-380,-184r0,-51r380,-184r0,60r-318,150r318,148r0,61","w":438},"=":{"d":"409,-405r-380,0r0,-51r380,0r0,51xm409,-212r-380,0r0,-51r380,0r0,51","w":438},">":{"d":"409,-309r-380,184r0,-61r318,-148r-318,-150r0,-60r380,184r0,51","w":438},"?":{"d":"194,-677v94,0,166,60,166,148v-1,84,-55,127,-100,169v-25,23,-53,55,-54,98v0,21,8,38,23,51r-60,27v-37,-34,-42,-97,-18,-145v35,-70,125,-90,129,-188v2,-51,-41,-90,-97,-90v-46,0,-84,19,-114,58r-41,-52v42,-51,97,-76,166,-76xm245,-44v0,28,-24,54,-53,54v-28,0,-54,-26,-54,-54v0,-27,26,-53,54,-53v28,0,53,26,53,53","w":388},"@":{"d":"70,-231v0,150,96,270,242,268v55,0,109,-19,162,-56r17,26v-58,42,-119,63,-183,63v-164,2,-275,-131,-273,-300v2,-155,85,-286,185,-352v56,-37,116,-56,179,-56v155,-2,258,123,258,281v0,79,-16,144,-49,195v-33,51,-70,77,-111,77v-50,1,-82,-35,-84,-82v-36,55,-81,82,-134,82v-77,-1,-122,-58,-122,-143v0,-126,92,-271,210,-271v52,0,87,34,100,75r12,-59r65,0r-58,274v-7,36,3,72,36,72v13,0,26,-7,41,-22v34,-36,59,-119,59,-198v0,-143,-87,-249,-225,-247v-132,1,-234,95,-283,193v-30,57,-44,117,-44,180xm226,-234v0,55,24,95,76,95v43,0,83,-28,121,-85r32,-150v-9,-34,-35,-71,-78,-71v-88,0,-151,121,-151,211","w":693},"A":{"d":"504,0r-86,0r-43,-151r-238,0r-43,151r-86,0r201,-667r95,0xm358,-222r-102,-357r-102,357r204,0"},"B":{"d":"468,-180v0,109,-61,180,-170,180r-228,0r0,-667r222,0v103,-1,165,68,165,170v0,78,-42,136,-102,153v65,8,113,88,113,164xm375,-486v0,-64,-33,-110,-98,-110r-127,0r0,219r127,0v65,1,98,-45,98,-109xm386,-188v0,-67,-37,-118,-105,-118r-131,0r0,235r131,0v71,0,105,-45,105,-117","w":517},"C":{"d":"307,-59v67,-1,108,-47,131,-99r66,31v-47,93,-112,139,-197,139v-169,0,-260,-162,-260,-345v0,-101,24,-185,71,-249v47,-64,110,-96,189,-96v84,0,149,43,196,130r-66,32v-30,-61,-73,-91,-130,-91v-54,0,-96,27,-129,77v-63,95,-64,298,0,394v34,51,75,77,129,77","w":534},"D":{"d":"518,-333v0,184,-93,333,-270,333r-178,0r0,-667r178,0v176,-2,270,151,270,334xm435,-333v0,-142,-55,-262,-187,-263r-98,0r0,525r98,0v130,-1,187,-122,187,-262","w":565},"E":{"d":"413,0r-343,0r0,-667r343,0r0,71r-263,0r0,219r256,0r0,71r-256,0r0,235r263,0r0,71","w":462},"F":{"d":"150,0r-80,0r0,-667r343,0r0,71r-263,0r0,219r256,0r0,71r-256,0r0,306","w":451},"G":{"d":"307,12v-169,-1,-260,-160,-260,-345v0,-103,23,-187,71,-250v48,-63,111,-95,189,-95v85,0,152,42,199,126r-64,33v-55,-112,-197,-116,-264,-13v-62,95,-64,305,0,398v34,49,76,75,129,75v53,0,95,-19,126,-57r0,-155r-161,0r0,-70r236,0r0,256v-51,65,-118,97,-201,97","w":564},"H":{"d":"505,0r-79,0r0,-308r-276,0r0,308r-80,0r0,-667r80,0r0,289r276,0r0,-289r79,0r0,667","w":575},"I":{"d":"150,0r-80,0r0,-667r80,0r0,667","w":220},"J":{"d":"329,-172v2,117,-69,184,-180,184v-57,0,-104,-20,-140,-61r36,-62v27,35,59,52,98,52v68,0,107,-46,106,-115r0,-493r80,0r0,495","w":399},"K":{"d":"496,0r-95,0r-195,-294r-56,81r0,213r-80,0r0,-667r80,0r0,346r233,-346r95,0r-224,316","w":510},"L":{"d":"386,0r-322,0r0,-667r80,0r0,596r242,0r0,71","w":414},"M":{"d":"614,0r-79,0r0,-540r-177,540r-31,0r-177,-540r0,540r-80,0r0,-667r111,0r161,491r163,-491r109,0r0,667","w":684},"N":{"d":"503,0r-76,0r-277,-508r0,508r-80,0r0,-667r80,0r274,498r0,-498r79,0r0,667","w":573},"O":{"d":"300,12v-79,0,-140,-34,-186,-98v-89,-122,-89,-372,0,-494v46,-64,107,-98,186,-98v79,0,140,34,186,98v89,122,89,372,0,494v-46,64,-107,98,-186,98xm174,-136v59,101,194,101,252,0v84,-147,53,-471,-126,-471v-54,0,-95,26,-126,77v-59,96,-57,296,0,394","w":601},"P":{"d":"458,-467v0,112,-70,200,-185,200r-123,0r0,267r-80,0r0,-667r203,0v116,-3,185,87,185,200xm376,-467v0,-73,-41,-129,-111,-129r-115,0r0,258r115,0v70,1,111,-56,111,-129","w":488},"Q":{"d":"300,12v-79,0,-140,-34,-186,-98v-89,-122,-89,-372,0,-494v46,-64,107,-98,186,-98v79,0,141,33,186,98v45,65,68,147,68,247v0,117,-29,208,-87,272r38,58r-56,36r-34,-52v-34,21,-72,31,-115,31xm174,-136v43,73,125,100,200,55r-79,-123r58,-35r69,108v65,-91,62,-300,4,-399v-58,-100,-194,-101,-252,0v-56,98,-58,297,0,394","w":601},"R":{"d":"458,-468v0,102,-55,173,-133,189r140,279r-90,0r-129,-267r-96,0r0,267r-80,0r0,-667r204,0v110,-1,184,85,184,199xm376,-467v0,-73,-41,-129,-111,-129r-115,0r0,259r115,0v70,1,111,-57,111,-130","w":510},"S":{"d":"432,-174v0,112,-81,186,-203,186v-83,0,-149,-28,-200,-84r44,-61v41,49,93,74,156,74v73,0,122,-44,122,-110v0,-106,-120,-128,-195,-169v-55,-30,-107,-82,-107,-165v0,-102,87,-175,192,-175v75,0,134,24,178,71r-41,60v-36,-40,-82,-60,-139,-60v-60,0,-112,41,-109,100v4,85,89,102,151,136v75,41,151,85,151,197","w":472},"T":{"d":"263,0r-79,0r0,-596r-159,0r0,-71r397,0r0,71r-159,0r0,596","w":447},"U":{"d":"499,-216v1,141,-77,228,-214,228v-137,0,-215,-87,-215,-228r0,-451r80,0r0,451v-1,97,43,157,135,157v90,0,134,-61,134,-157r0,-451r80,0r0,451","w":569},"V":{"d":"304,0r-95,0r-201,-667r86,0r162,571r162,-571r86,0"},"W":{"d":"552,0r-85,0r-109,-526r-109,526r-84,0r-149,-667r85,0r110,543r114,-543r67,0r114,543r110,-543r85,0","w":717},"X":{"d":"504,0r-92,0r-156,-276r-156,276r-92,0r200,-341r-189,-326r93,0r144,262r144,-262r93,0r-189,326"},"Y":{"d":"290,0r-79,0r0,-282r-206,-385r89,0r157,308r157,-308r88,0r-206,385r0,282","w":501},"Z":{"d":"423,0r-383,0r0,-68r281,-528r-281,0r0,-71r376,0r0,66r-282,530r289,0r0,71","w":463},"[":{"d":"195,190r-158,0r0,-868r158,0r0,53r-102,0r0,762r102,0r0,53","w":212},"\\":{"d":"192,20r-192,-707r57,0r192,707r-57,0","w":248},"]":{"d":"175,190r-158,0r0,-53r102,0r0,-762r-102,0r0,-53r158,0r0,868","w":212},"^":{"d":"362,-333r-58,0r-114,-277r-113,277r-58,0r144,-334r55,0","w":381},"_":{"d":"425,93r-428,0r0,-53r428,0r0,53","w":422},"`":{"d":"186,-556r-51,0r-135,-144r73,0","w":186},"\u02cb":{"d":"186,-556r-51,0r-135,-144r73,0","w":186},"a":{"d":"227,-495v100,0,160,54,160,157r0,338r-72,0r0,-53v-30,43,-73,65,-128,65v-84,0,-146,-71,-146,-161v0,-91,61,-159,146,-159v56,0,99,21,128,63r0,-85v1,-64,-36,-103,-99,-103v-46,0,-87,20,-122,59r-32,-50v45,-47,100,-71,165,-71xm114,-148v0,59,37,108,97,108v47,0,82,-20,104,-60r0,-95v-22,-41,-57,-61,-104,-61v-60,0,-97,49,-97,108","w":452},"b":{"d":"247,-431v-49,0,-94,42,-110,80r0,221v17,38,60,78,110,78v86,0,116,-94,116,-189v0,-96,-30,-190,-116,-190xm265,12v-58,0,-105,-39,-128,-81r0,69r-71,0r0,-667r71,0r0,254v31,-55,73,-82,128,-82v120,2,173,120,173,254v0,135,-52,253,-173,253","w":481},"c":{"d":"117,-242v0,96,42,190,132,190v37,0,68,-16,93,-49r39,49v-34,43,-80,64,-138,64v-128,1,-201,-119,-201,-254v0,-135,72,-254,201,-253v57,0,103,21,138,64r-39,49v-24,-33,-55,-49,-93,-49v-89,0,-132,93,-132,189","w":407},"d":{"d":"42,-241v0,-135,53,-254,174,-254v55,0,98,27,127,82r0,-254r72,0r0,667r-72,0r0,-69v-23,42,-68,81,-127,81v-120,0,-174,-119,-174,-253xm117,-241v0,95,32,187,117,189v49,0,94,-41,109,-78r0,-222v-15,-38,-60,-79,-109,-79v-86,0,-118,95,-117,190","w":481},"e":{"d":"116,-218v1,92,51,170,140,170v46,0,84,-20,115,-60r38,43v-42,51,-95,77,-159,77v-133,1,-208,-115,-208,-254v0,-132,71,-254,197,-253v137,1,197,128,191,277r-314,0xm359,-272v-1,-80,-39,-163,-122,-163v-80,0,-119,87,-121,163r243,0","w":469},"f":{"d":"83,-541v-1,-81,44,-136,121,-136v36,0,65,11,86,32r-28,53v-13,-14,-29,-21,-46,-21v-41,0,-61,24,-61,72r0,58r81,0r0,63r-81,0r0,420r-72,0r0,-420r-64,0r0,-63r64,0r0,-58","w":253},"g":{"d":"415,3v3,128,-73,191,-191,193v-67,0,-121,-20,-162,-61r33,-59v33,37,75,56,126,56v76,-1,124,-47,122,-129r0,-80v-23,43,-68,83,-127,83v-121,0,-174,-115,-174,-250v0,-134,54,-251,174,-251v55,0,98,27,127,82r0,-70r72,0r0,486xm117,-244v0,95,32,186,117,186v49,0,93,-42,109,-80r0,-214v-16,-38,-60,-79,-109,-79v-85,0,-118,93,-117,187","w":481},"h":{"d":"137,-414v26,-40,80,-81,141,-81v81,0,122,43,122,130r0,365r-72,0r0,-345v0,-57,-26,-86,-77,-86v-51,0,-94,41,-114,77r0,354r-71,0r0,-667r71,0r0,253","w":466},"i":{"d":"150,-602v0,26,-22,49,-49,49v-26,0,-49,-23,-49,-49v0,-26,23,-49,49,-49v27,0,49,23,49,49xm137,0r-71,0r0,-483r71,0r0,483","w":203},"j":{"d":"150,-602v0,26,-22,49,-49,49v-26,0,-49,-23,-49,-49v0,-26,23,-49,49,-49v27,0,49,23,49,49xm16,196v-33,0,-60,-11,-81,-34r26,-55v12,17,28,25,49,25v37,0,56,-24,56,-73r0,-542r71,0r0,542v0,91,-40,137,-121,137","w":203},"k":{"d":"424,0r-85,0r-133,-218r-69,87r0,131r-71,0r0,-667r71,0r0,446r202,-262r84,0r-168,217","w":439},"l":{"d":"137,0r-71,0r0,-667r71,0r0,667","w":203},"m":{"d":"378,-409v21,-41,78,-86,137,-86v75,0,112,42,112,126r0,369r-72,0r0,-349v0,-55,-22,-82,-67,-82v-47,0,-89,42,-106,77r0,354r-72,0r0,-349v0,-55,-22,-82,-67,-82v-48,1,-88,42,-106,77r0,354r-71,0r0,-483r71,0r0,69v20,-36,78,-81,133,-81v59,0,101,35,108,86","w":693},"n":{"d":"137,-414v26,-40,80,-81,141,-81v81,0,122,44,122,131r0,364r-72,0r0,-343v0,-59,-26,-88,-77,-88v-51,0,-94,41,-114,77r0,354r-71,0r0,-483r71,0r0,69","w":466},"o":{"d":"436,-242v0,134,-68,254,-197,254v-129,0,-197,-121,-197,-254v0,-134,68,-253,197,-253v129,0,197,120,197,253xm118,-242v0,94,34,189,121,190v87,0,122,-96,122,-190v0,-93,-35,-189,-122,-189v-86,0,-121,97,-121,189","w":478},"p":{"d":"438,-242v0,135,-52,254,-173,254v-55,0,-97,-27,-128,-82r0,254r-71,0r0,-667r71,0r0,69v23,-43,69,-81,128,-81v120,0,173,119,173,253xm137,-132v16,38,61,80,110,80v86,0,116,-95,116,-190v0,-96,-30,-189,-116,-189v-50,0,-94,40,-110,78r0,221","w":479},"q":{"d":"116,-242v0,96,30,190,116,190v49,0,94,-42,110,-80r0,-221v-17,-38,-60,-78,-110,-78v-86,0,-116,94,-116,189xm214,-495v59,0,104,38,128,81r0,-69r72,0r0,667r-72,0r0,-254v-31,55,-73,82,-128,82v-120,-2,-173,-120,-173,-254v0,-135,52,-253,173,-253","w":479},"r":{"d":"274,-420v-65,-13,-116,36,-137,77r0,343r-71,0r0,-483r71,0r0,77v35,-58,81,-87,137,-87r0,73","w":291},"s":{"d":"352,-126v0,85,-71,138,-161,138v-70,0,-125,-23,-164,-69r36,-50v33,41,75,61,126,61v52,1,96,-29,93,-78v-5,-77,-98,-86,-156,-115v-43,-22,-86,-62,-85,-126v0,-79,69,-130,154,-130v61,0,110,21,148,62r-34,49v-27,-35,-64,-53,-113,-53v-47,0,-86,27,-86,70v0,45,48,64,86,79v73,29,155,61,156,162","w":388},"t":{"d":"176,12v-64,0,-96,-36,-96,-109r0,-323r-64,0r0,-63r64,0r0,-132r72,0r0,132r81,0r0,63r-81,0r0,310v-6,64,52,72,81,39r22,54v-21,19,-47,29,-79,29","w":263},"u":{"d":"215,-52v51,0,93,-40,113,-75r0,-356r72,0r0,483r-72,0r0,-67v-27,40,-78,79,-140,79v-81,0,-122,-43,-122,-130r0,-365r71,0r0,344v0,58,26,87,78,87","w":465},"v":{"d":"244,0r-79,0r-159,-483r78,0r121,397r121,-397r77,0","w":409},"w":{"d":"497,0r-73,0r-104,-388r-104,388r-73,0r-130,-483r75,0r95,386r102,-386r67,0r104,386r95,-386r76,0","w":639},"x":{"d":"395,0r-80,0r-111,-194r-112,194r-80,0r148,-246r-140,-237r80,0r104,184r103,-184r80,0r-140,237","w":407},"y":{"d":"41,189r12,-64v16,10,53,10,67,-3v25,-22,33,-77,47,-112r-161,-493r78,0r121,396r121,-396r77,0r-194,584v-20,61,-49,93,-120,95v-19,0,-35,-2,-48,-7","w":409},"z":{"d":"345,0r-302,0r0,-56r210,-364r-210,0r0,-63r298,0r0,55r-210,365r214,0r0,63","w":388},"{":{"d":"114,71v-1,34,23,66,54,66r46,0r0,53r-46,0v-60,1,-110,-55,-110,-119r0,-221v0,-37,-17,-70,-52,-70r0,-48v35,0,52,-33,52,-70r0,-221v-3,-64,50,-120,110,-119r46,0r0,53r-46,0v-31,0,-54,31,-54,66r0,227v0,46,-15,75,-45,88v30,13,45,42,45,88r0,227","w":231},"|":{"d":"124,20r-54,0r0,-707r54,0r0,707","w":194},"}":{"d":"174,71v3,64,-51,120,-111,119r-46,0r0,-53r46,0v31,0,54,-32,54,-66r0,-227v0,-46,15,-75,45,-88v-30,-13,-45,-42,-45,-88r0,-227v1,-35,-23,-66,-54,-66r-46,0r0,-53r46,0v60,-1,111,55,111,119r0,221v0,37,17,70,52,70r0,48v-35,0,-52,33,-52,70r0,221","w":231},"~":{"d":"368,-667r54,5v-6,66,-11,106,-29,159v-15,44,-42,78,-94,79v-53,2,-81,-53,-91,-96v-8,-36,-21,-95,-57,-95v-21,0,-36,16,-46,47v-10,31,-18,79,-23,145r-55,-6v6,-65,12,-107,30,-159v15,-44,42,-77,94,-78v53,-2,82,52,91,96v8,36,21,96,57,96v20,0,35,-15,45,-46v10,-31,18,-80,24,-147","w":449},"\u00a0":{"w":215},"\u00a1":{"d":"69,184r15,-482r60,0r15,482r-90,0xm114,-386v-28,0,-53,-26,-53,-53v0,-28,24,-54,53,-54v28,0,54,26,54,54v0,27,-26,53,-54,53","w":228},"\u00a2":{"d":"42,-242v0,-124,60,-230,162,-249r0,-74r57,0r0,71v49,3,89,24,120,63r-39,49v-21,-29,-48,-45,-81,-48r0,378v31,-3,58,-20,81,-49r39,49v-29,39,-69,60,-120,63r0,89r-57,0r0,-92v-102,-19,-162,-125,-162,-250xm204,-422v-87,32,-109,198,-64,294v15,33,36,55,64,67r0,-361","w":407},"\u00a3":{"d":"46,-52v72,-37,139,-119,96,-218r-117,0r0,-52r86,0v-36,-48,-60,-86,-63,-162v-4,-103,88,-195,191,-193v86,1,146,47,170,113r-63,34v-14,-42,-48,-80,-101,-80v-65,0,-112,57,-112,128v0,71,40,118,66,160r113,0r0,52r-90,0v22,78,-20,151,-65,185v15,-7,30,-10,45,-10v33,0,94,37,124,37v33,0,67,-19,81,-37r31,62v-26,31,-65,46,-117,46v-49,0,-107,-45,-149,-44v-27,0,-59,13,-98,38","w":450},"\u00a4":{"d":"486,-137r-29,29r-56,-57v-76,68,-204,68,-280,0r-57,57r-28,-29r56,-56v-67,-81,-67,-201,0,-280r-56,-57r28,-28r57,56v76,-67,203,-67,280,0r56,-56r29,28r-56,57v67,79,67,200,0,280xm261,-162v92,0,171,-79,171,-171v0,-92,-79,-171,-171,-171v-92,0,-171,79,-171,171v0,92,79,171,171,171","w":522},"\u00a5":{"d":"290,0r-79,0r0,-123r-189,0r0,-51r189,0r0,-108r-189,0r0,-51r161,0r-178,-334r89,0r157,308r157,-308r88,0r-179,334r161,0r0,51r-188,0r0,108r188,0r0,51r-188,0r0,123","w":501},"\u00a6":{"d":"124,20r-54,0r0,-316r54,0r0,316xm124,-371r-54,0r0,-316r54,0r0,316","w":194},"\u00a7":{"d":"196,-623v-47,-1,-89,28,-86,73v5,76,99,84,156,114v44,23,87,63,86,129v0,56,-28,96,-83,121v55,33,83,75,83,128v1,85,-72,139,-161,139v-67,0,-122,-23,-163,-69r35,-48v34,41,76,62,125,62v52,0,97,-32,94,-81v-4,-79,-97,-90,-156,-120v-43,-22,-86,-60,-85,-124v0,-63,47,-107,100,-119v-67,-34,-100,-78,-100,-132v0,-77,69,-127,151,-127v63,0,114,21,151,63r-34,44v-30,-35,-68,-53,-113,-53xm284,-297v0,-42,-28,-74,-85,-97v-61,13,-91,42,-91,86v0,23,9,41,26,55v17,14,45,29,82,45v45,-21,68,-51,68,-89","w":390},"\u00a8":{"d":"221,-649v24,0,45,21,45,45v0,25,-20,45,-45,45v-25,0,-45,-20,-45,-45v0,-24,21,-45,45,-45xm47,-649v23,0,45,22,45,45v0,24,-21,45,-45,45v-25,0,-45,-20,-45,-45v0,-24,21,-45,45,-45","w":268},"\u00a9":{"d":"389,-679v186,0,345,160,345,345v0,186,-160,345,-345,345v-185,0,-345,-161,-345,-345v0,-186,160,-345,345,-345xm389,-19v168,0,315,-148,315,-315v0,-169,-147,-315,-315,-315v-168,0,-315,147,-315,315v0,167,148,315,315,315xm392,-153v52,0,97,-27,120,-59r25,25v-38,44,-86,66,-145,66v-114,0,-209,-98,-209,-214v0,-117,93,-213,209,-213v60,0,108,22,145,65r-25,25v-22,-32,-70,-57,-120,-57v-95,-1,-173,80,-173,180v0,97,80,184,173,182","w":778},"\u00aa":{"d":"221,-538v1,-42,-26,-65,-66,-65v-33,0,-60,14,-83,41r-24,-38v31,-32,70,-48,115,-48v76,0,114,37,114,112r0,210r-56,0r0,-34v-21,28,-50,42,-88,42v-56,0,-99,-45,-99,-104v0,-61,42,-103,99,-103v39,0,68,13,88,40r0,-53xm90,-423v0,39,24,68,63,67v31,0,54,-13,68,-38r0,-57v-14,-25,-37,-38,-68,-38v-38,-1,-63,28,-63,66","w":329},"\u00ab":{"d":"352,-63r-67,0r-125,-180r125,-177r67,0r-125,177xm222,-63r-67,0r-125,-180r125,-177r67,0r-125,177","w":382},"\u00ac":{"d":"409,-456r0,244r-53,0r0,-193r-327,0r0,-51r380,0","w":441},"\u00ad":{"d":"238,-210r-208,0r0,-64r208,0r0,64","w":268},"\u00ae":{"d":"247,-677v116,0,212,96,212,212v0,114,-98,212,-212,212v-114,0,-212,-98,-212,-212v0,-114,98,-212,212,-212xm247,-282v99,0,183,-84,183,-183v0,-100,-83,-183,-183,-183v-100,0,-183,83,-183,183v0,99,84,183,183,183xm342,-512v0,39,-34,70,-62,72r65,97r-40,0r-63,-96r-44,0r0,96r-32,0r0,-243r99,0v42,-1,77,31,77,74xm265,-468v21,1,44,-22,44,-44v0,-24,-21,-46,-44,-46r-67,0r0,90r67,0","w":494},"\u00af":{"d":"306,-591r-306,0r0,-46r306,0r0,46","w":306},"\u203e":{"d":"306,-591r-306,0r0,-46r306,0r0,46","w":306},"\u00b0":{"d":"144,-677v65,0,122,57,122,122v0,64,-58,120,-122,120v-65,0,-121,-55,-121,-120v0,-65,56,-122,121,-122xm144,-482v40,0,75,-34,75,-73v0,-40,-35,-75,-75,-75v-40,0,-74,35,-74,75v0,39,34,73,74,73","w":289},"\u00b1":{"d":"409,-318r-162,0r0,184r-55,0r0,-184r-163,0r0,-51r163,0r0,-177r55,0r0,177r162,0r0,51xm409,-22r-380,0r0,-51r380,0r0,51","w":438},"\u00b2":{"d":"165,-827v70,-1,126,41,125,112v0,32,-12,64,-37,97v-25,33,-69,83,-134,149r173,0r0,48r-251,0r0,-44v77,-77,128,-130,153,-161v25,-31,38,-60,38,-87v1,-41,-30,-66,-69,-66v-41,0,-71,17,-91,51r-35,-35v29,-43,72,-64,128,-64","w":327},"\u00b3":{"d":"211,-628v42,5,82,48,82,98v0,72,-55,116,-131,116v-60,0,-104,-22,-131,-66r36,-35v22,35,53,53,93,53v47,1,76,-26,76,-71v0,-47,-28,-70,-83,-70v-19,0,-30,0,-33,1r0,-48v4,1,14,1,31,1v45,0,79,-21,79,-65v1,-43,-30,-65,-72,-65v-35,0,-64,16,-88,47r-34,-32v30,-42,72,-63,126,-63v71,-1,125,37,125,107v0,48,-37,83,-76,92","w":327},"\u00b4":{"d":"186,-700r-135,144r-51,0r114,-144r72,0","w":186},"\u00b5":{"d":"328,-67v-33,51,-108,97,-191,72r0,179r-71,0r0,-667r71,0r0,344v0,59,26,89,78,89v50,-1,93,-41,113,-77r0,-356r72,0r0,483r-72,0r0,-67","w":465},"\u03bc":{"d":"328,-67v-33,51,-108,97,-191,72r0,179r-71,0r0,-667r71,0r0,344v0,59,26,89,78,89v50,-1,93,-41,113,-77r0,-356r72,0r0,483r-72,0r0,-67","w":465},"\u00b6":{"d":"27,-495v0,-92,80,-172,172,-172r177,0r0,767r-43,0r0,-723r-90,0r0,723r-44,0r0,-423v-92,3,-172,-80,-172,-172","w":449},"\u00b7":{"d":"114,-298v28,0,54,26,54,53v0,28,-26,54,-54,54v-29,0,-53,-26,-53,-54v0,-27,25,-53,53,-53","w":229},"\u2219":{"d":"114,-298v28,0,54,26,54,53v0,28,-26,54,-54,54v-29,0,-53,-26,-53,-54v0,-27,25,-53,53,-53","w":229},"\u00b8":{"d":"185,111v0,48,-45,81,-96,80v-34,0,-64,-10,-89,-30r18,-37v21,19,45,28,70,28v27,0,54,-16,54,-42v0,-41,-47,-44,-66,-19r-32,-18r30,-84r44,0r-26,66v40,-28,93,5,93,56","w":185},"\u00b9":{"d":"169,-421r-59,0r0,-325r-62,66r-34,-36r104,-105r51,0r0,400","w":225},"\u00ba":{"d":"312,-483v0,89,-51,165,-139,165v-87,0,-138,-77,-138,-165v0,-88,51,-165,138,-165v88,0,139,76,139,165xm93,-483v0,61,23,118,80,118v57,0,82,-57,82,-118v0,-61,-24,-117,-82,-117v-57,0,-80,56,-80,117","w":348},"\u00bb":{"d":"222,-243r-125,180r-67,0r125,-180r-125,-177r67,0xm352,-243r-125,180r-67,0r125,-180r-125,-177r67,0","w":382},"\u00bc":{"d":"516,-667r-350,667r-47,0r349,-667r48,0xm647,-101r-47,0r0,101r-57,0r0,-101r-169,0r0,-45r151,-254r75,0r0,252r47,0r0,47xm543,-148r0,-193r-115,193r115,0xm169,-267r-59,0r0,-325r-62,66r-34,-36r104,-105r51,0r0,400","w":673},"\u00bd":{"d":"516,-667r-350,667r-47,0r349,-667r48,0xm546,-406v70,-1,126,41,125,112v0,32,-12,65,-37,98v-25,33,-69,82,-134,148r173,0r0,48r-251,0r0,-44v77,-77,129,-130,154,-161v25,-31,37,-60,37,-87v1,-41,-30,-66,-69,-66v-41,0,-71,17,-91,51r-35,-35v29,-43,72,-64,128,-64xm169,-267r-59,0r0,-325r-62,66r-34,-36r104,-105r51,0r0,400","w":708},"\u00be":{"d":"589,-667r-350,667r-47,0r349,-667r48,0xm720,-101r-47,0r0,101r-57,0r0,-101r-169,0r0,-45r151,-254r75,0r0,252r47,0r0,47xm616,-148r0,-193r-115,193r115,0xm211,-474v42,5,82,48,82,98v0,72,-55,116,-131,116v-60,0,-104,-22,-131,-66r36,-35v22,35,53,53,93,53v47,1,76,-26,76,-71v0,-47,-28,-70,-83,-70v-19,0,-30,0,-33,1r0,-48v4,1,14,1,31,1v45,0,79,-21,79,-65v1,-43,-30,-65,-72,-65v-35,0,-64,16,-88,47r-34,-32v30,-42,72,-63,126,-63v71,-1,125,37,125,107v0,48,-37,83,-76,92","w":746},"\u00bf":{"d":"194,197v-120,0,-203,-109,-150,-221v28,-62,88,-88,122,-143v22,-33,23,-78,-7,-103r60,-27v37,34,43,97,18,145v-28,55,-83,80,-114,132v-39,66,4,146,82,146v46,0,84,-19,114,-58r41,52v-42,51,-97,77,-166,77xm143,-439v0,-28,24,-54,53,-54v28,0,54,26,54,54v0,27,-26,53,-54,53v-28,0,-53,-26,-53,-53","w":333},"\u00c0":{"d":"315,-728r-51,0r-135,-144r73,0xm504,0r-86,0r-43,-151r-238,0r-43,151r-86,0r201,-667r95,0xm358,-222r-102,-357r-102,357r204,0"},"\u00c1":{"d":"385,-872r-135,144r-51,0r114,-144r72,0xm504,0r-86,0r-43,-151r-238,0r-43,151r-86,0r201,-667r95,0xm358,-222r-102,-357r-102,357r204,0"},"\u00c2":{"d":"374,-728r-46,0r-72,-105r-69,105r-46,0r80,-144r70,0xm504,0r-86,0r-43,-151r-238,0r-43,151r-86,0r201,-667r95,0xm358,-222r-102,-357r-102,357r204,0"},"\u00c3":{"d":"392,-860v0,69,-23,134,-85,134v-48,0,-56,-51,-77,-80v-7,-10,-16,-14,-25,-14v-27,0,-41,29,-41,88r-42,0v0,-69,23,-134,85,-134v49,0,57,51,78,80v7,10,15,14,24,14v27,0,41,-29,41,-88r42,0xm504,0r-86,0r-43,-151r-238,0r-43,151r-86,0r201,-667r95,0xm358,-222r-102,-357r-102,357r204,0"},"\u00c4":{"d":"344,-818v24,0,45,21,45,45v0,25,-20,45,-45,45v-25,0,-45,-20,-45,-45v0,-24,21,-45,45,-45xm170,-818v23,0,45,22,45,45v0,24,-21,45,-45,45v-25,0,-45,-20,-45,-45v0,-24,21,-45,45,-45xm504,0r-86,0r-43,-151r-238,0r-43,151r-86,0r201,-667r95,0xm358,-222r-102,-357r-102,357r204,0"},"\u00c5":{"d":"347,-784v0,49,-42,91,-90,91v-48,0,-91,-42,-91,-91v0,-48,42,-90,91,-90v48,0,90,41,90,90xm204,-784v0,29,24,53,53,53v29,0,52,-24,52,-53v0,-29,-23,-53,-52,-53v-29,0,-53,24,-53,53xm504,0r-86,0r-43,-151r-238,0r-43,151r-86,0r201,-667r95,0xm358,-222r-102,-357r-102,357r204,0"},"\u00c6":{"d":"704,0r-343,0r0,-151r-195,0r-69,151r-86,0r317,-667r376,0r0,71r-264,0r0,219r257,0r0,71r-257,0r0,235r264,0r0,71xm361,-222r0,-357r-166,357r166,0","w":752},"\u00c7":{"d":"397,107v0,48,-45,81,-96,80v-34,0,-64,-10,-89,-30r18,-37v21,19,45,28,70,28v27,0,54,-16,54,-42v0,-41,-47,-44,-66,-19r-32,-18r21,-59v-148,-17,-230,-168,-230,-343v0,-101,24,-185,71,-249v47,-64,110,-96,189,-96v84,0,149,43,196,130r-66,32v-30,-61,-73,-91,-130,-91v-54,0,-96,27,-129,77v-63,95,-64,298,0,394v34,51,75,77,129,77v67,-1,108,-47,131,-99r66,31v-45,88,-106,134,-185,138r-15,40v40,-28,93,5,93,56","w":534},"\u00c8":{"d":"302,-728r-51,0r-135,-144r73,0xm413,0r-343,0r0,-667r343,0r0,71r-263,0r0,219r256,0r0,71r-256,0r0,235r263,0r0,71","w":462},"\u00c9":{"d":"371,-872r-135,144r-51,0r114,-144r72,0xm413,0r-343,0r0,-667r343,0r0,71r-263,0r0,219r256,0r0,71r-256,0r0,235r263,0r0,71","w":462},"\u00ca":{"d":"359,-728r-46,0r-72,-105r-69,105r-46,0r80,-144r70,0xm413,0r-343,0r0,-667r343,0r0,71r-263,0r0,219r256,0r0,71r-256,0r0,235r263,0r0,71","w":462},"\u00cb":{"d":"329,-818v24,0,45,21,45,45v0,25,-20,45,-45,45v-25,0,-45,-20,-45,-45v0,-24,21,-45,45,-45xm155,-818v23,0,45,22,45,45v0,24,-21,45,-45,45v-25,0,-45,-20,-45,-45v0,-24,21,-45,45,-45xm413,0r-343,0r0,-667r343,0r0,71r-263,0r0,219r256,0r0,71r-256,0r0,235r263,0r0,71","w":462},"\u00cc":{"d":"168,-728r-51,0r-135,-144r73,0xm150,0r-80,0r0,-667r80,0r0,667","w":220},"\u00cd":{"d":"239,-872r-135,144r-51,0r114,-144r72,0xm150,0r-80,0r0,-667r80,0r0,667","w":220},"\u00ce":{"d":"227,-728r-46,0r-72,-105r-69,105r-46,0r80,-144r70,0xm150,0r-80,0r0,-667r80,0r0,667","w":220},"\u00cf":{"d":"198,-818v24,0,45,21,45,45v0,25,-20,45,-45,45v-25,0,-45,-20,-45,-45v0,-24,21,-45,45,-45xm24,-818v23,0,45,22,45,45v0,24,-21,45,-45,45v-25,0,-45,-20,-45,-45v0,-24,21,-45,45,-45xm150,0r-80,0r0,-667r80,0r0,667","w":220},"\u00d0":{"d":"542,-333v0,184,-93,333,-270,333r-178,0r0,-300r-78,0r0,-58r78,0r0,-309r178,0v176,-2,270,151,270,334xm459,-333v0,-142,-55,-262,-187,-263r-98,0r0,238r124,0r0,58r-124,0r0,229r98,0v130,-1,187,-122,187,-262","w":589},"\u00d1":{"d":"419,-860v0,69,-23,134,-85,134v-48,0,-56,-51,-77,-80v-7,-10,-16,-14,-25,-14v-27,0,-41,29,-41,88r-42,0v0,-69,23,-134,85,-134v49,0,57,51,78,80v7,10,15,14,24,14v27,0,41,-29,41,-88r42,0xm503,0r-76,0r-277,-508r0,508r-80,0r0,-667r80,0r274,498r0,-498r79,0r0,667","w":573},"\u00d2":{"d":"360,-728r-51,0r-135,-144r73,0xm300,12v-79,0,-140,-34,-186,-98v-89,-122,-89,-372,0,-494v46,-64,107,-98,186,-98v79,0,140,34,186,98v89,122,89,372,0,494v-46,64,-107,98,-186,98xm174,-136v59,101,194,101,252,0v84,-147,53,-471,-126,-471v-54,0,-95,26,-126,77v-59,96,-57,296,0,394","w":601},"\u00d3":{"d":"429,-872r-135,144r-51,0r114,-144r72,0xm300,12v-79,0,-140,-34,-186,-98v-89,-122,-89,-372,0,-494v46,-64,107,-98,186,-98v79,0,140,34,186,98v89,122,89,372,0,494v-46,64,-107,98,-186,98xm174,-136v59,101,194,101,252,0v84,-147,53,-471,-126,-471v-54,0,-95,26,-126,77v-59,96,-57,296,0,394","w":601},"\u00d4":{"d":"418,-728r-46,0r-72,-105r-69,105r-46,0r80,-144r70,0xm300,12v-79,0,-140,-34,-186,-98v-89,-122,-89,-372,0,-494v46,-64,107,-98,186,-98v79,0,140,34,186,98v89,122,89,372,0,494v-46,64,-107,98,-186,98xm174,-136v59,101,194,101,252,0v84,-147,53,-471,-126,-471v-54,0,-95,26,-126,77v-59,96,-57,296,0,394","w":601},"\u00d5":{"d":"436,-860v0,69,-23,134,-85,134v-48,0,-56,-51,-77,-80v-7,-10,-16,-14,-25,-14v-27,0,-41,29,-41,88r-42,0v0,-69,23,-134,85,-134v49,0,57,51,78,80v7,10,15,14,24,14v27,0,41,-29,41,-88r42,0xm300,12v-79,0,-140,-34,-186,-98v-89,-122,-89,-372,0,-494v46,-64,107,-98,186,-98v79,0,140,34,186,98v89,122,89,372,0,494v-46,64,-107,98,-186,98xm174,-136v59,101,194,101,252,0v84,-147,53,-471,-126,-471v-54,0,-95,26,-126,77v-59,96,-57,296,0,394","w":601},"\u00d6":{"d":"387,-818v24,0,45,21,45,45v0,25,-20,45,-45,45v-25,0,-45,-20,-45,-45v0,-24,21,-45,45,-45xm213,-818v23,0,45,22,45,45v0,24,-21,45,-45,45v-25,0,-45,-20,-45,-45v0,-24,21,-45,45,-45xm300,12v-79,0,-140,-34,-186,-98v-89,-122,-89,-372,0,-494v46,-64,107,-98,186,-98v79,0,140,34,186,98v89,122,89,372,0,494v-46,64,-107,98,-186,98xm174,-136v59,101,194,101,252,0v84,-147,53,-471,-126,-471v-54,0,-95,26,-126,77v-59,96,-57,296,0,394","w":601},"\u00d7":{"d":"347,-170r-128,-128r-127,128r-37,-36r128,-128r-128,-128r37,-36r127,128r128,-128r36,36r-128,128r128,128","w":438},"\u00d8":{"d":"300,12v-51,0,-96,-15,-135,-44r-18,32r-59,0r38,-70v-101,-114,-104,-383,-12,-510v47,-64,107,-98,186,-98v49,0,94,14,133,43r18,-32r59,0r-38,69v104,112,107,384,14,512v-47,64,-107,98,-186,98xm300,-59v54,0,94,-26,126,-77v58,-93,61,-291,5,-385r-229,421v27,27,60,41,98,41xm300,-607v-176,0,-210,313,-132,460r228,-420v-28,-27,-60,-40,-96,-40","w":601},"\u00d9":{"d":"344,-728r-51,0r-135,-144r73,0xm499,-216v1,141,-77,228,-214,228v-137,0,-215,-87,-215,-228r0,-451r80,0r0,451v-1,97,43,157,135,157v90,0,134,-61,134,-157r0,-451r80,0r0,451","w":569},"\u00da":{"d":"412,-872r-135,144r-51,0r114,-144r72,0xm499,-216v1,141,-77,228,-214,228v-137,0,-215,-87,-215,-228r0,-451r80,0r0,451v-1,97,43,157,135,157v90,0,134,-61,134,-157r0,-451r80,0r0,451","w":569},"\u00db":{"d":"404,-728r-46,0r-72,-105r-69,105r-46,0r80,-144r70,0xm499,-216v1,141,-77,228,-214,228v-137,0,-215,-87,-215,-228r0,-451r80,0r0,451v-1,97,43,157,135,157v90,0,134,-61,134,-157r0,-451r80,0r0,451","w":569},"\u00dc":{"d":"372,-818v24,0,45,21,45,45v0,25,-20,45,-45,45v-25,0,-45,-20,-45,-45v0,-24,21,-45,45,-45xm198,-818v23,0,45,22,45,45v0,24,-21,45,-45,45v-25,0,-45,-20,-45,-45v0,-24,21,-45,45,-45xm499,-216v1,141,-77,228,-214,228v-137,0,-215,-87,-215,-228r0,-451r80,0r0,451v-1,97,43,157,135,157v90,0,134,-61,134,-157r0,-451r80,0r0,451","w":569},"\u00dd":{"d":"382,-872r-135,144r-51,0r114,-144r72,0xm290,0r-79,0r0,-282r-206,-385r89,0r157,308r157,-308r88,0r-206,385r0,282","w":501},"\u00de":{"d":"458,-346v0,112,-70,199,-185,199r-123,0r0,147r-80,0r0,-667r80,0r0,120r123,0v116,-3,185,88,185,201xm376,-346v0,-73,-41,-132,-111,-131r-115,0r0,259r115,0v70,1,111,-55,111,-128","w":488},"\u00df":{"d":"241,-677v81,0,160,49,160,125v0,49,-34,87,-63,106v-25,17,-62,43,-62,81v0,45,45,65,82,79v71,28,150,60,150,159v0,81,-69,141,-157,139v-78,-2,-117,-27,-157,-69r34,-51v31,41,70,61,117,61v51,0,93,-31,91,-78v-4,-76,-93,-86,-149,-115v-42,-22,-82,-60,-81,-122v1,-81,74,-100,110,-148v39,-51,-18,-105,-76,-103v-59,2,-98,42,-98,105r0,508r-72,0r0,-508v-1,-97,72,-169,171,-169","w":525},"\u00e0":{"d":"227,-495v100,0,160,54,160,157r0,338r-72,0r0,-53v-30,43,-73,65,-128,65v-84,0,-146,-71,-146,-161v0,-91,61,-159,146,-159v56,0,99,21,128,63r0,-85v1,-64,-36,-103,-99,-103v-46,0,-87,20,-122,59r-32,-50v45,-47,100,-71,165,-71xm114,-148v0,59,37,108,97,108v47,0,82,-20,104,-60r0,-95v-22,-41,-57,-61,-104,-61v-60,0,-97,49,-97,108xm285,-556r-51,0r-135,-144r73,0","w":452},"\u00e1":{"d":"227,-495v100,0,160,54,160,157r0,338r-72,0r0,-53v-30,43,-73,65,-128,65v-84,0,-146,-71,-146,-161v0,-91,61,-159,146,-159v56,0,99,21,128,63r0,-85v1,-64,-36,-103,-99,-103v-46,0,-87,20,-122,59r-32,-50v45,-47,100,-71,165,-71xm114,-148v0,59,37,108,97,108v47,0,82,-20,104,-60r0,-95v-22,-41,-57,-61,-104,-61v-60,0,-97,49,-97,108xm356,-700r-135,144r-51,0r114,-144r72,0","w":452},"\u00e2":{"d":"227,-495v100,0,160,54,160,157r0,338r-72,0r0,-53v-30,43,-73,65,-128,65v-84,0,-146,-71,-146,-161v0,-91,61,-159,146,-159v56,0,99,21,128,63r0,-85v1,-64,-36,-103,-99,-103v-46,0,-87,20,-122,59r-32,-50v45,-47,100,-71,165,-71xm114,-148v0,59,37,108,97,108v47,0,82,-20,104,-60r0,-95v-22,-41,-57,-61,-104,-61v-60,0,-97,49,-97,108xm346,-556r-46,0r-72,-105r-69,105r-46,0r80,-144r70,0","w":452},"\u00e3":{"d":"227,-495v100,0,160,54,160,157r0,338r-72,0r0,-53v-30,43,-73,65,-128,65v-84,0,-146,-71,-146,-161v0,-91,61,-159,146,-159v56,0,99,21,128,63r0,-85v1,-64,-36,-103,-99,-103v-46,0,-87,20,-122,59r-32,-50v45,-47,100,-71,165,-71xm114,-148v0,59,37,108,97,108v47,0,82,-20,104,-60r0,-95v-22,-41,-57,-61,-104,-61v-60,0,-97,49,-97,108xm363,-688v0,69,-23,134,-85,134v-48,0,-56,-51,-77,-80v-7,-10,-16,-14,-25,-14v-27,0,-41,29,-41,88r-42,0v0,-69,23,-134,85,-134v49,0,57,51,78,80v7,10,15,14,24,14v27,0,41,-29,41,-88r42,0","w":452},"\u00e4":{"d":"227,-495v100,0,160,54,160,157r0,338r-72,0r0,-53v-30,43,-73,65,-128,65v-84,0,-146,-71,-146,-161v0,-91,61,-159,146,-159v56,0,99,21,128,63r0,-85v1,-64,-36,-103,-99,-103v-46,0,-87,20,-122,59r-32,-50v45,-47,100,-71,165,-71xm114,-148v0,59,37,108,97,108v47,0,82,-20,104,-60r0,-95v-22,-41,-57,-61,-104,-61v-60,0,-97,49,-97,108xm314,-649v24,0,45,21,45,45v0,25,-20,45,-45,45v-25,0,-45,-20,-45,-45v0,-24,21,-45,45,-45xm140,-649v23,0,45,22,45,45v0,24,-21,45,-45,45v-25,0,-45,-20,-45,-45v0,-24,21,-45,45,-45","w":452},"\u00e5":{"d":"227,-495v100,0,160,54,160,157r0,338r-72,0r0,-53v-30,43,-73,65,-128,65v-84,0,-146,-71,-146,-161v0,-91,61,-159,146,-159v56,0,99,21,128,63r0,-85v1,-64,-36,-103,-99,-103v-46,0,-87,20,-122,59r-32,-50v45,-47,100,-71,165,-71xm114,-148v0,59,37,108,97,108v47,0,82,-20,104,-60r0,-95v-22,-41,-57,-61,-104,-61v-60,0,-97,49,-97,108xm317,-639v0,49,-42,91,-90,91v-48,0,-91,-43,-91,-91v0,-48,42,-90,91,-90v48,0,90,42,90,90xm174,-639v0,29,24,53,53,53v29,0,52,-24,52,-53v0,-29,-23,-53,-52,-53v-29,0,-53,24,-53,53","w":452},"\u00e6":{"d":"511,-495v135,1,195,129,189,277r-314,0v1,92,51,170,140,170v45,0,84,-20,115,-60r38,43v-43,51,-96,77,-159,77v-72,0,-128,-31,-168,-94v-39,63,-93,94,-162,94v-86,0,-149,-69,-149,-160v0,-91,60,-160,146,-160v56,0,99,21,128,63r0,-85v1,-64,-36,-103,-99,-103v-46,0,-87,20,-122,59r-32,-50v45,-47,100,-71,165,-71v76,0,121,30,136,91v31,-61,81,-91,148,-91xm629,-272v-1,-80,-40,-163,-122,-163v-80,0,-119,87,-121,163r243,0xm114,-148v0,62,37,108,97,108v53,0,92,-27,117,-80v-9,-25,-13,-49,-13,-74v-22,-41,-57,-62,-104,-62v-60,-1,-97,46,-97,108","w":739},"\u00e7":{"d":"338,109v0,48,-45,81,-96,80v-35,0,-64,-10,-89,-30r18,-37v21,19,45,28,70,28v27,0,54,-16,54,-42v0,-41,-47,-44,-66,-19r-32,-18r21,-61v-111,-12,-176,-124,-176,-252v0,-135,72,-254,201,-253v57,0,103,21,138,64r-39,49v-24,-33,-55,-49,-93,-49v-89,0,-132,93,-132,189v0,96,42,190,132,190v37,0,68,-16,93,-49r39,49v-29,39,-69,60,-120,63r-16,42v40,-28,93,5,93,56","w":407},"\u00e8":{"d":"116,-218v1,92,51,170,140,170v46,0,84,-20,115,-60r38,43v-42,51,-95,77,-159,77v-133,1,-208,-115,-208,-254v0,-132,71,-254,197,-253v137,1,197,128,191,277r-314,0xm359,-272v-1,-80,-39,-163,-122,-163v-80,0,-119,87,-121,163r243,0xm298,-556r-51,0r-135,-144r73,0","w":469},"\u00e9":{"d":"116,-218v1,92,51,170,140,170v46,0,84,-20,115,-60r38,43v-42,51,-95,77,-159,77v-133,1,-208,-115,-208,-254v0,-132,71,-254,197,-253v137,1,197,128,191,277r-314,0xm359,-272v-1,-80,-39,-163,-122,-163v-80,0,-119,87,-121,163r243,0xm368,-700r-135,144r-51,0r114,-144r72,0","w":469},"\u00ea":{"d":"116,-218v1,92,51,170,140,170v46,0,84,-20,115,-60r38,43v-42,51,-95,77,-159,77v-133,1,-208,-115,-208,-254v0,-132,71,-254,197,-253v137,1,197,128,191,277r-314,0xm359,-272v-1,-80,-39,-163,-122,-163v-80,0,-119,87,-121,163r243,0xm356,-556r-46,0r-72,-105r-69,105r-46,0r80,-144r70,0","w":469},"\u00eb":{"d":"116,-218v1,92,51,170,140,170v46,0,84,-20,115,-60r38,43v-42,51,-95,77,-159,77v-133,1,-208,-115,-208,-254v0,-132,71,-254,197,-253v137,1,197,128,191,277r-314,0xm359,-272v-1,-80,-39,-163,-122,-163v-80,0,-119,87,-121,163r243,0xm325,-649v24,0,45,21,45,45v0,25,-20,45,-45,45v-25,0,-45,-20,-45,-45v0,-24,21,-45,45,-45xm151,-649v23,0,45,22,45,45v0,24,-21,45,-45,45v-25,0,-45,-20,-45,-45v0,-24,21,-45,45,-45","w":469},"\u00ec":{"d":"159,-556r-51,0r-135,-144r73,0xm137,0r-71,0r0,-483r71,0r0,483","w":203},"\u00ed":{"d":"230,-700r-135,144r-51,0r114,-144r72,0xm137,0r-71,0r0,-483r71,0r0,483","w":203},"\u00ee":{"d":"219,-556r-46,0r-72,-105r-69,105r-46,0r80,-144r70,0xm137,0r-71,0r0,-483r71,0r0,483","w":203},"\u00ef":{"d":"189,-649v24,0,45,21,45,45v0,25,-20,45,-45,45v-25,0,-45,-20,-45,-45v0,-24,21,-45,45,-45xm15,-649v23,0,45,22,45,45v0,24,-21,45,-45,45v-25,0,-45,-20,-45,-45v0,-24,21,-45,45,-45xm137,0r-71,0r0,-483r71,0r0,483","w":203},"\u00f0":{"d":"42,-235v0,-125,62,-246,180,-245v51,0,91,25,121,75v-23,-54,-56,-106,-99,-156r-123,55r-17,-39r111,-49v-13,-13,-32,-32,-59,-56r52,-45v28,25,52,50,71,73r91,-41r17,39r-80,35v86,109,129,221,129,338v0,141,-63,263,-197,263v-128,0,-197,-115,-197,-247xm118,-234v0,90,36,182,121,182v86,0,122,-91,122,-182v0,-91,-36,-183,-122,-183v-85,0,-121,93,-121,183","w":478},"\u00f1":{"d":"138,-414v25,-40,81,-81,141,-81v81,0,122,44,122,131r0,364r-72,0r0,-343v0,-59,-26,-88,-77,-88v-51,0,-94,41,-114,77r0,354r-71,0r0,-483r71,0r0,69xm369,-688v0,69,-23,134,-85,134v-48,0,-56,-51,-77,-80v-7,-10,-16,-14,-25,-14v-27,0,-41,29,-41,88r-42,0v0,-69,23,-134,85,-134v49,0,57,51,78,80v7,10,15,14,24,14v27,0,41,-29,41,-88r42,0","w":466},"\u00f2":{"d":"436,-242v0,134,-68,254,-197,254v-129,0,-197,-121,-197,-254v0,-134,68,-253,197,-253v129,0,197,120,197,253xm118,-242v0,94,34,189,121,190v87,0,122,-96,122,-190v0,-93,-35,-189,-122,-189v-86,0,-121,97,-121,189xm298,-556r-51,0r-135,-144r73,0","w":478},"\u00f3":{"d":"436,-242v0,134,-68,254,-197,254v-129,0,-197,-121,-197,-254v0,-134,68,-253,197,-253v129,0,197,120,197,253xm118,-242v0,94,34,189,121,190v87,0,122,-96,122,-190v0,-93,-35,-189,-122,-189v-86,0,-121,97,-121,189xm367,-700r-135,144r-51,0r114,-144r72,0","w":478},"\u00f4":{"d":"436,-242v0,134,-68,254,-197,254v-129,0,-197,-121,-197,-254v0,-134,68,-253,197,-253v129,0,197,120,197,253xm118,-242v0,94,34,189,121,190v87,0,122,-96,122,-190v0,-93,-35,-189,-122,-189v-86,0,-121,97,-121,189xm357,-556r-46,0r-72,-105r-69,105r-46,0r80,-144r70,0","w":478},"\u00f5":{"d":"436,-242v0,134,-68,254,-197,254v-129,0,-197,-121,-197,-254v0,-134,68,-253,197,-253v129,0,197,120,197,253xm118,-242v0,94,34,189,121,190v87,0,122,-96,122,-190v0,-93,-35,-189,-122,-189v-86,0,-121,97,-121,189xm374,-688v0,69,-23,134,-85,134v-48,0,-56,-51,-77,-80v-7,-10,-16,-14,-25,-14v-27,0,-41,29,-41,88r-42,0v0,-69,23,-134,85,-134v49,0,57,51,78,80v7,10,15,14,24,14v27,0,41,-29,41,-88r42,0","w":478},"\u00f6":{"d":"436,-242v0,134,-68,254,-197,254v-129,0,-197,-121,-197,-254v0,-134,68,-253,197,-253v129,0,197,120,197,253xm118,-242v0,94,34,189,121,190v87,0,122,-96,122,-190v0,-93,-35,-189,-122,-189v-86,0,-121,97,-121,189xm327,-649v24,0,45,21,45,45v0,25,-20,45,-45,45v-25,0,-45,-20,-45,-45v0,-24,21,-45,45,-45xm153,-649v23,0,45,22,45,45v0,24,-21,45,-45,45v-25,0,-45,-20,-45,-45v0,-24,21,-45,45,-45","w":478},"\u00f7":{"d":"222,-547v25,0,45,19,45,44v0,25,-20,46,-45,46v-25,0,-45,-21,-45,-46v0,-25,20,-44,45,-44xm414,-312r-385,0r0,-51r385,0r0,51xm222,-213v24,0,45,21,45,45v0,25,-20,45,-45,45v-25,0,-45,-20,-45,-45v0,-24,21,-45,45,-45","w":443},"\u00f8":{"d":"436,-242v1,134,-68,256,-197,254v-45,0,-84,-14,-115,-41r-19,29r-50,0r39,-60v-35,-47,-52,-107,-52,-182v-1,-134,68,-255,197,-253v44,0,82,13,113,39r17,-27r50,0r-38,58v37,47,55,108,55,183xm239,-52v125,0,146,-201,99,-307r-176,271v20,24,46,36,77,36xm239,-431v-123,-1,-144,198,-101,303r176,-270v-21,-22,-46,-33,-75,-33","w":478},"\u00f9":{"d":"215,-52v51,0,93,-40,113,-75r0,-356r72,0r0,483r-72,0r0,-67v-27,40,-78,79,-140,79v-81,0,-122,-43,-122,-130r0,-365r71,0r0,344v0,58,26,87,78,87xm292,-556r-51,0r-135,-144r73,0","w":465},"\u00fa":{"d":"215,-52v51,0,93,-40,113,-75r0,-356r72,0r0,483r-72,0r0,-67v-27,40,-78,79,-140,79v-81,0,-122,-43,-122,-130r0,-365r71,0r0,344v0,58,26,87,78,87xm362,-700r-135,144r-51,0r114,-144r72,0","w":465},"\u00fb":{"d":"215,-52v51,0,93,-40,113,-75r0,-356r72,0r0,483r-72,0r0,-67v-27,40,-78,79,-140,79v-81,0,-122,-43,-122,-130r0,-365r71,0r0,344v0,58,26,87,78,87xm350,-556r-46,0r-72,-105r-69,105r-46,0r80,-144r70,0","w":465},"\u00fc":{"d":"215,-52v51,0,93,-40,113,-75r0,-356r72,0r0,483r-72,0r0,-67v-27,40,-78,79,-140,79v-81,0,-122,-43,-122,-130r0,-365r71,0r0,344v0,58,26,87,78,87xm322,-649v24,0,45,21,45,45v0,25,-20,45,-45,45v-25,0,-45,-20,-45,-45v0,-24,21,-45,45,-45xm148,-649v23,0,45,22,45,45v0,24,-21,45,-45,45v-25,0,-45,-20,-45,-45v0,-24,21,-45,45,-45","w":465},"\u00fd":{"d":"41,189r12,-64v16,10,53,10,67,-3v25,-22,33,-77,47,-112r-161,-493r78,0r121,396r121,-396r77,0r-194,584v-20,61,-49,93,-120,95v-19,0,-35,-2,-48,-7xm333,-700r-135,144r-51,0r114,-144r72,0","w":409},"\u00fe":{"d":"438,-242v0,135,-52,254,-173,254v-56,0,-99,-27,-128,-80r0,252r-71,0r0,-851r71,0r0,251v30,-53,73,-79,128,-79v120,2,173,119,173,253xm137,-132v16,38,61,80,110,80v86,0,116,-95,116,-190v0,-96,-30,-189,-116,-189v-50,0,-94,40,-110,78r0,221","w":479},"\u00ff":{"d":"41,189r12,-64v16,10,53,10,67,-3v25,-22,33,-77,47,-112r-161,-493r78,0r121,396r121,-396r77,0r-194,584v-20,61,-49,93,-120,95v-19,0,-35,-2,-48,-7xm292,-649v24,0,45,21,45,45v0,25,-20,45,-45,45v-25,0,-45,-20,-45,-45v0,-24,21,-45,45,-45xm118,-649v23,0,45,22,45,45v0,24,-21,45,-45,45v-25,0,-45,-20,-45,-45v0,-24,21,-45,45,-45","w":409},"\u0152":{"d":"291,-677v80,0,140,43,169,104r0,-94r343,0r0,71r-264,0r0,219r257,0r0,71r-257,0r0,235r264,0r0,71r-343,0r0,-94v-30,63,-88,106,-169,106v-76,0,-134,-34,-179,-98v-85,-121,-85,-374,0,-494v45,-63,103,-97,179,-97xm302,-59v85,0,137,-65,158,-142r0,-265v-22,-77,-72,-140,-158,-140v-55,0,-97,26,-128,76v-59,96,-59,299,0,394v32,51,73,77,128,77","w":852},"\u0153":{"d":"557,-495v136,1,197,129,191,277r-313,0v1,92,50,170,139,170v46,0,84,-20,115,-60r39,43v-43,51,-96,77,-160,77v-82,0,-138,-41,-169,-124v-32,83,-85,124,-160,124v-129,0,-197,-121,-197,-254v0,-134,68,-255,197,-253v76,0,129,41,159,122v25,-63,75,-122,159,-122xm677,-272v-3,-87,-34,-159,-121,-163v-81,-3,-120,86,-122,163r243,0xm239,-51v86,0,122,-98,122,-191v0,-94,-36,-189,-122,-189v-86,0,-121,96,-121,189v0,94,35,190,121,191","w":787},"\u0178":{"d":"341,-818v24,0,45,21,45,45v0,25,-20,45,-45,45v-25,0,-45,-20,-45,-45v0,-24,21,-45,45,-45xm167,-818v23,0,45,22,45,45v0,24,-21,45,-45,45v-25,0,-45,-20,-45,-45v0,-24,21,-45,45,-45xm290,0r-79,0r0,-282r-206,-385r89,0r157,308r157,-308r88,0r-206,385r0,282","w":501},"\u02c6":{"d":"233,-556r-46,0r-72,-105r-69,105r-46,0r80,-144r70,0","w":233},"\u02dc":{"d":"270,-688v0,69,-23,134,-85,134v-48,0,-56,-51,-77,-80v-7,-10,-16,-14,-25,-14v-27,0,-41,29,-41,88r-42,0v0,-69,23,-134,85,-134v49,0,57,51,78,80v7,10,15,14,24,14v27,0,41,-29,41,-88r42,0","w":270},"\u2013":{"d":"497,-210r-467,0r0,-64r467,0r0,64","w":527},"\u2014":{"d":"707,-210r-677,0r0,-64r677,0r0,64","w":737},"\u2018":{"d":"113,-455v-36,0,-61,-33,-60,-74v1,-65,38,-119,79,-148r36,29v-27,17,-59,56,-63,93v33,-9,60,17,60,48v0,28,-24,53,-52,52","w":229},"\u2019":{"d":"113,-677v36,0,61,33,60,74v-1,65,-39,120,-80,149r-36,-30v27,-17,59,-57,64,-93v-32,9,-60,-16,-60,-48v0,-28,24,-53,52,-52","w":229},"\u201a":{"d":"113,-97v37,1,61,34,60,75v-1,64,-39,120,-80,148r-36,-29v27,-19,59,-56,64,-93v-35,7,-60,-17,-60,-48v-1,-29,23,-54,52,-53","w":229},"\u201c":{"d":"116,-455v-36,0,-61,-33,-60,-74v1,-64,38,-120,79,-148r37,29v-27,17,-59,57,-64,93v33,-9,60,17,60,48v0,28,-24,53,-52,52xm273,-455v-36,0,-61,-33,-60,-74v1,-64,39,-120,80,-148r36,29v-27,17,-59,56,-63,93v32,-9,59,17,59,48v0,28,-24,53,-52,52","w":386},"\u201d":{"d":"270,-677v36,0,61,33,60,74v-1,65,-38,120,-79,149r-36,-30v27,-17,59,-56,63,-93v-31,9,-60,-16,-60,-48v0,-28,24,-53,52,-52xm113,-677v36,0,61,33,60,74v-1,65,-39,120,-80,149r-36,-30v27,-17,59,-57,64,-93v-32,9,-60,-16,-60,-48v0,-28,24,-53,52,-52","w":386},"\u201e":{"d":"113,-97v37,1,61,34,60,75v-1,64,-39,120,-80,148r-36,-29v27,-19,59,-56,64,-93v-35,7,-60,-17,-60,-48v-1,-29,23,-54,52,-53xm270,-97v37,1,61,34,60,75v-1,65,-38,119,-79,148r-36,-29v28,-18,59,-55,63,-93v-35,7,-60,-17,-60,-48v-1,-29,23,-54,52,-53","w":386},"\u2022":{"d":"180,-349v57,0,107,50,107,107v0,57,-50,106,-107,106v-57,0,-107,-49,-107,-106v0,-57,50,-107,107,-107","w":358},"\u2026":{"d":"114,-97v28,0,54,26,54,53v0,28,-26,54,-54,54v-29,0,-53,-26,-53,-54v0,-27,25,-53,53,-53xm343,-97v28,0,53,26,53,53v0,28,-24,54,-53,54v-28,0,-54,-26,-54,-54v0,-27,26,-53,54,-53xm571,-97v28,0,54,26,54,53v0,28,-26,54,-54,54v-29,0,-53,-26,-53,-54v0,-27,25,-53,53,-53","w":685},"\u2039":{"d":"222,-63r-67,0r-125,-180r125,-177r67,0r-125,177","w":252},"\u203a":{"d":"222,-243r-125,180r-67,0r125,-180r-125,-177r67,0","w":252},"\u20ac":{"d":"324,-59v67,0,108,-47,131,-99r66,31v-46,93,-112,139,-197,139v-146,-2,-229,-114,-252,-250r-48,0r0,-50r41,0v-1,-17,-2,-75,1,-92r-42,0r0,-51r48,0v24,-134,107,-247,252,-247v84,0,149,43,196,130r-66,32v-30,-61,-73,-91,-130,-91v-98,0,-149,84,-169,176r212,0r0,51r-219,0v-3,16,-3,76,0,92r219,0r0,50r-212,0v19,94,71,179,169,179","w":550},"\u2122":{"d":"379,-447r-28,0r0,-182r-65,182r-8,0r-65,-182r0,182r-28,0r0,-220r43,0r54,158r54,-158r43,0r0,220xm149,-641r-52,0r0,194r-28,0r0,-194r-52,0r0,-26r132,0r0,26","w":414}}});
